-0.348124641418
-0.0612415724511
-0.232305705761
0.137820055744
0.139802995482
-0.473204255065
0.403278508431
0.0296583795589
-0.0389711762981
0.268139061749
-0.134649423038
-0.126697508754
-0.267072549791
0.0312046609882
-0.154952584508
0.0761751555476
0.0889268416506
-0.25232464261
-0.152787779473
-0.0814736908276
-0.114972031407
0.114243871561
-0.0389711762981
0.106884372503
-0.127448472452
-0.142782602244
0.338331134262
0.323332749917
-0.679495027237
-0.696114147603
-0.385008010303
-0.293424298795
-0.0220981635698
-0.0916482829606
0.0403990502485
-0.132916514043
-0.0625970212371
-0.00482150558174
0.0680082164246
-0.0877297793331
0.0128660195452
0.492279811035
-0.0986883379743
0.144480203601
0.0755249873832
-0.21837132109
0.085741087661
0.173809301561
-0.0695658499369
-0.240926416084
7.27555125663e-05
-0.265849249466
0.00790242605116
0.499587830756
-0.0370049873463
0.0306643328266
0.0147814508154
0.0104524443017
0.177104702633
0.0665907250613
-0.480655730161
0.0393845108984
0.0665907250613
0.310271125903
0.00199744678111
0.0665907250613
0.344008023339
-0.00230400905741
0.0665907250613
-0.484170270592
-0.100481604785
-0.0439067414595
-0.301581089882
0.24982502118
-0.139421739493
-0.137528965923
-0.0285558310443
-0.032773716666
0.274954161268
0.0240823862673
0.0744072605295
-0.602260108942
0.469399484283
0.883515086467
0.429512362016
0.0500501357733
-0.0132369951737
0.0376966242936
-0.251264861641
-0.173852754014
0.374815707692
-0.155183282489
-0.048368668913
0.0443053049171
-0.826762709945
0.0665907250613
0.0144955780713
-0.533994581646
-0.128726403908
0.0179989993343
-0.508330228277
-0.357048387151
-0.173841743868
-0.336335069722
0.031725731688
0.0927087654329
0.402676890769
0.324778317936
0.180189829465
-0.502941189323
0.573189855486
-0.0284071815228
-0.052344861948
0.276402130487
0.0728069806237
0.220291624459
-0.0815250573132
0.182690626358
0.0484869133809
0.184366914777
-0.0179832460702
-0.0127271908688
-0.385883241956
0.105068160063
0.381664544817
-0.16508612082
0.176741070099
0.0535095086599
0.0354149654963
0.567296026627
-0.191110609875
0.0665907250613
0.227146569223
-0.0655372661861
0.530879343036
0.294596113353
0.134199558724
-0.255528917185
0.0700949712589
-0.155829755573
-0.033401925101
-0.236669167982
0.044666820941
0.0136068494715
-0.0198232385036
0.0215768771474
0.177616799024
-0.0372908268982
0.113969937573
0.0984767741863
0.0665907250613
0.0665907250613
0.0689854111053
-0.0762014279077
-0.57835513954
-0.259313868599
0.0562556645434
0.0665907250613
0.0777648029715
-0.50637578448
0.0665783072579
0.0665907250613
-0.411951394629
0.081254519573
0.137939071723
0.0893580779452
0.0354928139719
0.0507041399744
-0.143037899686
-0.196922516757
0.169644624505
0.0665907250613
0.0443905476171
-0.2739684423
0.0354045133263
-0.0315896708285
-0.110557240629
0.142553296023
0.15541699519
-0.145660883602
0.0665907250613
0.0882656081781
0.0323856613171
0.420865421004
-0.109912656941
0.0664122917046
0.111380824762
0.0701887125304
0.0665907250613
0.0883734047788
0.0236822285198
-0.1210162175
-0.116565844234
0.0251832993882
-0.0138130628977
0.0494283134781
-0.18112464198
0.0989870433722
-0.163470884702
-0.419438329545
0.0665177089268
0.0539770871696
0.000756513167256
0.0136197254552
0.0665907250613
0.336704654513
0.0889858149521
0.235034779555
-0.599051292874
0.141218527303
0.458213283601
0.0769323589497
-0.0523746427564
0.0306488999234
0.00794029003097
-0.395574671231
-0.129043673775
-0.00252675082124
-0.152821759742
-0.0756699089559
0.0766213641224
-0.142978911428
-0.562879601951
-0.197913506903
0.129185145124
-0.372957717352
-0.00538153575239
0.187658538529
0.0682620140443
-0.184521782185
-0.217344726997
0.0665907250613
-0.498148632733
-0.0527858933299
0.0858373764078
-0.043385998004
0.144843703129
-0.403352323461
0.582840094789
0.247658967815
0.0894156373457
0.353529028144
0.135232182786
0.00642871879733
0.0960604736634
0.0844382044395
0.0665907250613
-0.519762596478
0.041936929074
0.0665907250613
-0.19131792918
-0.0412292013181
0.0802394716782
0.0765636260552
0.103327206944
0.0691293859817
0.0665907250613
0.0373695895982
0.0725914848415
0.0725914848415
0.0684343126468
-0.136524822405
0.805644655364
-0.0983659056807
0.497830330795
-0.0366701474156
0.303718315941
0.212711142266
0.701873919663
0.0683526405522
-0.0536547338209
0.11812889437
0.0816752781035
-0.15834895905
-0.155655629062
-0.479626671686
0.0442636385041
0.107634115604
0.00712412079771
-0.429768463983
-0.18648048061
0.0915419395724
-0.4113129472
-0.0196149106372
-0.0172609098553
-0.128265253004
0.111071721597
-0.239306650224
0.506095678829
0.0665907250613
0.0665907250613
0.180477590069
0.192819347249
0.257765667773
0.167855112362
0.426136187318
0.0947780572571
0.0665907250613
0.0521209849778
-0.234356818711
-0.0660770253723
0.489646807103
0.103220851289
0.126829595956
-0.0886560154641
0.0285995236084
0.449064712264
0.270230025971
-0.00429547849505
-0.0655505945181
-0.252577933931
0.372162279023
-0.0588005835224
-0.0993135662199
0.238339339299
-0.00494922103603
-0.429060227653
0.0139588044929
0.134458226317
-0.376861388015
0.0576417802031
-0.383006200154
0.208687595232
0.117856895086
-0.015653542173
-0.00123021029328
-0.336457873555
-0.455620302698
-0.223739785801
-0.00745557034892
0.420443347925
0.124556529983
0.067242287965
-0.371148506064
-0.0251558566517
-0.0118333224345
-0.0177942959818
0.0758832970931
0.0665907250613
0.341027874738
0.0555398352067
0.192025423237
0.0559106194523
0.0665907250613
0.0555086127914
0.147007421937
0.0858990693859
-0.117325401067
0.28930545445
0.000113175534074
-0.0152622218454
0.114836184384
-0.0328748834604
0.07819681769
0.113495548805
0.230422262213
0.0605277086824
0.115821235508
0.0985118199254
0.489311634301
0.338049336301
0.32291089715
0.0665907250613
0.0102937732959
-0.0119278665826
0.0494378629894
0.0977785355852
0.530722866911
0.0665907250613
0.0371321826487
0.426980548509
0.125559026267
-0.450096945645
0.263121362891
0.126584540452
-0.176395128001
0.0264480583192
0.133378854452
0.636255550016
0.230780058837
0.0374161579447
-0.0400808326094
-0.191891944724
0.0665907250613
0.092408673332
0.551822196742
0.0779926123201
0.501615782068
-0.0406447019164
0.0357372077906
0.0107400600225
0.134517318761
1.33974762508
0.477898045668
-0.538258812602
-0.148800975367
0.663315564632
0.0527862257467
0.0929915397324
-0.535275458366
-0.0677877696404
-0.395541559423
0.289578625048
0.0665643528114
-0.740960102796
-0.0603470496386
0.345417806897
-0.297192581401
-1.22835523166
0.334963326767
0.063548512632
-0.0551595846764
0.0551789489275
0.10228594708
0.216522874745
0.0750526427011
-0.157237500364
-0.0217762833768
0.0382573794078
0.150409433195
-0.0938317299259
0.00278238886765
0.293776879806
-0.143801028682
-0.0125805763416
0.0240455191846
0.102736865648
0.118103266171
-0.31520552519
-0.144275775056
0.161551811602
-0.239556138065
0.0791482432923
0.101624802316
-0.423572906739
0.171662216159
-0.274324274251
-0.0995030626514
0.0356858645658
0.192640367848
0.162961500582
0.0294038029273
0.0264052353171
-0.104940787112
-0.00366267029817
-0.311046189925
0.162420031645
0.117187344205
-0.529323000068
0.184541676673
0.248428471926
0.318513948847
0.174920334435
0.119206503814
-0.0451384112782
0.0473851083846
0.118731988398
0.18811139546
-0.255498262133
0.0948964536597
0.131032573828
0.267357916332
-0.649544071461
-0.0740727394244
0.0258832100155
0.120017762406
0.158454363609
0.191814951946
-0.128170895852
0.101624802316
0.0831070983117
0.440025050537
0.101247181068
0.218850050362
0.417374742209
0.0207008215725
-0.116164266487
0.318363746669
0.327987082675
0.144063796939
0.43658483586
-0.0779049823999
-0.215990543605
-0.180729003298
0.0733253531705
0.124752226669
0.145141629229
0.218197329844
-0.0558529848303
-0.15167409984
0.740447507418
0.623228556784
0.100683720022
0.235617732306
0.766014357089
0.326265014336
0.0593601916191
0.00134160416571
-0.150274511015
-0.110100429822
0.104634326496
0.229114147453
-0.39743474731
0.599702458889
0.101624802316
-0.195173085119
0.248172372602
0.0397506422564
0.64402305618
0.0346537834908
-0.201271337254
0.101624802316
0.422377448528
0.656589757842
0.0248929970196
0.10608969107
0.194033635965
0.0616353416527
0.0046367427591
0.0813677401598
-0.310829078556
0.115914172206
0.181337813437
-0.359098827827
-0.124867524077
0.0956111570394
0.577323768396
0.118796873772
-0.290497713246
0.0541489339527
0.705667067878
0.163960930047
-0.0177699346969
0.693468220069
0.149318027693
0.161428799056
0.0913074647513
-0.0661324585299
0.0841569458841
0.226360570483
0.247079705457
0.107415480691
0.101624802316
-0.149754575501
-0.356994528246
0.272126864463
0.571420569374
0.0584920984694
0.236027207464
0.077654145226
0.0410735281144
0.411572738308
0.525596175565
0.104596178326
0.148277355679
0.356840781727
-0.321954469539
0.18709368625
0.343702336755
-0.170407955592
0.607862371942
0.0835637235936
0.188499830655
0.19864161927
-0.253450927605
0.174540073732
0.0347168691631
0.201111674502
0.0439357836466
0.083720024078
0.0226419531798
0.178021773939
0.10470512298
0.207979266503
0.126805645921
0.824638079994
0.992587290939
0.184595298045
0.131263071711
0.113451881241
0.101283818575
0.293177580374
0.101613409109
0.349907443383
0.101624802316
0.101624802316
0.659377168739
0.093097108972
-0.331406445943
-0.0145333124779
0.242610640659
-0.00235085705071
0.217855142898
-0.0792788504367
-0.176715306761
-0.351587245164
0.468309343049
0.452954200701
-0.060025393377
0.122210230162
-0.507923774158
0.191730250154
0.0948964536597
-0.18469093902
0.198233284991
0.0511960875048
0.341897107824
0.628099080722
-0.0383126439511
0.298030734508
-0.0695981760946
-0.0158924337896
-1.26316901271
-0.00383320894698
0.168680333157
-0.171979315507
-0.351526794939
0.279731474981
0.0620327574506
0.101421178803
0.147284362242
0.101684874991
0.0271830849265
0.134414782901
0.187995460087
0.16378418692
0.0627600507124
-0.216915604486
-0.32796759599
-0.0506030758976
0.236602860881
-0.500904999731
-0.0960550646672
0.101624802316
0.131071340087
-0.282626947438
0.0618462771814
-0.373185114455
0.101624802316
0.0891949150594
-0.900074307852
-0.347059160695
0.427610069857
0.101624802316
0.101624802316
0.295440784844
0.0558175597079
0.101624802316
0.16283060378
0.106093639195
0.476030343415
-0.13539873587
0.105295028772
0.683914286749
0.087718745823
0.40713319694
0.0443232321382
0.185814657441
0.148742523531
0.036483753758
0.0617729025732
0.52311030262
0.48658336409
0.217271783765
0.136689023055
0.0680597637315
0.0350657595151
0.171526468532
0.150094425414
-0.138572064226
0.0308509339252
-0.217103033969
-0.225545233344
0.163069309805
0.126691410144
-0.473990470235
0.0533381608906
-1.12892646709
-0.0507698192915
0.339792078079
0.0458542953059
-0.311614644036
-0.155920379703
0.433593710928
0.3147944447
0.0839141219486
0.223422038066
0.167573372094
0.067065313115
0.21139982325
-0.349125243755
0.0622157979614
0.236633415003
-0.0509317140002
-0.138829470751
0.944049539818
0.21578628434
0.044244040499
0.124698980028
0.00326640817843
0.19637525886
0.172336870733
0.357005870669
0.0997444088031
0.0992789898937
0.176015928978
0.133781579555
0.042971168925
0.483826228345
0.0518832408202
0.0350327257511
-0.528134954212
0.0786601273015
0.815152207065
-0.17286251419
-0.610580405962
-0.0395776231426
-0.558436484656
-0.0320737246294
-0.147617829169
-0.0289039306275
-0.284475510705
-0.122841602806
0.179853348515
0.42783897717
0.2801199931
0.06116568619
0.202220891443
-0.0258194415995
0.0831254254006
0.102531012021
0.105865982161
0.0767246871928
0.0253091200742
0.0816225087597
0.0771189218386
0.0997444088031
0.0860596630244
0.0145341890747
0.073456952835
0.33288549649
0.351843368792
0.153411982285
0.0965839216117
0.26565032423
-0.0295453702428
0.0375826482126
0.221650948217
-0.0950833720867
0.0348052966541
0.1776496761
-0.340490444326
-0.137692826138
0.171325559984
0.0295252542476
0.492090409676
0.274280331389
-0.0396721618188
0.059865192932
0.187395409983
0.899183210858
-0.00817528839815
-0.0829079359994
-0.298220796811
0.0754572684813
-0.055414442618
0.0755839152606
-0.191824861286
0.150481945776
-0.410637800843
0.271522160024
0.0997444088031
0.0327685222918
-0.0766616998538
0.137593235954
0.11629235381
0.592328352944
0.0376039416999
0.150597552989
0.485095866147
0.348826195523
0.0986381746983
0.00837927625015
0.147524182663
0.220981879061
-0.0320324201354
0.193212533787
-0.340908940371
-0.206698746939
0.144418906548
-0.044163396028
0.291987677453
0.247780900651
0.655537409658
0.234148204534
-0.0406189050038
0.0619442826084
-0.0041523095465
0.0657106208318
0.125799036539
0.103389185309
0.0373041771835
-0.268917922255
0.160457225947
0.116017469046
0.0907744643396
-0.31606047639
0.133842247829
0.0517737060316
-0.00730208392084
0.103389185309
-0.596205512544
-0.224726425692
0.368670887766
-0.0115769188389
-0.440339329217
-0.0740280708369
0.0376326962077
0.132246437798
0.23150377209
-0.0664798403319
0.0814092721294
0.171871801844
-0.471459107114
0.0545604086755
0.28827687525
-0.458393109945
0.0217606580377
-0.0441740242371
0.145950670601
0.103389185309
0.248123552053
0.181643499881
0.146001270469
-0.108078558159
0.168701929096
-0.27712053313
0.687762067019
-0.214327008079
0.379046443433
-0.081335929621
0.372767022757
-0.0413484677425
0.0645969756607
-0.103073711261
0.0366508335401
0.13186911987
0.104905230544
0.132006412164
-0.0342142725289
0.0711972032006
0.538890032349
0.103389185309
0.0927842959626
0.534484627141
0.08671307814
-0.0821593163162
-0.134115333514
0.134305211065
-0.0751518200458
0.0946566047274
0.124945979986
0.102491744025
0.0953645772965
0.110285108257
0.134972464936
0.384681337523
0.15633079687
0.0452943561469
0.499504923914
0.103389185309
0.123895782814
0.0488954153264
0.043981649599
0.0714818377575
0.509797418355
0.0720506297302
-0.202323544442
0.242715788149
0.165793302456
0.149310291139
0.102052655375
0.101662587453
0.160956564689
0.00618871254513
0.405082517959
0.18612892759
0.218106489876
0.127245193835
0.0721539015299
0.116197203216
0.218955598339
-0.138908532797
-0.0222537836463
-0.308342177114
0.103389185309
0.168294784397
0.416869880015
0.116443585245
0.138753872029
0.229762805572
0.103389185309
-0.0501213439296
0.0996007235571
0.194548290596
0.255908004424
0.00905263847914
0.00574615790173
0.0138106663234
0.0270969865373
0.268001098273
-0.0219611161602
-0.0966013667133
0.289413777199
0.0441461179557
0.103415418065
0.535293985532
0.0929912569026
0.304289057955
-0.0183095636838
-0.218949848911
0.103389185309
-0.154974492356
0.0540684820236
-0.418159944782
0.103389185309
-0.136130943152
0.0360593992009
0.117297699134
0.123932082766
0.103389185309
0.212929215482
0.246544896327
0.0990924233013
0.226000376286
0.0560372508829
0.180217904703
-0.429460467413
0.312414013668
-0.30027339022
0.331541384117
-0.0258351709277
0.0402304745943
-0.318237430421
-0.0662251880353
0.167643656872
-0.0594539002052
0.383718553115
0.177710451915
-0.0165047027999
0.139389187097
-0.0475741547969
-0.196079334548
0.0594313443946
0.106760115387
0.127372281179
0.103389185309
0.133763911682
0.309754056618
0.367352232393
0.0887371859233
0.124086059196
0.0981475804479
-0.0656614073381
0.154886091332
0.712972578625
-0.175135394221
0.131087167893
0.0406217511224
0.182972000128
-0.115749556182
0.785464827004
0.0366904316431
0.118036116446
0.103368873382
-0.118651845615
0.0317998927881
0.165397519711
0.0902701919199
0.0437385804874
0.314409110195
0.282230798754
-0.0435467123743
0.00537727939159
0.153873110129
-0.145749187664
0.054507639442
0.381510814075
-0.0617796467395
0.0158623367531
0.204855439877
0.109382572098
0.234566970401
0.103374548604
-0.358123606318
-0.112670061102
-0.190719140463
0.550978762894
0.196848453793
-0.0456954536817
0.210150778131
0.239037787156
0.498235246758
0.0402255434438
-0.00686793709555
-0.0187285791288
0.166151055545
0.318374762235
0.090841097442
0.103910747047
0.228701967776
0.0453486517542
0.0163746992664
0.141237386795
0.395664934398
0.376108938654
0.10681778623
-0.183471467121
-0.194034882471
0.22282903318
0.0522415393902
0.7730506765
0.117937841833
-0.0104957177679
0.103389185309
0.103389185309
0.103389185309
0.07802233363
0.225589990931
0.465042438489
0.27716649103
0.0870700526623
-0.272256040914
-0.0611717302006
-0.219164608287
0.105428945781
-0.0985315711019
0.316346181269
0.103389185309
-0.0177320712736
0.156742960792
0.33211630055
0.20068022883
0.0480346443185
-0.113292139074
0.103408769422
0.102484816163
0.0063209943675
0.0984757832664
-0.00888913162267
0.103389185309
0.307980407824
0.180651227281
0.102855865106
0.150520389174
-0.293652413404
-0.127612653408
0.0867793999035
0.0195126287509
0.150103925923
-0.203991947101
0.170433814262
0.295769465363
0.191278943468
0.154731775114
0.149579955572
0.113853892818
0.100477389012
0.000665252518984
0.358204685526
0.0426428992732
0.161025644156
0.182768065454
0.207747112471
0.52279713151
0.103849429512
0.254015664499
0.103389185309
0.103389185309
0.221736177152
0.549769287457
0.79328235915
0.616161998776
0.32969362602
-0.290690178555
0.219710704251
0.059020022566
-0.0358320536653
0.103389185309
0.161444530696
0.065525857961
0.126961464481
0.179388666346
0.0540054388135
0.078342375628
0.21606223703
0.0108504495075
-0.169610520778
0.255294727799
-0.0281755746466
0.0860099061976
0.103389185309
0.135941591611
0.194439976226
0.148563308926
0.357173525183
0.183855132025
0.233989330276
0.419849297353
0.0996217192095
-0.490099816327
0.103389185309
0.0305532723307
0.103389185309
0.181316533407
0.304620491276
0.103389185309
0.363907287684
0.231390375671
-0.114379286254
0.156314605765
0.120966969713
0.190947648379
0.253657765262
0.0700696122209
0.429485328275
-0.0590208454288
-0.135003361517
-0.0556337467411
0.0550167912199
0.0258740035061
-0.101479997153
0.145374590341
-0.0318184542117
0.0852015686411
0.0502672676138
0.0632970201001
-0.222157127721
0.082600081665
0.309139945032
0.046790028897
0.342932890072
0.31609610567
0.103389185309
-0.0054612697111
0.300077335461
0.0873833234286
0.340322928131
0.623022028019
0.0122619522594
0.115720493636
-0.0293605873484
0.117487347244
-0.0303869838783
0.336794135493
0.117487347244
0.140470779992
-0.0949045486255
0.293244083525
0.117487347244
0.139416883773
0.130896263392
0.21391457987
0.117487347244
0.117487347244
0.0539956511251
0.171136768788
0.327148766844
-0.0432429209593
0.000272789927951
0.175911788247
-0.0959064108124
0.289779325422
0.335930536271
0.0812954321614
0.117487347244
0.135576397827
-0.243008681566
0.193759723886
0.165907938422
0.176028148926
0.104933786182
0.202618402443
0.00347130321483
0.202188952105
0.117487347244
0.123702417238
-0.0679309597479
-0.17207059985
0.00132602145241
0.180427076908
0.0690075392588
0.0931078663153
0.206796902183
0.405198082686
0.117487347244
0.18215996867
0.117487347244
0.117345348989
0.153511676383
0.0676091566843
0.0301510285092
0.0892473924143
0.211655129566
0.304759612112
0.105695498454
0.0613685330023
0.115834771246
-0.334479570353
0.112953259966
0.167520891448
0.193609660663
0.117487347244
0.117487347244
0.183673085925
0.135869705789
0.647740042214
-0.106751913531
0.234908630551
0.192008395259
0.000774387079539
0.15314681423
0.11092092073
-0.3878484422
0.2922997565
0.0118226086719
0.118911245707
-0.366649942464
0.106361560404
0.197774574498
0.104037744562
0.262895992821
0.144153500745
0.156660625506
0.117487347244
0.075958084151
0.115824427548
0.0295619378031
-0.137598362422
0.126275058221
0.0497839421763
-0.48362461223
0.369976552517
0.107295015911
-0.263367918649
0.186273808018
0.0363881551095
0.292021337174
0.0772886826528
0.0617760912983
0.0706976914261
0.117378638737
-0.0434262654284
-0.164145781268
0.0645575894739
0.161274264346
0.469101901645
-0.0110327496884
0.117487347244
-0.185464934336
0.0468693113953
0.112680733477
0.117487347244
-0.310316030425
0.143903401767
0.0255947714076
0.134142140219
0.211737343212
0.137804090679
0.147703620396
0.220002922476
0.121476197371
0.117487347244
0.0800871042297
0.117487347244
0.189080574143
-0.244116734975
0.0573129818396
-0.575901023804
0.117487347244
0.244904300466
-0.0530928849731
-0.261031275187
0.130028008944
0.227453883235
0.158552854304
-0.34105256965
0.112396857102
0.209401139427
0.235527075645
0.3462961605
1.06735662554
0.242092050459
0.117487347244
0.103995581582
0.144857137632
0.113256176566
-0.0610776844924
0.0780507503535
0.0389999112157
0.117594486388
-0.0588160074631
-0.362314500576
0.107070396833
0.117487347244
0.0763208835524
0.0742934624457
-0.0930061676281
0.117487347244
0.0472313531593
0.0171404175868
0.117487347244
0.115485969973
0.116601425067
0.117487347244
0.035178474323
0.00441610153562
0.039464752888
0.0248528478829
0.117487347244
0.0252466471406
-0.156642141447
0.390576777916
0.31844960842
0.0749346167537
0.160806679427
0.0975985935098
0.13096122545
0.123125911202
0.109521825306
0.238375177063
0.0587884618651
0.102802437811
0.167468253941
0.117487347244
-0.101001201048
0.315046923288
0.151607858712
0.115572405296
0.145425311352
-0.57809121211
0.199704728355
0.116938762645
0.176800855134
0.106028136327
0.107133953364
0.0931520270474
0.0681979827484
0.13695506975
0.44430746519
0.292411938815
0.0376705319489
0.000987939409257
0.119804189922
0.0305432503796
0.122232243715
0.0404460391433
0.144705182687
0.147270305045
0.129570183751
-0.09351504566
0.0931520270474
0.0191250362006
-0.17566158952
-0.122496495841
0.0533564222811
0.227996205014
-0.0197676788411
0.0931520270474
0.0976184382174
0.112277786504
0.167124553728
-0.231426085336
0.246416936648
0.211672665885
0.353556520379
0.0407936506196
0.136131304382
0.147270305045
0.0931520270474
0.147270305045
0.0931520270474
0.147270305045
0.0311198277172
0.275104805616
0.32283411803
0.104897469293
0.106794088736
-0.0247272944375
0.0931927408408
0.491300118976
0.0624825548754
0.343375659005
0.0473235027061
0.0818930250838
0.35780946161
0.0800095991453
0.18114981332
0.147270305045
0.487759247577
0.296361948339
-0.0168662315732
-0.304365012455
0.0931520270474
0.129817910829
0.388997404817
0.0931520270474
0.0931520270474
0.0931520270474
0.139276379519
0.0757695375623
-0.00871034811342
0.140908415405
-0.00833606346251
0.0374008542907
0.114670088893
0.254317107606
0.0931520270474
-0.0180970172945
0.525260531403
0.0375748281668
0.115119043614
0.0348763340644
0.155580397898
-0.143196563424
0.0628242573041
0.0158655168283
0.125932140641
0.00632273737488
0.45145106488
0.156815713227
0.147270305045
0.265085591708
0.0931520270474
0.120605117154
0.112277786504
0.0935352426523
-0.204871756508
0.145636551718
-0.0739168709836
0.0933494791074
-0.0312287818501
0.0931520270474
0.0937947018341
0.093189625177
0.195724679683
0.0500462841604
0.0931520270474
0.198869801739
0.0947574666317
0.161055839733
0.0845314935551
0.153928106858
0.0931520270474
-0.108124940736
-0.0137347303688
0.286350570801
0.161342241393
-0.148180476118
0.093787107199
0.0349481625777
0.147270305045
0.147270305045
0.147270305045
0.147270305045
0.0931520270474
-0.253640162618
-0.105627284101
0.131089218466
0.144450792605
0.0931520270474
0.166611889953
0.0017101157803
0.142644491241
-0.00675411953462
0.233003222718
0.0826883947508
-0.212797310611
0.169457769201
0.123821387204
0.393289984827
0.0728397400505
0.235809228115
0.297549804202
0.0657302016794
-0.00267489165761
0.150316628304
0.0939646135213
0.16953205127
0.00317381162093
0.0553100837684
-0.21832595751
0.13418613321
0.0581939640646
0.0278988898044
-0.00998814106606
0.0972624033541
0.159731529213
-0.0449366353625
-0.234181845496
0.0704621410035
0.143557306958
-0.506977824312
0.201070574679
0.0931520270474
-0.120750797808
0.0416205956479
0.123036196771
0.0287877864534
0.301559746536
0.0561893995221
0.123808995751
0.0911712509502
0.147270305045
0.147270305045
0.443864162034
-0.647994369838
0.0220492567891
0.147270305045
0.0931520270474
0.147270305045
0.0962203478288
-0.27509896887
0.0379868001315
0.0932896688341
0.0932986708447
0.444357669847
0.731822640405
0.0443795206277
0.0931520270474
0.0931520270474
0.159064317559
0.0740600849515
0.213225851921
-0.202259613853
0.0399753165243
0.426274293136
-0.229673935952
-0.666497049086
-0.0585454524765
-0.778347159239
0.445097815861
0.290118385895
-0.0159730669241
0.073586341849
0.148525901729
0.0931520270474
-0.0979853286253
0.0982786077096
0.0389448705519
0.312706543842
0.0931520270474
0.0931520270474
0.21449819969
0.206170859549
0.201197530048
-0.28129894547
-0.194798398826
0.0497384431061
0.0931520270474
0.530053329266
-0.20606539159
-0.00207123657847
-0.149059069501
0.0767917081255
-0.105878969601
0.0850463451655
0.118317167579
-0.0401373877171
-0.0927683538782
0.391321317819
0.097111255458
0.393365547163
0.0531388953542
0.228013880361
0.0931520270474
0.0931520270474
0.0635635778849
-0.133183231425
0.0931520270474
0.0649562712423
0.0918980553246
-0.324957460009
0.294098544501
0.022640768858
0.0610858546754
0.210518340137
0.279496696063
0.151202590532
0.0854639344735
0.152222445659
0.100679317964
0.0931520270474
0.10266950402
0.0411932900219
0.0724255032845
-0.0138703888231
0.719368532758
0.0931520270474
-0.0142605488404
0.0327147312156
0.0439169675132
0.115100733377
-0.206116924652
-0.267173005849
0.107601650292
0.0230338998488
0.0931520270474
0.0481602186064
-0.0833142717014
0.199554631378
-0.174845382706
0.121152639525
0.131471388908
-0.771568223273
0.0931520270474
0.142435676235
-0.130104592056
-0.0890604035412
0.353368594839
0.113527991387
0.112048395352
0.268424794768
0.541691210793
0.564825969561
0.161318442334
0.188713316833
0.0944488778637
0.146262622525
0.0937657549059
0.0943858747084
-0.0247347073786
0.0931679417448
-0.00672152517085
0.145776571
0.0931520270474
-0.00480093778644
0.107897995726
-0.105776828789
0.187958980861
0.190223240198
0.059738085944
-0.112820710741
0.0116537906437
0.196568383249
-0.0512824090638
0.323955692234
-0.224288870598
0.00779847573546
-0.506594476695
-0.337264769323
0.127500345737
0.228147449908
0.435582148162
-0.0928686162649
0.0923907030405
-0.010484451138
-0.118189134814
0.133613200097
0.273265015739
0.195444032178
0.200143618993
0.0101241270317
0.07071528083
0.546526559941
0.178702279932
0.134666527806
0.270341665071
-0.26397362103
0.0795823423784
-0.12706988033
0.11667726495
0.133613200097
0.139377605499
-0.0479727424244
0.087111361841
0.206622437858
-0.160277729176
0.32713017611
0.11646148725
0.407477386413
0.161623036919
0.13355403684
0.133613200097
-0.19951753708
0.133613200097
-0.0673313501459
0.00392230382085
0.133613200097
-0.445482774757
0.163850350982
-0.216247838616
0.133613200097
0.154280091146
0.170230573219
-0.0297647633205
0.19980268481
0.133613200097
0.190422578586
0.123918377521
0.196007211891
0.51244590503
0.152903898127
0.0594709757929
0.220768314947
-0.829943299837
0.133404330442
0.176185639704
-0.0638023006261
-0.171628795588
0.226332237322
0.150670551155
0.248764663855
0.157520512376
0.145789794234
0.18178048514
-0.17598657075
0.15741797104
-0.139014847669
0.0925365521495
0.162240435324
0.048318966432
0.119147135984
-0.260832962961
0.246244795333
0.00398840045819
-0.110766124803
0.133613200097
-0.293824695677
0.218086429583
-0.234847569501
0.249674324183
0.151581385991
0.0437936488152
-0.186761499746
-0.00984152170039
0.335727692494
-0.1131404961
0.204530659485
0.537139975596
0.0435929669291
0.202576513543
0.248403945009
-0.347747317095
0.185394482945
0.234705168232
0.232495748311
0.187588117266
0.133613200097
0.289935728299
0.199851150806
0.549775415987
0.0825616080172
0.106538057905
0.00267520458933
0.093139583885
0.102108255018
0.164117261202
0.0759216259419
0.133613200097
0.261597619937
0.70731712673
0.138469250007
0.232853244987
0.133613200097
0.163505616766
0.263733775753
0.0501799430684
0.189337056171
0.239558817478
0.103713287845
-0.0230073166938
0.393381706512
0.133613200097
0.184928092835
-0.0175377857606
-0.0330953753056
0.310499483282
0.284530425321
0.0234406673121
-0.272452521165
0.117259578058
0.148441094022
0.355261721484
0.0584769408313
0.327690082004
0.517280817071
0.0673261543673
0.12648289665
0.133613200097
0.418082724777
-0.10420020993
0.157226290894
-0.104470980812
0.311644121393
-0.649584470771
0.31043935514
0.192626748958
-0.227845456027
-0.0697258231788
0.315550628008
0.183824376117
0.411090262445
0.129269850779
-0.0780338382465
0.357624843297
0.198294580943
0.0728935559552
-0.109167482921
0.139737854017
-0.0262253338338
-0.262765434098
0.0978250976596
0.0172041696636
0.140231557646
0.0883473366659
0.0508923055704
-0.0883043337192
0.00872518809912
0.151899447095
0.00940238158771
-0.0120540301869
0.0865049858067
-0.0337273290102
0.0383712451148
0.0641597614194
-0.197563518728
0.0924441718345
0.0557705430426
0.149994886838
0.286249318459
-0.131982664612
0.0896295101261
-0.0409050858244
0.0557705430426
0.0557705430426
0.204697893872
0.0557705430426
0.157025391146
0.764590706225
0.616554422989
-0.083342590467
0.414885713726
-0.0775281179592
0.121741343044
0.0723242305826
0.0210573522406
0.0136526332091
0.0726440576146
0.0557705430426
0.132760772503
0.0557705430426
-0.113891646623
0.240013724096
-0.0117606084314
-0.0181775910543
0.0557705430426
0.12320910935
0.141125657219
-0.20087651307
0.0557705430426
0.0438092361338
0.0171600367567
-0.588809441641
-0.925738520538
0.268199124979
0.194601320351
-0.15760729024
0.0411491306253
0.0557705430426
0.137911547102
0.262430539716
0.13835906611
0.0762741007364
-0.0911327648653
0.067364742045
0.0648753098928
0.291863499374
0.406899440409
0.0557705430426
-0.0320743463847
0.345939958652
0.0557705430426
0.192760432162
0.0383650909359
-0.156061591343
0.0557705430426
0.0295858534369
-0.0431923812912
0.100656519588
0.0829216935177
0.00850246993356
-0.0857575077823
0.0338743026942
0.00690679526503
0.0557705430426
0.100309459659
-0.0300073847214
-0.012771356666
0.0554011476551
0.171727209741
-0.0449890969454
0.0557705430426
0.135333494362
0.140167323355
0.447300919279
0.121148136565
0.43194360866
-0.0665767559009
0.226518874113
0.131201605208
-0.0147126436152
0.424152647119
0.0183715647334
-0.0459613246151
0.208762651363
0.0557705430426
0.0818275658334
0.125351039699
0.174649693357
0.0327952347532
0.0527467378291
0.0544142864513
0.151595460686
0.074063614353
0.0557705430426
0.21312286961
0.0953951074359
0.106531995903
0.029284019655
-0.133802370477
0.0557705430426
0.127465415154
0.00290988512075
-0.285372132451
0.121495040091
0.0630406740829
-0.0278736025007
-0.0781579008779
0.183123998793
-0.0141865824471
0.345202355892
0.0557705430426
-0.28133503698
0.0557705430426
-0.122104667457
-0.133325921606
0.0544982281512
0.104932508945
-0.085008277299
0.0847804177349
0.235299183923
-0.0158066063971
0.0460635479015
-0.021035446531
0.0676360742388
0.393838302445
0.24672697088
0.0582127207997
-0.147571227212
-0.221570547793
-0.107559653998
0.1355793728
-0.149730860188
0.423676896907
0.0557705430426
-0.342012268234
-0.0406783590161
0.0365267479065
0.0621277998993
0.141651643792
0.299754107459
-0.0710033927984
-0.162618913174
0.116321642621
0.127654163416
0.0802098263886
-0.215715614346
-0.0782079108643
-0.0404900420004
0.0452641840336
0.514343382976
0.0554114500977
0.0898096928955
-0.045669281011
-0.00911325747509
-0.00860311585226
0.0541182779974
0.0195620225671
0.000966131441542
0.0644942682816
-0.00794904898605
0.206523015863
0.0541182779974
0.0541182779974
0.0541182779974
0.0541182779974
0.0541182779974
0.00606399294804
0.0541182779974
0.0338085590273
0.00852908283487
-0.0921792623305
0.0541182779974
0.0541182779974
0.0541182779974
0.107919667319
0.0505515157896
0.0874929464743
-0.00391344743335
0.0541182779974
0.159035751202
0.0541182779974
0.162301741502
-0.295435314109
0.0541182779974
0.123331828793
0.0541182779974
-0.0828319917607
-0.0356269073593
0.0541182779974
0.0645829855067
0.0395103285255
0.0541182779974
-0.00217224347604
0.0422188698376
-0.23674942336
-0.080214629437
-0.0336030841178
-0.132297387761
-0.0138875465815
0.0541182779974
-0.998533689889
0.0541182779974
0.0541182779974
0.0428445892033
0.0600757591699
0.0541182779974
-0.181876094168
-0.0327717451814
0.455093654256
-0.0452601541352
-1.09656275785
-0.493866716473
-0.118894486315
0.129508038244
0.0541182779974
-0.128109465604
0.0291308047941
0.041952916098
-0.0505556087982
0.0542559197841
0.0850604175763
0.022581448432
0.0342964075852
-0.00164177145805
0.435656793243
-0.507557354983
0.0541182779974
-0.0501827758825
-0.0425213006714
-0.398446969014
-0.0496020455544
-0.0908564297386
0.0640231791381
0.123008555644
0.106030995372
-0.725099034144
0.0846649804644
-0.266667432442
0.0750913544693
0.148932174874
0.0324754443642
-0.136971291575
0.129057880542
0.113485343009
0.0750913544693
-0.37564176346
0.0410131910509
0.0410131910509
0.431699035044
0.151510973569
0.0259833070241
0.120544907355
0.216937954032
0.293555297765
0.609172151584
0.037298309455
0.00740339143617
0.0446933062713
0.0591724405978
0.0412852537528
-0.224554765871
0.0292016900738
0.0878358827889
0.0750074918864
0.106030995372
0.0116449401753
0.135247741114
0.292824630949
0.143176802967
0.0106709671501
0.0305771157374
0.0788604648859
-0.389412359745
0.265270821529
0.191369746079
0.0268531214952
0.0299596003699
0.0255168211345
-0.441375866835
0.0768182914878
0.210541022796
0.19747838525
0.0501300019128
0.0524106948615
0.137249347951
0.077764763792
-0.00630719135706
0.132383765217
0.105049257394
0.0750913544693
0.0750913544693
-0.0308563109843
0.10615115121
0.0534164749115
0.0752787064052
0.0750913544693
0.0201975638191
-0.211504182323
0.334101875371
0.139371002923
-0.231508296307
0.182664175711
0.106030995372
-0.205050128477
-0.13944930128
0.160227906239
-0.0646806182065
0.138264000226
-0.234517580817
0.0750913544693
0.0750913544693
0.106030995372
0.0910540891444
0.00289037061401
0.120764491047
0.302141452621
0.0750913544693
0.0761777678808
0.0868709307282
0.36327206604
0.0750911311113
-0.627135708063
0.0750913544693
0.00528917693603
-0.0519175401214
0.233920358415
0.0681307922702
0.0751140197819
0.0867523335133
0.49930786517
-0.00228315649889
-0.140063329656
0.313888021131
0.0216278366981
0.0965044585307
-0.0583873952829
0.231827783659
0.0852625235331
0.121907186989
-0.234191887602
-0.0527581857792
-0.00608757684707
-0.0487147786419
0.155505599116
0.159229559067
0.00879175413095
0.123680415444
0.0485137947543
0.347935901481
0.29336356962
0.0497797263333
0.0906951710172
-0.030541938224
0.169282373776
0.0750913544693
0.0750913544693
0.0750913544693
0.0750913544693
0.0315990056397
0.0736245449486
0.168839476397
0.139086937064
0.0914529447807
0.14125406882
-0.0166141760453
0.146754021864
0.0625827477532
0.0383029757044
-0.352255587105
0.122010221265
0.0267720355099
0.0754697177433
-0.0783876042309
0.880479339115
0.14490484973
0.0803383519615
-0.0579241156091
0.0190519655198
-0.124042841788
-0.0358797952282
0.107372582073
0.0505902378065
0.189414042413
0.0122837809808
0.0383029757044
-0.093232109962
-0.107870333853
0.100985928302
0.0252538784488
0.012773385493
-0.0696443404257
-0.0321223778369
0.0200991021346
0.0383029757044
0.0438648975535
-0.130487880717
0.0463216475391
0.0473626976201
0.0383029757044
-0.30793548309
0.0891924438882
0.0348288253572
0.0263095200893
0.0991889641025
0.0589689767033
0.260581383165
0.0122337465334
-0.0491562974683
-0.102870928063
0.100831017148
0.0383029757044
0.00732823253384
0.115104269939
0.00433904163859
0.0766932325867
0.0629984047221
0.0383029757044
-0.0737750716916
0.134984340092
0.0353693764711
-0.0429814578901
0.0383029757044
0.0596092316744
-0.0529287003617
0.102037177717
0.0144064229313
-0.0120909461946
0.0618932221247
-0.0311250024663
-0.327186751768
0.0383029757044
0.0772022033951
0.0973701701786
0.0143852789548
0.0357924940494
-0.18968350782
0.0135527341725
0.0160920751414
0.0986709352968
-0.197841815361
-0.249357479672
0.236679316728
0.276530944431
0.107403477556
0.0597394234826
0.0473626976201
0.0499801772516
-0.00665172422487
-0.0876427656865
0.00142987999117
0.0100134032149
0.0313261909213
0.18146580535
0.0227941000266
-0.0226809962986
0.000799240391291
0.0166332025722
0.0829257298262
0.0473626976201
0.0473638389706
0.0383029757044
0.0144601645754
0.0273941240454
-0.0422083343676
0.0344346072412
0.0553460117566
0.0473626976201
0.0578063318212
0.0581803991055
-0.167454761655
-0.117212220965
0.0473626976201
0.0431530638673
-0.190036866733
-0.0192565176941
0.769219871678
0.0247663093101
0.140606905497
0.0413895205545
0.162323673734
0.350421300979
0.103142412971
0.0488935997888
0.0383029757044
-0.149980638529
0.123835947142
0.0599811813043
0.0480407313871
0.0236256633755
0.0473626976201
0.0470926537847
0.0470926537847
0.0576604733686
0.321669920142
0.0383029757044
-0.180285981525
-0.110395098504
0.0383029757044
0.056340196665
0.0297943415497
-0.00100842884638
0.0613942242574
-0.0602207086964
0.0383029757044
0.0579533409892
0.0417775066032
0.20586382549
-0.0248730569851
-0.0850398384296
0.0420582301208
-0.00981610463542
0.0255370931666
-0.124492114818
0.0637833523901
0.0383029757044
0.0383029757044
0.113268849633
0.0559007109114
-0.111676134624
-0.0244604659143
0.0499722259038
0.00287871915034
0.130791459912
0.028054896738
-0.0392548819143
0.0748905607383
0.0383029757044
0.213972996523
0.0748157863779
0.0801058466787
-0.195447214113
0.047322500624
-0.0576868921655
0.0473301007426
0.0473626976201
-0.0985260314478
0.0383115924126
0.690755272257
-0.623743904739
0.0383029757044
-0.0251159809773
0.0379200144845
-0.0247663492941
-0.374132040852
0.248093636382
0.0964431549094
0.259455118234
0.324163142635
0.0104262321078
0.066470661087
0.0370347713011
0.0836151879522
0.0438872651293
0.0383029757044
0.0303294789792
0.137097199201
0.0793610459235
0.0383029757044
-0.0122289274044
-0.0955074322996
-0.0703180982555
-0.120316569382
0.0383029757044
-0.00682067166781
0.105586747803
0.0383029757044
-0.248191869026
-0.00240313188858
0.0785187521142
0.038020628672
0.0385175204888
-0.0677666305982
-0.12394443873
0.0243608738679
0.226287352417
-0.183319968767
-0.0105205669084
0.0381655659293
0.0528584257253
-0.0056305033243
0.0664368974734
-0.146193842796
0.0383029757044
0.0418691503884
-0.142931180617
-0.642094195153
-0.0129510171209
0.0936890876337
0.169484053653
-0.172647460954
0.0214301830976
-0.0621984346463
0.0383029757044
0.059800189778
0.0383029757044
0.0923997224493
-0.194279066591
0.202153383576
0.127769386149
0.126434040913
0.0186710449463
-0.175242513999
0.149844433786
0.0383029757044
0.0383029757044
0.0595376532024
0.151587788272
0.158583961534
-0.173274502632
-0.0627982679172
0.0382816921444
0.133252577815
0.00254767124244
0.0383076098754
0.0980437345743
0.0383029757044
0.062511214417
0.2730946663
0.048888255907
0.00171959105853
-0.553822725534
0.122605730256
-0.103013868106
0.0383029757044
0.0904111672212
0.0976500587213
-0.10183891026
0.352592403713
-0.0883896627776
0.0649043137593
-0.233762929726
0.00463325655664
0.0296037740829
-0.141222594588
0.105767100574
0.0123511204
0.10795003433
0.581288054646
0.212989973096
-0.416403147293
0.270714417398
0.070184178026
0.154619748815
-0.00538958694877
0.122816640765
-0.221485766285
-0.0748307910455
0.123821053059
-0.104082446081
-0.318319963033
0.0703811404735
0.169262840654
-0.0287350682428
0.0717018785019
0.155017408659
-0.668662341701
0.070098254888
0.176254948567
-0.00810575896943
-0.00947761206654
0.227030655651
0.0625200262096
0.0662992486703
0.138225854478
0.329885074262
0.0701115369036
0.035902569843
0.0771952871319
0.0557972855143
0.168945771726
0.162274928666
-0.393716473314
0.124998488638
-0.222715623643
-0.483174172228
0.140389752973
0.0907203754652
0.189241934242
0.371843591484
-0.00852770505828
-0.0466860275789
0.0109756110811
0.105344009979
0.0701076335873
-0.0718944914956
0.118489291875
0.120014263082
0.00671054488046
0.256653343343
0.0732413167495
-0.107205924554
-0.051857423919
-0.300759276756
0.0927342003253
0.205229357601
-0.0517203919248
0.112851777747
0.0569494872098
-0.199901913184
-0.0583667441576
-0.092590566955
0.0354416329459
0.11256045855
-0.0180784022672
0.122711820234
-0.180978627061
0.0761217931423
0.034113630899
-0.515808021161
0.0285836334071
0.0703238557026
-0.0661672064403
-0.0301024708834
0.0333602181818
0.0701076335873
0.144136381857
0.0866940232014
0.0798724901349
0.094870608581
0.0701076335873
0.16801397349
0.0380312833934
-0.141734740022
0.142425089975
0.0437713342163
0.152305743429
0.0621975261767
0.0946222255908
-0.0698598897062
0.156500919572
0.0941110413844
0.113655676363
0.112946755102
-0.217180277663
0.0827677307933
0.0716173710611
-0.0066376202233
0.120384037737
0.10547527422
-0.0468471776618
0.138162055123
0.0688163795136
0.0303641859229
0.000251258278653
-0.0952495598575
0.364477040082
0.0180493070572
-0.0302175115607
-0.193645173851
0.0809125961921
0.1096163302
-0.0169688091572
0.207428557526
-0.353750195519
0.088604397853
-0.0163461879731
-0.175047337886
0.28131016778
0.222371452239
0.0732371828041
-0.016188803558
0.0700730733809
-0.412767743049
0.0694409550601
0.154238236079
-0.308332578729
0.0753722001011
0.134428473375
0.0634297253103
0.0127848404003
0.0701076335873
0.10935552402
0.0529037091128
0.00511025548475
0.116672805141
0.128466380192
-0.0469381935995
0.0729616774949
-0.170786809379
0.0727731888883
0.0637824528143
0.1687836843
0.112620199427
0.0701076335873
-0.660231665396
0.0429062975312
0.0560066100353
-0.0187680828
0.0756289629102
0.131859153531
0.338773358422
0.0660816024505
-0.0805566619878
0.460176024162
0.0433223889586
0.145675869701
0.0701076335873
0.222241533395
0.0393838499483
0.116902752495
0.116902752495
-0.0175899564841
0.102925351206
0.0216538223196
0.175630487272
0.281517164283
0.0902735326557
0.243262500256
0.102925351206
0.105492488183
0.116902752495
-0.0318142719061
0.10304116448
0.17160870301
-0.0462562416383
0.1904014195
0.116902752495
0.334111587303
0.180055001264
0.379816137324
0.12485862617
0.154232235011
0.166892120852
0.111484247034
0.102285470481
0.114329878343
0.0219383361392
-0.15501722505
0.000272939886576
0.132366391102
0.116902752495
0.174985055417
0.102925351206
0.129690147019
-0.0534855590946
0.170332391337
0.0437990114263
0.0775473080192
0.148378734555
0.185285815095
0.0708203288525
0.10256091104
0.212494154447
0.0219321895036
0.0153372223559
-0.146143394856
0.173758505803
0.0316836202845
0.0458373320378
0.0416368529565
0.453666947355
0.128967246249
0.273202177248
0.12346258184
0.163996299968
0.0443986608526
0.00905460950088
-0.0643948358526
0.0483530959723
0.136931072336
0.102288295815
0.0347195344053
0.265353105651
0.168604794258
0.0772153206414
-0.151088751268
0.154271870753
0.0275185075496
-0.0194470681729
0.138584818193
0.102925351206
-0.255574618062
0.0923602385799
0.0937104975479
0.114327238465
-0.137067736877
0.0531870838632
0.0119995185469
0.101739965532
0.0379340779519
0.016569277379
0.320216710964
0.0375192134017
0.0192136823078
0.0684864506828
-0.0219815130658
0.111406852025
0.0613583752169
0.0638731375933
0.0677726783043
0.068915651938
0.0655252289179
0.118504444556
0.0172804853738
0.0134430423721
0.0871217367175
0.146018813214
0.0180182527001
0.0308816999447
0.175743718281
0.0685160960298
-0.0251149992871
-0.103273668186
0.0692942518072
0.0439957668777
0.1670850511
-0.106497361481
0.0684875920333
0.0580277697088
-0.0705152093078
0.177615034761
0.0684864506828
0.0365525920054
0.0683583193519
-0.0975612697875
0.133148291897
0.156796740786
-0.228376008192
-0.00050695474072
0.135300590212
0.231829652635
0.0708554471848
0.164367925618
0.207468327194
0.00868056486439
0.0684864506828
0.0913329425449
-0.0404436951758
0.239620699805
0.000784061829228
0.382876972209
-0.160896899787
0.0684912485291
0.0770054035616
0.00161328253648
0.176498197679
-0.0825056288657
-0.0116073448652
0.0851447435748
0.0146128327088
0.125416447385
0.0716079904649
0.00769950013449
-0.0163376867618
0.258347693454
0.700198499297
0.0212986401263
0.141512198361
0.0548354593489
-0.232044441937
-0.104211145602
-0.230795783259
-0.126801011387
-0.0845397892485
-0.344484634848
0.0188841647017
-0.082933470924
-0.136254279492
-0.0928919677359
-0.107226192878
0.0492732369176
0.10660405145
0.106025187309
-0.00107074179428
-0.019208413907
0.059572366681
0.178700323027
0.39657775891
0.0138708948705
-0.0738881075276
-0.466828554394
0.201739423694
-0.0688206658679
0.197106178434
0.0147656300363
0.0908073660298
0.0743833488772
0.0414781542275
0.138024718307
0.0158502985183
-0.0850503673036
-0.0379160542708
-0.125927110019
-0.130208003363
-0.1950312004
0.0661127075673
0.0548354593489
-0.00651080995407
-0.0282159321629
0.0839287361613
0.0442361447897
-0.168087739882
0.0698591068918
-0.534699266954
0.0548354593489
-0.0395983128015
0.110741514837
0.169477436475
0.0529435057143
-0.130851807761
0.00174577473721
-0.635231170145
-0.0525345862865
0.148867644914
0.0591527831099
-0.0592136033661
0.0548354593489
0.0548354593489
0.054659178414
0.145062644804
0.0548343514755
-0.285790846524
0.183512061276
0.0607363575218
0.0519486220648
0.298464300474
0.0729628282271
-0.194237395178
0.134082033551
-0.0218799614205
0.500757671279
-0.039873828233
0.0548354593489
0.0494084202587
-0.358037149065
0.013767103668
0.0548354593489
0.0505521584645
0.0532334311746
0.0656300119575
0.0745673187471
0.0548354593489
0.177974780059
0.0549068412574
-0.00994099157214
0.0827756850032
-0.00628835247129
0.0549085132899
0.0542785403966
0.208124329559
-0.108004326966
0.0684683678075
0.0566513079833
-0.029932229177
0.0548354593489
-0.269674692216
0.210229338825
0.0293828584714
-0.224892322838
0.104498016398
-0.229509716655
0.0908369088396
0.183402086028
-0.023565159256
0.073550376463
-0.0318026670931
0.0864437430492
0.152312684595
-0.291167145012
0.0621528904758
-0.255228928838
0.0207072331297
-0.416513198649
0.0548354593489
0.0530740313722
-0.00377723488761
0.495268840669
0.10147726143
0.0261097829835
0.038690029435
0.114650450544
-0.136946373298
0.0548591112049
0.0802944649641
-0.00572479724159
-0.114791990707
0.267768079582
-0.159443296867
-0.439968580065
0.0662640108113
0.0369595710215
0.039521408946
-0.0608631214984
-0.0145576277776
0.0639217671538
0.084886045322
0.315473471389
-0.209677251738
0.0381510419304
-0.127625215233
0.0364530236529
0.103923318306
0.0902896653242
-0.00509332156279
0.0160912917552
0.114167391318
0.0382707216087
0.101113988817
0.0314362892592
0.0473984075594
0.0749757964384
-0.10225404871
0.0883278120061
0.917076266719
0.154048276217
0.22755590715
0.0589308885596
0.163912929483
-0.17067259861
0.0893387706738
0.0634882426225
0.0186948686493
0.0547451016778
-0.082984330594
-0.0522154474073
0.169807857902
0.0430691598306
-0.0393602767836
0.0625567316664
-0.0109215309373
0.0548354593489
-0.0773078995694
0.319820708119
0.081098483341
0.0897307620672
-0.283426004852
0.0515148995915
-0.104140427639
-0.00865407199087
0.0732931375726
0.226204415125
-0.0335820588716
-0.220750990087
0.0372163777174
-0.0195036239396
0.0970381410803
0.200060296165
0.0853952514323
0.00924898778357
0.11669620583
-0.088495921555
0.0739234285005
-0.209321387019
0.0373287810804
-0.0399745826629
0.0977097292501
0.0213451649855
0.0581330211064
-0.0427137989002
0.0990652071354
0.117859508336
0.0548354593489
-0.112821702201
0.356515088556
0.0157529341624
0.00326215740041
0.0702593358073
0.0414749865699
0.0548354593489
-0.0186410579802
-0.0073593483727
-0.122969037998
-0.00904803731576
-0.138531468876
0.517179017302
0.0617986928409
-0.0107312632359
0.17647571359
0.0779898128558
0.288986561019
0.222222151581
0.11874213898
0.13250919893
-0.0422435538702
0.115820122791
0.0113703007807
-0.0599519304934
0.0549488777004
0.0546670024831
0.102545854002
0.0553649583181
0.189333606466
0.062555252208
0.0980015116773
0.0264037413065
-0.172685832938
0.0512357503321
0.123343947114
0.0906911020879
0.0929972859661
0.134054507856
0.120410560844
-0.00139142761021
0.309386987097
-0.156766623357
-0.210513233156
0.109506210212
0.265607544732
0.058469277311
0.160239302542
0.12641927112
0.416693575474
0.160218512953
0.182830041095
-0.10578843041
0.270370623982
0.220880371564
0.107293511663
-0.135008979638
0.107293511663
0.0431288236402
0.244126204522
0.208928999411
0.387552801844
0.055611915566
0.253796830948
-0.111011788652
0.107151513409
0.0951144057961
-0.16855457493
0.107293511663
0.20032330266
-0.00309812930384
-0.209525584109
0.19456972466
0.107298297013
0.296081251244
0.0186607711699
-0.202376547348
-0.18732616947
-0.100184019326
0.205154609659
0.11976462489
0.0233230376601
0.315433455016
0.107293511663
0.107293511663
0.107293511663
0.107293511663
0.0728489580848
0.107293511663
0.107293511663
0.107292744143
0.110080056199
0.00666113549522
0.107293511663
0.141512002147
0.149466364276
0.107293511663
-0.206377560253
0.228391606925
0.107293511663
-0.0661938739832
0.288029075674
0.0550715333728
-0.443746730423
0.197934637925
0.0896129696231
-0.000417158880338
-0.24326732374
0.0516216082951
0.396177576052
0.0684920472152
0.154679162145
-0.126533259766
0.188137274711
0.181184221175
-0.216471859764
0.413808868247
0.0595482997744
-0.110615477383
0.105142459776
0.302153485996
0.0936998738735
0.0236493228995
0.0632541900533
0.0639444908762
-0.000961297576963
-0.0943186866148
0.127481424831
0.107293511663
0.0873806830299
0.179883279801
0.0100118674842
0.0913892127706
0.0800668520611
0.0397710167346
0.07015653732
-0.273249338427
-0.000818112752563
0.174704595932
-0.106988201304
0.0913892127706
0.118141448995
0.130190727642
0.0913892127706
0.135351734621
0.177784614371
0.0490989406932
0.034040331805
0.0528969676833
0.092968817876
0.0312879835146
0.0408435384869
0.0913892127706
-0.0248173223092
0.0735362083307
-0.0639460827035
-0.0624190486691
0.0913892127706
0.316053327701
0.251958398904
0.138143436256
0.24128980255
0.0699090829295
0.0658765357457
0.0707627390675
0.154356363521
-0.0237276580904
-0.183667380964
-0.436859949242
0.00143095551368
-0.337419104353
0.0641740429276
0.169813540805
0.189127804254
0.042752251954
-0.0994331594172
0.0327878204496
0.0223234848995
0.0341943725225
0.0868564934906
0.341186715583
0.171560256809
0.270483940343
0.027144766737
0.0542363586001
0.15362335999
-0.0234205190883
0.05478884543
0.355341656114
-0.0572591962984
0.168033933807
0.0913892127706
0.0619649494441
0.14994049004
-0.0488661089655
0.0913892127706
0.0972258299746
0.0997055580857
-0.151248268333
0.0913892127706
-0.185955948459
-0.344483557529
0.157579916629
0.20113154867
0.153644577123
-0.0214210144067
-0.075782878456
0.0679385049698
0.0197815064366
-0.0350362883133
0.0649792187177
0.0817957565963
-0.0778946843971
0.155228423999
0.440064632754
0.628409309363
-0.0375647092427
0.0817957565963
0.171938602917
0.222779707615
0.156066830586
0.128697579573
0.161228291355
0.0982376567242
0.0998407552387
-0.0187596427455
0.292867374195
0.0918032743339
0.0817957565963
0.479285138977
0.00900074382644
0.00879362163878
0.0817957565963
0.0829521338008
0.104087773897
-0.277327645473
0.186670852399
0.137542644824
-0.135763377102
0.0957307162973
-0.0271080830549
0.0817957565963
0.101221435012
0.176852303582
0.248360925254
0.1404753337
0.174845478857
0.18797797104
0.0295340682591
-0.00623828294965
0.0562947046791
0.0132836809203
-0.00308018625182
-0.008857371683
0.0179408301138
0.0817957565963
0.123342280452
0.00076240233318
0.0388777935946
-0.114317095432
0.117976893927
0.0651394803741
0.221356209858
-0.141956609218
0.0453500573767
-0.0706486209553
0.0817957565963
0.173901936591
0.0418831297146
0.113337210639
0.0818210617865
0.0603169410687
0.00526763806577
0.0756845754399
0.113442947227
-0.146949710247
0.0817957565963
0.0817957565963
0.140192734437
0.370638499945
-0.0574959818756
0.0119551755361
0.130521956013
0.0884801987958
-0.00771876426798
0.0778364522667
0.0927098180119
0.220805226803
-0.11437241041
0.016581919591
0.071046092829
-0.224535500018
0.0537628322895
0.0817957565963
0.206436933798
0.0760340850613
0.334679622762
-0.248097507059
-0.0240447702848
0.0837043804622
-0.0300332792062
0.00598380925255
-0.053957403785
0.120635525004
0.0999730413145
0.0181385288721
0.0405954846272
0.0160597902483
0.100626242833
0.0250326894298
-0.233497372438
0.0506499735021
0.09158817285
0.285828875885
-0.118336659677
0.247515492456
0.0884630931438
0.0515585897755
-0.0336986012901
0.0746767166158
0.0256732159118
0.442460870271
0.0817957565963
0.0760833725301
0.144527077087
-0.00314083363869
0.0817957565963
0.136924073899
0.0583954024976
0.120591917631
-0.140955329397
0.0829023263496
0.409087339835
0.0369845587347
0.059163628422
0.0583982021659
0.00266275112963
-0.0418895655321
-0.111102263566
0.103939901348
-0.0105909632503
0.00343927937636
0.0476279527095
-0.314512027659
0.0944858624476
-0.222818360409
-0.623513196476
-0.0296137546955
0.0395305407863
0.560825822246
0.10713281546
0.404273682264
-0.00352578194785
-0.194622007084
0.0989240548179
-0.162546418352
0.057566852271
0.315070891637
0.113265041936
0.18387695953
0.0979378854126
0.0043978937089
-0.0161719743622
0.0299057076203
-0.0219302419848
0.057566852271
0.057566852271
0.057566852271
0.057566852271
0.057566852271
-0.0258729296752
0.0922475942033
-0.336275277139
0.036590494492
0.057566852271
0.057566852271
0.0241732335347
0.057566852271
0.057566852271
0.057566852271
-0.175758973507
-0.0893157312028
0.114923463109
0.0529308857533
-0.125655715017
0.0933457381526
0.057566852271
0.0574316849045
-0.14896794894
0.197210422211
0.057566852271
0.057566852271
0.057566852271
0.143727697464
0.0670845087221
-0.0633587626686
0.0878621392045
0.057566852271
-0.0021658289229
0.0597075390581
0.0375713110686
0.142375943639
0.0431475650163
0.250091384726
-0.182299642966
-0.0339673958084
0.0364111697618
0.123250675129
-0.307037970037
0.0549550825804
-0.0472417490482
0.057566852271
0.146248573975
0.158009175802
0.0954769928327
0.0456686513287
0.151206667055
-0.161323690097
0.0327028941593
0.0972642806649
0.0827315180259
0.0456686513287
-0.0132024019866
0.0456686513287
0.0241538768938
0.0456686513287
-0.114961821093
-0.0551563487915
0.220163373094
0.0479296123922
0.135605743874
0.0456686513287
0.171214853663
-0.239357694731
0.0887692502193
0.038972727689
0.0732189815434
0.231472304054
0.182769164786
0.0154011099912
0.212905683431
0.0456686513287
0.0571107150884
-0.16273602852
0.0898791415722
0.0456988946208
0.0456686513287
0.0456686513287
0.186474415919
0.113079226932
0.0231879549583
-0.19272927563
-0.129860174624
0.0457540876147
-0.0341879338401
0.0456686513287
0.109175568165
0.0231271397399
0.128607671242
-0.462797704601
-0.0334428988108
0.0462434732531
-0.0253547147397
-0.104685048115
0.0456686513287
-0.183547111559
0.130351124797
0.0359115772973
0.314587877186
-0.0198576300643
0.0456686513287
0.00679894670127
0.0430362170488
-0.0120148324195
-0.162467682913
0.156448783791
0.045671464794
0.0346729222956
0.144686330175
0.0124353961607
-0.0802616874786
-0.0542114458684
0.105319990927
-0.191131290002
-0.46517954456
0.0472482564341
-0.277328206657
-0.136116943145
0.0622007007133
0.0817582627275
0.0456686513287
0.0972222750382
-0.0240615488999
0.00316658216695
0.0456686513287
-0.0458089428187
0.00458077262064
0.0045778222009
-0.0305541014137
-0.0716052062418
-0.0778313960937
0.0456686513287
-0.0165412970501
0.0456686513287
0.0566920172841
-0.243230462053
0.202637800432
-0.0520795397074
-0.0343596434078
0.0496569909569
-0.257029070265
-0.0228229181623
-0.0916752517114
-0.07041980627
0.00461682952371
-0.225756779765
0.0456686513287
0.0456686513287
0.0683334875189
0.0222423284647
-0.0284819872848
0.0456686513287
-0.0188015434655
0.0184383995001
0.0989692235864
-0.118241588704
-0.173214917226
0.0456686513287
0.0456686513287
0.0456686513287
-0.55912475064
0.0693799834716
0.0456686513287
0.0456686513287
-0.0657599114306
0.0879605062732
0.115597628251
0.0972480571323
0.0456686513287
0.0125091278052
0.0742964000609
0.00378902024426
0.0474622074793
0.0456686513287
0.110104639701
-0.0925885357489
0.169245032973
0.299053361504
0.124411077728
0.109425784246
0.0672267103174
0.221790543643
-0.0088546153498
0.0448584734689
0.0949272630673
0.0715096579856
0.0406684009645
0.0683605693141
-0.0930261110534
0.0374605842303
0.0643781197768
-0.208634509904
0.123139338814
0.122356117986
0.0839865058949
-0.0865750186796
-0.018621757373
-0.0244356897929
0.174299444228
0.0963389787888
0.0893232451514
0.0902620297104
0.0499029575813
0.0798842214034
0.113606301389
0.0872477387828
0.0310460368968
0.0309730207623
-0.0392187896618
0.144482539255
0.0672267103174
-0.124440755542
-0.0327900654858
-0.110538147986
-0.172759796962
0.144359365914
0.0637024054716
0.0560758626169
0.0948593741723
0.0672997642584
-0.185183195055
-0.19524943429
-0.33332191947
0.0672267103174
-0.245857087499
0.134885244461
0.0953478309037
0.0686561688463
0.155818234694
0.0672301586591
0.0965639008176
0.0857002909405
0.138043834574
-0.0906403891108
0.0958199192474
0.0181553243354
-0.00764290304035
0.0911494148078
0.0672267103174
0.115639736072
0.0453787063023
0.28819185866
-0.0826009100427
-0.0759417698504
-0.174852860621
0.137078226639
0.031213899777
0.150481174269
0.338345430912
0.10267658539
-0.186771689859
0.202955873669
0.0965242559144
0.0863052173335
-0.120757820246
-1.63030478367
0.216709024243
-0.0159321771247
-0.0568692805694
-0.730450730161
0.129778299466
0.0423495670975
0.109418789409
0.0448703623424
0.0965242559144
0.0777603930068
0.10267658539
0.200868035758
0.0609636408577
0.0303844459566
0.10267658539
0.0965242559144
0.10267658539
0.10267658539
-1.11453560542
0.437293840481
0.156993929052
0.114694200404
0.10267658539
0.102617702182
-0.124410916594
0.181171733869
0.169699669721
-0.216509267979
0.0402618162592
-0.112965358313
-0.0321836459042
0.0970421220453
0.239758913778
0.290022389095
0.133884785609
0.0743743506708
-0.0318550803901
0.100041020263
-0.00127253752907
0.202467947679
0.10267658539
0.0982033494403
0.16853388258
0.136313459362
0.113695988606
-0.00408039618614
0.116405811239
0.116405811239
0.0666632426271
0.121521465324
0.0790088994837
0.134676494824
0.224055983008
0.101286748732
-0.402041375524
0.102676597887
0.205051699926
0.228810911563
-0.00912644984469
-0.0523057805781
-0.0149214850895
-0.288078704236
0.11701476545
0.192187636378
0.185506714154
0.128144420638
-0.196386536412
0.0542880727607
-0.06815758585
-0.136045231885
0.0965242559144
0.10267658539
0.00138800819355
0.215133927707
0.144839607699
0.100667301664
0.0632259131149
0.0939327652537
0.10267658539
0.166850506067
0.211690137666
0.155854210074
0.097900701333
0.0972853822384
0.0905361533397
0.199617362554
0.183806156651
-0.0294835816149
0.127284372545
0.121976558675
-0.0232248801537
-0.11302540201
0.145129078075
0.0274771916534
0.193093854997
0.433327942725
0.123537359192
-0.00427770991748
0.0438930210819
0.168242892571
0.106960528427
0.322266452127
0.0822714269764
0.102072380219
-0.105818051514
0.107135668012
0.0954394700556
0.161268277928
0.179577505981
0.158252292405
0.0309196344877
-0.129163069327
0.107668801544
-0.535281812166
-0.317962880573
-0.00132497107079
0.134353513136
0.205801328964
0.140336850018
0.133393708791
0.146879508052
0.112870094487
-0.0645471692658
0.110533927292
0.0936896054631
0.10838738668
0.107135668012
0.0997616532631
0.0917930857819
0.255476191245
0.0600151999534
-0.197464078914
0.0451130398583
0.179081981087
0.163222218769
0.188236833645
0.107135668012
0.123387430799
0.106721129318
0.0901852229041
0.0238285226903
0.218061206626
-0.301280688336
-0.24444574228
0.140887532858
0.00296649753256
-0.74612581638
-0.0293808350948
0.0158653347
0.0529790331017
0.0939055744232
0.0984707513667
0.0613142837131
0.0634879385388
-0.111965069357
-0.0172336094792
-0.115595146166
0.102497475655
-0.0923201553917
-0.00813553625631
0.225323182872
0.074369733781
0.0516578943346
0.094221616889
-0.13066654238
0.303014978963
0.0597544373068
0.132582908767
0.0727186517805
0.0739503574455
0.0806278582471
0.561670023394
0.30265370377
-0.300128088551
0.0727107566631
0.0969484326835
0.00739921698418
0.03057995127
0.0934919783555
0.0854332550023
0.0334045608583
0.0731993727568
-0.0937736333832
0.081815723462
0.109448300458
0.0877800641732
0.134779172816
0.118734173435
0.0252961724617
0.0552702919479
-0.106024347047
-0.0133216753167
-0.00246936240149
0.17388563204
0.108795904034
0.0934929562466
-0.0142328917038
-0.212158752281
-0.0943150665021
-0.0334460100607
-0.000252826206374
-0.344275312473
0.105622547254
0.108281683987
0.154204985586
0.254796641412
0.117396936722
0.0727186517805
0.332471347443
0.0537689496009
0.100166411521
0.0994676969944
0.0787029871275
0.177693362585
0.0974048218359
0.0934919783555
0.171271864263
0.0831205018684
0.0336161996851
0.150215409427
0.0727214652458
0.057225345341
0.0134520058363
0.00476644727607
0.015895970281
0.00107335821221
0.305554965303
0.0439234976412
0.0727186517805
-0.0101849115495
0.275143499824
0.0325715591311
0.0727186517805
0.0727186517805
0.0426483705382
-0.0205788793224
0.0228740118292
0.000889664411531
0.0727186517805
-0.116626139727
-0.181006083424
-0.026072657182
0.132519041003
-0.0621119486506
-0.0355242372913
-0.118202327062
0.000551910848261
-0.360107946388
0.138741798959
0.0190046704713
-0.00584351430915
0.0275123598711
-0.289632776556
-0.0506263488202
0.0654911904836
0.124573228962
0.0691302617839
0.293952260445
0.106845694935
0.0613025084334
0.0513218393763
0.144194564177
0.0406297719286
0.11028531075
0.0142276344735
0.0248096832354
0.0725410077238
-0.317918456996
0.101755303705
-0.363628387201
0.0727186517805
-0.101181486273
0.0871686464812
-0.0121875237675
-0.0220991627135
0.0727236780465
-0.114441541583
0.0913366386485
0.293821647314
0.109278435825
-0.208726936395
0.114320116167
-0.000873433144035
0.323892686763
0.137290748973
0.0868574198622
0.0304485562389
0.249779013314
0.216036173015
-0.0706251751949
-0.0727012437276
0.089266754272
0.236387128206
0.114320116167
0.114320116167
0.114320116167
0.127562230561
-0.0202742342522
0.211748174355
0.0404080073495
-0.0896352272647
-0.00826399956893
0.600141177031
0.114320116167
0.0934054010742
0.114320116167
-0.235387080965
0.146947905523
0.0571651601175
0.0633042084032
0.114320116167
0.260112892776
-0.0157287967766
0.128349598805
0.134667571408
-0.0845328002449
-0.0764876384505
0.0705487148243
0.134906115989
0.0664700636383
0.109621545835
0.173960944092
0.165786922555
0.243546854068
-0.354262840249
0.114320116167
0.11511512866
-0.0522414572608
0.159437589765
0.0602384833162
0.106743328691
0.112401476977
0.0429858757814
0.115709705146
0.102160396339
0.0402412578967
0.308858773832
0.120896700935
-0.259636840313
-0.137188718163
0.0554422017275
0.0663105531079
-0.0520720216533
0.0125557777356
0.112401476977
0.047023145644
0.114231289578
0.0997925698685
0.153029497844
0.0837565272823
0.349258528205
-0.0599341807227
0.0581881767412
0.0581881767412
0.11431367685
0.114320116167
0.0863215914703
0.0979538841967
0.170425282897
0.104232178614
0.114320116167
0.0317202428582
0.114319892809
0.104703386027
0.0200283007287
0.0346028569738
0.115120238632
-0.0533080105412
0.153786926835
0.187327518001
0.154648784642
0.221289174643
0.128299179958
0.0598292186561
0.0887686029487
0.133363088339
-0.220302344655
0.114320116167
0.166088563603
-0.0256258083789
0.229691116909
-0.00767959278734
0.181096880619
0.114320116167
-0.0595669573439
0.114320116167
0.00917838449262
0.174526970528
0.101811462856
0.0388826971546
0.114320116167
0.000342460383436
-0.151424618897
0.173021761145
-0.37827803807
-0.0243317848668
0.119615459044
0.11445467257
-0.0331723878834
0.0749605691935
0.298295031801
-0.0798293731552
-0.584328095514
-0.506252090481
0.299628831758
0.0136442037494
0.08547395953
0.114320116167
0.127392339503
0.0550599258578
0.0995897785254
0.153587920666
0.114320116167
0.0855779069604
0.128968265887
0.135885685845
0.106678700416
0.0970728367148
0.114320116167
0.245683877802
0.114320116167
0.120320875947
-0.04101396246
0.211519035609
0.07345137316
0.0661836735302
0.0997847134097
0.0181999603744
0.161668089928
0.13274071589
0.085011685017
0.00111228692242
-0.434801633944
0.0897120205642
0.0954080760831
0.0954080760831
0.138675635013
0.0825831191682
0.106981843989
-0.0285359918387
0.0954080760831
0.170617130469
0.0256141347011
0.0822566363252
0.148810640146
0.0620123033003
0.0954080760831
0.0513181156005
0.0954080760831
0.123427354515
0.0954273626578
-0.00871266781549
-0.131155111808
0.120833403308
0.265074981851
0.139720038823
0.0747438375602
0.124621663337
0.0954080760831
-0.17765777648
0.178008077055
0.159793857349
-0.378957080568
-0.107358582006
0.0954080760831
-0.112482251493
-0.243618919309
0.0954080760831
0.153086086639
-0.0698910289104
0.0930344178822
-0.0751078132624
0.15748681682
0.131487661041
0.080081835468
-0.0055784949646
0.0650741170713
0.0111734063329
0.0984311351314
0.152122151607
-0.114907072993
0.418454132823
0.0954080760831
0.109191049111
0.238686234142
0.259962942388
0.0954080760831
0.0729760865304
0.0954080760831
0.268128252803
-0.0941776096016
-0.0216809345106
0.239848459491
0.0560855559616
0.0954080760831
0.103788615133
0.0549042165786
0.0954080760831
0.0954080760831
0.0954080760831
0.0419628517145
0.0954080760831
-0.0773055750342
0.0954080760831
0.0954080760831
0.0954080760831
0.0481217072227
0.093076624055
-0.0243564338395
-0.0454320079653
0.123094115368
0.0169491339699
0.173632143755
-0.560791693575
0.0167047599585
0.0425762397026
0.197532998927
0.227099157883
0.0954080760831
0.055024077116
0.0954080760831
0.117633571071
0.20621687185
0.0130656584405
0.174272802744
0.0954080760831
0.0954080760831
0.164568065476
0.0383412626097
0.0784162564568
0.0954080760831
0.0954080760831
0.173851272513
-0.0533550385579
0.0693132083805
-0.734264133573
0.0424391128807
0.128950766606
0.0954080760831
-0.0377046926748
0.0942826572338
0.117986338056
-0.140267349728
-0.0511266506031
-0.216360876383
0.0954080760831
0.163118237437
0.0549343466135
0.0954080760831
0.144062349582
0.0308651341008
0.0954080760831
0.0954080760831
0.00786903076317
0.023875031958
0.0954080760831
0.0870113388874
0.0417164176379
0.0547150887217
0.143132626274
0.0633337346061
-0.0239833151566
0.179911162532
0.230490840134
0.0407793580605
-0.229402366034
0.0399639981714
0.0095124446533
0.0660762720408
0.0325353955038
0.0747066481204
0.0670616896091
0.276588061956
0.10438632766
0.0954080760831
0.12683506449
0.115985821352
0.0954080760831
0.040067343671
0.0852768349758
0.0454296714761
0.211836436626
-0.35645035564
0.143088208281
0.0953965204766
0.0954080760831
0.0947237083468
0.105105672118
0.0646129461143
0.135917631232
0.0750475185891
0.127365568812
0.0851453996721
0.0954080760831
0.0954080760831
0.0954080760831
0.149082432787
0.104978178812
0.0954080760831
-0.0278130000744
0.107125000084
0.168672214115
-0.142937692298
0.00499583611202
0.0954080760831
0.090343000685
0.0532018078131
0.0844770631159
0.0805269493139
0.13266792459
0.0964996231386
-0.140133348717
0.125171429059
0.0978581877517
0.0826779003708
0.119216758371
0.191395684591
-0.0908375749035
0.0450872045935
0.0428861183882
0.205904279927
0.0100877221155
-0.00992457364527
0.0190718675919
-0.0977642840221
0.101547331054
0.0807588799417
0.081101165634
0.0678184533718
0.081101165634
0.0408073213239
0.167961643548
-0.0215119927481
0.081101165634
0.0584386187024
0.081101165634
0.081101165634
0.12857909401
0.081101165634
0.081101165634
0.081101165634
0.081101165634
0.0815434306717
0.081101165634
-0.283358284062
0.0951966467706
0.184733302742
0.0809757789791
0.081101165634
0.081101165634
-0.206857116375
0.0700193882806
0.176241560664
0.0758039484949
0.081101165634
0.081101165634
-0.0127154640614
0.0441789078111
-0.0204333068939
0.0802748217711
0.104120686285
0.0819154351497
0.0865121701781
0.129834553698
0.158900721964
-0.0189156101692
0.0215717827299
0.081101165634
0.081101165634
0.081101165634
0.0858389284653
0.219916053874
-0.200797713535
0.145159255303
0.00579986360978
0.081101165634
-0.151222824487
0.0936561064078
0.00666282590744
0.148356119245
0.0643325924187
0.140410484286
-0.00292165330104
0.171928094555
0.00933979586011
0.00498266358539
-0.106475786402
-0.104649257816
0.0317497837781
0.116696318111
0.143076765865
0.0639494527862
-0.161461786396
0.0124681808838
0.00740500400512
-0.140212046421
0.0688158315644
0.0810772932349
0.112534329969
0.0421195646586
0.0501886040387
0.161137457922
0.0801062671558
0.081101165634
-0.256217009414
0.081101165634
0.081101165634
-0.0667322078815
0.111154391485
0.258660603993
0.0308377510428
0.119458843252
0.00187409088899
-0.0189670294801
0.0017053426834
0.0371419802154
0.103469993085
-0.00692982561386
0.110233316448
-0.0111604862452
0.0569065858402
0.0400456164801
0.0017053426834
-0.0673144149451
0.0017053426834
-0.0216272508267
0.0832782704372
0.0133727418063
0.0017053426834
0.0017053426834
0.0235980111043
0.0228298431684
0.144082432718
-0.0750121170447
-0.029016011114
0.0133575672198
0.000369499836431
-0.0297174480326
0.153087138715
-0.0671430731293
0.00501050541621
0.0297525173788
-0.183052475734
-0.132674743173
-0.159377566894
0.061721443773
-0.0739917691704
-0.00137473409731
0.000425161299455
-0.235761819401
0.0017053426834
0.0451396143483
0.0358276145432
-0.287684471176
-0.259071555524
-0.166035828286
-0.0750866018075
-0.0334994992754
0.0017053426834
-0.107436073539
-0.0234495359662
0.00175189733496
0.0017053426834
-0.277768686548
0.0235853194953
-0.0209572042481
-0.0557463089108
0.0017053426834
-0.0175868503534
0.164869337917
0.0017053426834
-0.154012525623
-0.109424071535
0.0644686586711
0.0017053426834
-0.0343614214722
0.0635527172656
0.00600833416105
-0.00394034702353
0.131128000282
-0.0203804315894
0.0017053426834
0.133588618352
-0.0705903185219
0.146171222604
0.00196852823863
0.0017053426834
0.212519963777
0.264200962232
-0.0613707391673
0.0017053426834
0.051980373732
0.0212813973763
0.0188627209745
0.0017053426834
0.00173010770163
0.0213239934138
0.0356210882581
-0.0760670200475
0.0507389888362
-0.0320853824523
0.0017053426834
-0.05772814702
0.0153410197726
0.0734094607207
0.0481325730273
0.07263170749
-0.0307977110646
0.0412499328775
-0.0465163457038
0.0961660895433
0.161698302445
-0.139670352541
0.00562919289339
0.121976741792
0.0345742171905
-0.0532360832658
-0.0585211910842
-0.000382192949356
0.0671628258857
-0.181474512276
-0.0028425327741
0.0311507005268
-0.231204403471
0.0017053426834
-0.073036114112
0.00894663631506
-0.00185027771654
0.0074405356005
-0.186437630587
0.0017053426834
0.0017053426834
-0.00305244538114
0.0213638574847
-0.0226906641437
-0.011012819679
0.0378342881509
0.0208311021397
0.00322658047528
-0.0145757603976
0.0017053426834
-0.0654790679343
0.0518711313196
-0.350847636638
0.0590146993693
-0.379732005931
-0.0904838488752
-0.0918604634842
-0.104635056212
0.00491459968666
-0.16281559689
0.25899013851
0.0231181811046
0.121849920524
0.0017053426834
-0.0778279290763
-0.147785132612
0.00255689402577
0.0017053426834
0.0707421718358
-0.254381221621
0.0148706636208
0.0618402916306
0.00109509393276
0.000850049110244
-0.12259083594
-0.188739357613
-0.0941379931301
0.0896617373119
0.105515917679
-0.0588549139071
-0.152618509707
0.0165050787314
-0.0809526334041
-0.0362656091463
0.0401803875654
0.0017053426834
-0.071009435354
-0.0231845967196
-0.0478418705751
-0.179920678761
-0.280290628626
-0.0478204658996
0.0706051037616
0.207154627297
0.0759021976737
-0.160775878046
-0.222573133325
-0.00372355173215
0.152787530525
-0.387276302743
0.014848522055
0.0408276495076
0.00173319609023
0.00165996218763
0.0017053426834
0.0156035489077
-0.0384231775513
-0.00220380174665
-0.115335377764
0.0021063352797
0.0017053426834
-0.0184332480661
-0.00797480007136
0.00165922614589
0.0435606944363
-0.0828825400784
-0.156725109794
-0.0229205411516
-0.0574526009984
0.0813339339462
0.0017053426834
-0.183993650635
-0.313975044247
-0.1593242143
-0.0719503204697
0.0820988771784
0.0258225780769
-0.0302828095636
0.130676136318
-0.214228563532
-0.0683634609781
0.00922274592872
-0.0934607346549
0.104154756193
0.0733685986401
0.22967057923
0.0839004310156
0.0733685986401
0.0368029414959
0.131329650887
0.0735660507001
-0.0394810702502
0.0733685986401
0.114452978451
0.0733685986401
0.072933091234
-0.2339381343
0.0499513594703
0.110913647004
-0.117431326522
0.08654628267
0.100473601951
0.0621355321812
0.0733685986401
0.0111550591779
0.0561658812648
0.0370983639786
0.10881459691
0.0733685986401
0.0733685986401
0.0193449847681
0.0733685986401
0.118758997428
-0.193517201538
0.0733685986401
0.0557598300629
0.0733685986401
0.0218839323178
0.20020028127
0.0543584123335
-0.00729099917745
0.0963828716761
0.0733685986401
0.0405179222777
-0.153334305544
0.0299234152259
0.174606178642
0.0733685986401
0.0454962285674
0.171579502493
0.0651543278288
-0.0384452443359
0.0612616219848
-0.37614894729
-0.240218886296
0.04251255555
0.0733685986401
0.0733685986401
0.0733685986401
0.0994523984637
0.0733685986401
0.163147256048
0.0733685986401
0.0733685986401
0.099350655476
-0.0957941772116
0.0733685986401
-0.483029014074
0.0302042328216
-0.143155359434
0.103889927604
0.0733685986401
0.0813736691763
-0.119802039359
-0.167794261171
-0.331404425442
-0.0856340152466
-0.107433963116
0.0817503549183
0.0733685986401
0.0624967355034
0.0202934456335
0.0733685986401
-0.132131977988
-0.0364330439574
0.0733685986401
0.114188438625
0.162630510636
-0.111340294183
0.0835080301722
0.0733685986401
0.0733685986401
0.035592843523
-0.175414493154
0.10137508906
0.17421411002
0.0508326738674
0.0493558575187
-0.0688093892184
0.19666581483
0.097227362346
0.136221172909
0.0743498315352
0.287430615727
0.0446740520304
-0.324859440243
-0.252263314107
0.0521614529401
-0.22109920739
-0.217928136071
-0.0852974023316
0.0733685986401
-0.0472803626249
0.162392670889
0.0733685986401
0.093547276064
0.0291659806435
-0.0880627452366
0.160319119604
0.136707703889
-0.147839335953
0.12340038044
0.0465465468445
-0.00386977774968
-0.0406701871296
-0.00736443933351
0.0733685986401
-0.00839025500556
0.0829103986195
0.119412779223
0.0733685986401
0.0733685986401
0.0932751836802
-0.711247942942
0.108827623576
-0.0150308545021
-0.224891702075
0.112343025031
0.0897258424473
0.0341183411674
-0.0357441767685
0.0769186804561
-0.0538862780953
0.0465140769202
0.0465854835214
0.122719194662
0.0463745948723
0.0514277291525
0.0378916617912
0.0293422254865
0.0463795910717
0.0463795910717
0.0463795910717
0.0463795910717
-0.0155329014542
0.0113465513757
-0.304806005342
0.0168664176108
0.0213870910783
-0.35725800809
0.0734523301062
0.0463795910717
0.0463795910717
0.0463795910717
0.0512676303502
0.046178870571
0.02482671324
0.0478781591368
0.218392699143
0.00788721338517
-0.0887900527737
0.0655436786778
-0.178122004136
-0.0912060004005
-0.04505415722
0.00602939266884
-0.364945734918
-0.34451152153
-0.0202257516905
0.166430287669
0.0989367083533
0.323834899447
0.0463795910717
-0.0533755210886
-0.00560602318984
-0.0457185285475
-0.202137009083
0.295995543914
0.0463795910717
0.119347684445
0.0224170595973
0.0248661041514
0.0575262561106
0.0419751281298
-0.0429511956577
0.0214162074017
0.0463795910717
-0.0797958889173
-0.0760990730163
0.0461836559205
0.130744550317
0.0463795910717
0.0463795910717
-0.0939825695283
0.0819433040671
0.0465669430076
-0.141342554561
-0.0212984976548
0.140807345089
-0.1768005497
0.0460179145246
0.097983375572
-0.0556047479607
-0.0804871892104
0.0496333880549
0.0143470350462
-0.00626369649476
0.243012444927
0.0849270724401
0.0463795910717
0.0942723702595
0.0391027383358
0.0120892346131
-0.232607174992
0.0477164082158
0.0833766903315
-0.0377861828436
0.0463795910717
0.0463875758897
-0.0106270871599
0.0463795910717
-0.375124267543
0.0661155425265
0.0451072761802
0.0481108330068
0.126061003129
0.0463795910717
-0.00739004256638
0.0463795910717
-0.132410713993
0.0812971087036
-0.0243742805549
0.0459157140854
0.0529748582943
0.0719984768191
0.133329048782
-0.028355112414
0.0423073771894
-0.0188826425701
0.0463795910717
0.0463795910717
0.0679032899485
0.281238159952
0.0342153863834
-0.226820137968
-0.00819450856864
0.137521348117
-0.0205606743816
-0.0587752807804
0.0720776501918
-0.100320283816
-0.135770305279
0.231066088495
-0.199533089044
0.0837331754373
0.0874919587479
0.0463795910717
0.101419732151
-0.16330891347
0.0463795910717
0.144905594437
-0.00928702472822
0.167312660028
-0.328347492631
-0.0539446057123
-0.0278265309696
0.0407602748105
0.26139833114
0.101952099093
-0.00424460869353
-0.000930957705131
-0.0605355160208
0.0710367072699
0.0276922069513
-0.0202814142204
0.0617275436845
-0.0751948251514
0.0818907312854
0.0617468302591
0.0793633041615
0.0410580835849
0.0740446672831
0.133711761174
0.0492997727133
0.0591610833112
0.0617275436845
0.0617468302591
0.0225422016232
0.00596001510724
-0.0280305379568
-0.00397171961795
0.0486841118864
0.152607553669
-0.113987511458
0.071947365156
-0.0118761447041
-0.235467146408
-0.00484313520067
0.0212709422829
-0.209212175351
0.0730312040774
0.0700973404958
0.0486841118864
0.041882286529
0.0486841118864
0.149320552537
-0.131826357533
0.0259628555083
0.183870924161
0.0401746658528
0.0486841118864
0.125753814423
0.0617468302591
-0.201786149195
0.0840260330119
0.0390381048524
0.0811283090737
-0.0541331723505
-0.0541486991188
0.0617275436845
0.0617275436845
0.156947383593
-0.0532616894643
0.0486841118864
0.0534218747178
0.0498280985414
0.0374104230923
0.0617275436845
0.0486841118864
-0.0139967271398
-0.132561499557
0.0347108614969
0.0287291848921
0.0927274434402
0.0486841118864
0.0486841118864
0.00762381130529
0.0485537871957
0.0897141890181
-0.0847691490268
0.184538300059
0.0534218747178
0.039287674749
-0.127342856034
0.0486881370125
0.02008169636
0.0991086266585
0.0486841118864
-0.115542368099
0.0486841118864
-0.0785141963463
0.099582490856
0.0486841118864
-0.0120369716135
0.0647551660089
0.0486841118864
-0.0441159015242
0.225993512311
0.0477981986175
0.00786624434082
0.103829069649
-0.100659883383
0.0486841118864
0.112948241131
0.0486841118864
0.0486841118864
0.0486841118864
-0.00397518859183
-0.127910952026
0.0922167155979
0.0471170637534
-0.000573723013805
0.117724027983
0.0486841118864
-0.00757590817597
0.0715654202583
0.0386745357242
0.063011739581
0.0486841118864
0.0424384953728
-0.120679787604
0.00324157366145
0.0486841118864
0.0486813705499
0.0486841118864
-0.119485226422
0.229669446974
0.0387548342288
-0.0613156299308
0.196017160993
0.0319245988117
0.211163157088
0.0153264184644
0.0486841118864
0.175977324169
-0.00750010259332
0.063024032768
0.0974701459998
0.023653049132
0.0486841118864
0.0357301969355
0.114931084664
-0.0425963340622
0.0618514935295
0.0967159127794
0.0081125041
0.0493308451452
0.0486841118864
0.0814045540636
0.0805858543198
0.0107350498337
0.0312268964507
0.07499143174
-0.120260609121
-0.288726983675
0.0676547612436
0.0674919490863
-0.073193789307
0.0486841118864
-0.419374783776
0.0486841118864
0.0487318712756
0.0487420935855
0.0533849751567
-0.0583306658588
0.0487420935855
0.0487420935855
0.152542765529
0.0940264638431
0.0870899598598
0.04868384199
0.0486841118864
0.0486841118864
0.112661365853
0.0504663269021
0.0486841118864
0.039479792048
0.263252631802
0.0266829983013
0.0486841118864
-0.0410544337457
0.0519605698381
-0.00531232160023
0.00870522744231
0.226748954545
-0.0312513112566
-0.177542258703
0.0486841118864
0.0328209851213
0.0256114041
-0.0266198945669
0.102724368495
0.112232490779
0.0436760585642
0.00784741441044
0.176934604888
0.0491234113028
-0.0474876549937
0.129113854633
0.0486841118864
0.0586773120957
0.0126231454083
0.0664557431288
0.0486841118864
0.0488862614071
-0.00661358992078
0.0486841118864
0.0427855387095
0.206121139941
0.114062615191
0.201008885843
0.150851218057
0.00648887473085
0.0323743681602
-0.00486838303217
0.0385525915507
0.0370397700989
0.0858046910239
0.0765344172929
0.0880744577853
0.137168911884
-0.113685037402
0.0370397700989
0.0159476235496
0.0729809526866
0.19292295646
0.0526350645871
0.0434342716649
-0.260470323926
-0.0160440206027
0.0434342716649
0.0264736508637
-0.00766909851058
0.0739710845297
0.0434342716649
0.0435687575134
0.012014146519
-0.00964088134177
-0.0310459973265
0.0724149656583
0.0434342716649
0.100237082086
-0.0518187758635
-0.141710419585
-0.00467748321164
0.0452918612777
0.0434342716649
0.04357077737
0.0419044359708
0.0836907876914
0.0270104200794
-0.115059524723
0.0367659729127
0.0243778248701
0.0434342716649
0.0574379466112
0.0434342716649
0.0434342716649
0.032111432084
-0.044214984088
0.11409755794
0.0386656176023
0.0434342716649
-0.0416350224122
0.0495723342993
0.0434342716649
0.203365692024
0.0555375674807
0.0434342716649
0.152425715532
0.0906927711762
0.0435687575134
0.0434385003438
0.0761746092104
0.159083198822
0.00493657857106
0.0434342716649
0.0804929593342
0.0868434916571
0.0325101395517
-0.0105086820113
0.0216387746156
-0.158495779685
-0.0671068442815
0.0369903960397
0.108577923332
0.0651254148856
0.00160737963666
0.0446624841008
-0.086281402958
0.0434342716649
0.0952987026138
0.0873070002308
0.0868867801108
0.0434342716649
-0.0367287589099
0.0533708564178
-0.0136837882748
-0.146153215034
0.117558759613
0.0739710845297
0.0285723058238
0.0434342716649
0.0434342716649
-0.174849970674
-0.114718631599
-0.0429703497869
0.159850562274
-0.202009764017
0.104228463638
-0.10986396695
0.0232723813766
-0.351209055093
0.0434342716649
-0.0455695492804
-0.0818498537
0.0165698975099
0.00753946275984
0.0739851670329
0.143819823739
0.0434342716649
0.0434342716649
0.0980731008989
-0.376024326828
0.0868874609001
0.0824354128813
0.188978370629
0.0684475361365
0.163046722083
-0.206128040161
-0.09287716677
0.0136016742759
0.01891703777
0.0309523905488
-0.0551699628953
0.243849656418
0.0380053772493
0.0133363577399
-0.124627142519
0.0434342716649
0.000529952988902
0.0429235321275
0.0884671703176
0.04970953167
0.0352960689174
0.097163818432
-0.187050941447
0.0434342716649
0.129316501947
0.0979819042332
0.0434342716649
0.0434090214882
-0.0723955673654
0.045142859685
0.0428311789673
0.121105075877
0.0434342716649
0.0464606808731
0.0434342716649
-0.101614791863
0.0434342716649
0.0467987004346
0.0551779314951
-0.188159740364
-0.34893003683
0.0765679753163
0.0882957280324
0.223441960159
0.0714479648105
-0.338111293078
-0.00538927094798
0.0302093652526
0.0434342716649
0.099939021108
0.151835037862
0.0594084148684
-0.0964650175641
0.0434342716649
-0.0158245684749
0.0434342716649
0.0434342716649
0.0875476948372
0.0434342716649
-0.00129745922465
0.0126179332402
0.0434342716649
0.105216973163
-0.0740685427185
-0.148817957277
0.048154663188
0.0503825600147
0.0680059248656
0.063333604026
0.0672440643804
0.032135002625
0.0708282600297
-0.0339173933178
0.0341386331797
0.0341386331797
0.0282143337999
-0.101246960359
0.216330908153
-0.0811295051149
0.0364863392918
0.0341386331797
0.0203157446118
0.0341255991688
0.182813972231
0.0321372559086
-0.252419623044
0.289709166982
-0.129217514256
0.0472334007233
0.0757914492501
0.0780546953806
0.0419423703484
0.0341707860255
-0.0901090152895
0.0399030385815
-0.106053685305
0.0827799485748
-0.19738356643
0.0210558219793
0.0558297764004
0.00646948212431
-0.136691316135
-0.00545129828722
0.0168610968042
-0.0324833962663
0.0309608021087
0.042701697391
-0.0176554463673
-0.483094078058
-0.0197281202857
0.00601208629676
-0.104123855563
0.0184769959813
0.0212443582211
0.0462866333027
0.0341386331797
0.0178249429634
0.106968469215
0.0440893192598
0.124647932099
-0.0722674795317
-0.0206128021089
-0.0263602117526
0.160110428233
0.0398608834287
-0.0254532840168
0.177763576828
0.152885616979
0.0414595958984
0.0515565780585
0.0341386331797
0.142809120435
0.121635636552
0.0341386331797
0.0899310847362
0.0341454717711
0.130047976539
0.0341386331797
0.0143532502081
0.0472334007233
-0.197668625574
-0.265304746601
-0.404320526907
-0.138309471707
0.166667695761
-0.522558624036
0.0379778157502
-0.061610861814
0.0382845122328
-0.247232759609
0.120361473904
0.0339401067046
-0.00956635331183
0.0992451771464
-0.145300065531
-0.0931740218658
0.0360181674167
-0.299712825197
-0.367227793345
-0.233324196087
0.0473171995361
-0.101200911953
0.0300505859731
0.0696548621971
-0.122743742105
-0.0407774741862
-0.163928225112
0.0299499069711
-0.00424534911867
0.0287575197848
0.0514061643094
0.0418776648976
0.0300505859731
0.191115981397
-0.0459850158107
-0.000889197066013
0.0544354286305
0.0566995322361
-0.0253187106693
0.0399914418913
-0.0281746317493
0.0300505859731
0.00271546340945
0.0401814933911
0.0497328096487
0.0835993883649
0.0643488220529
0.0300505859731
0.0343723614026
-0.0569491950788
0.0619407705945
0.0300505859731
0.0148755659169
-0.41383231748
0.0284094500467
0.0300505859731
0.0171936434445
0.169819342377
0.0377640497914
-0.0804187009033
0.0295701021275
-0.00844352917765
0.0239465146443
0.0164639368336
0.00181891344559
0.0986128949821
0.0300505859731
0.0643488220529
0.0987028943445
0.0754801971113
-0.0971539016273
0.249806189545
0.0300505859731
0.0300505859731
-0.0921791753185
-0.0262313166466
0.0297011998988
0.0303595045111
-0.00603571911546
-0.00675851338848
-0.041815298902
0.120572689402
0.0318785182166
0.0947401303653
0.0300505859731
-0.220434866258
-0.370254196207
0.042025173716
0.0300505859731
-0.0916534561627
-0.0365155497606
0.0624684773198
0.000821207043028
0.0488120520967
0.0962756469387
0.0300505859731
0.00583714858618
-0.0239379137217
0.0876763963211
-0.234862404301
0.0300505859731
0.10302835139
-0.085790813906
0.0430940177712
0.147678566939
0.0306524630625
0.111901227711
0.0530452564839
0.0212118359174
0.0442484678628
0.00538800092171
0.0629846349836
0.0643488220529
-0.000833148900688
-0.0336625926545
0.123944059646
0.0299755534545
-0.16915185046
-0.159699452277
0.0641767478484
-0.170278802784
-0.00569817450508
-0.278887121651
0.0300207636113
0.247310324219
0.216378748676
0.00200998269419
-0.063689227517
-0.0166543815111
0.0285754067178
-0.00397236992154
0.0300505859731
0.0686799102352
0.0335902579443
0.048238638203
0.0300505859731
0.0423162474729
0.0428305130229
0.0288265886477
-0.159867449855
-0.320631952481
0.0300505859731
-0.0110402306578
0.066340218683
0.000913122107275
0.0300505859731
-0.00883620058764
-0.0336037874624
-0.00461321025831
-0.00607850939109
0.108359629984
0.141692477309
0.0300548146521
0.0170369829553
-0.0196021777449
-0.0199955220949
0.0471617971811
0.0300505859731
0.226073767179
0.0335699170214
-0.516232723846
-0.0821639562896
-0.235789074708
0.17676001103
0.0192683918209
0.0637355423392
0.0519801225022
0.055573212838
0.254731440504
0.0273965792722
-0.0116960358028
0.198259570436
0.0448956155949
-0.117614985889
-0.161958512963
0.0576946391618
0.0848860526863
0.0552037330683
0.0561292110059
0.0366145426997
-0.0636701508859
0.0300505859731
0.0803014703455
0.0300505859731
0.0988040964002
0.0300505859731
0.0274076142726
0.00649431892638
0.021138678712
0.0308491715183
0.0456199124317
0.0300505859731
0.0342365644541
-0.0517749344519
0.0571491239154
0.00844053770886
-0.0442363889682
0.0300505859731
-0.0714178595412
0.0300505859731
-0.0268830186309
0.0402115063366
-0.0192019770241
0.0152457086577
-0.0196486963462
0.0319805607449
-0.0518205120224
0.0136639543322
0.0305326832847
0.0148716124326
0.157350314166
0.0855865607287
0.0468195523818
0.0383446378738
0.281334564087
0.0928976235269
0.030082265776
0.0138480803333
0.0590464464386
0.148293163034
-0.170341448153
0.0590464464386
0.0315263820954
-0.304738752961
0.0170705888075
0.0660471777326
0.0676053422664
0.0598246710673
0.0590464464386
0.0590464464386
0.118214274625
0.0302543608893
-0.128988288916
0.0858005696864
-0.0202756926707
-0.230891242374
-0.0359017662417
0.345891562622
-0.0694644924014
0.155641334029
-0.330265057394
0.0538974835028
0.06190595182
-0.203566253962
0.0695265879965
0.0692213394038
0.0594655065873
0.0664625583801
-0.00323465552624
-0.0246074031275
0.0967995600016
0.0888350238869
0.0938957302416
-0.0426236447569
0.0443804811535
0.00662165323484
0.0484325211174
0.0590742998454
0.0590464464386
0.0590464464386
-0.0590551993417
0.0590464464386
0.0635967189391
0.0388331947039
-0.259027693191
0.0590464464386
0.0900755456895
-0.279974273095
0.0608400025892
-0.0218835071283
0.0567964488158
0.400610512925
-0.00287250800784
0.0594887114763
0.0590464464386
-0.140273432481
0.0189001962932
0.0615014879264
0.0590464464386
0.0152544215529
0.0152317588077
0.0590464464386
0.0522365623466
0.0272113236385
0.0590464464386
0.0590464464386
-0.00789923796423
-0.0361470524671
-0.361933364483
0.0656251862927
-0.176789515939
0.0590464464386
0.00596469764005
0.100414632548
0.31126282117
0.003331602727
-0.0928388435277
-0.0928388435277
0.0651228561522
0.0112500992755
0.100330817804
0.0668375532386
0.0287224207135
-0.0264784037614
0.024101747876
0.0287224207135
0.0873013076186
0.147704135267
-0.0366503219922
0.103220977299
-0.00290624390293
-0.12348062061
0.0817476475605
0.0287224207135
0.0226831761944
0.01346568742
0.0263380849289
0.0287701801026
-0.128556830353
-0.0917750323732
-0.090065824482
0.0287224207135
0.0287224207135
-0.00634142181543
0.057561902363
0.00252708931176
0.0287224207135
-0.0283208662922
-0.0764324511386
0.034729576592
0.0336783639924
-0.011781438791
0.0307848582213
0.0949049875853
0.00629043116076
-0.131940748736
-0.0929765063383
0.0499191301117
0.0199899882887
0.0978724422312
-0.0563114814037
0.0287224207135
0.00915614287368
0.136289014928
0.0377840237314
0.0291391688436
-0.0725187720836
0.0993027082146
-0.138879524622
0.0598485502417
0.0221559942001
0.175375515281
0.0277605255133
0.0617128681543
0.0287224207135
0.0136720889971
0.041233544575
0.0701454919021
0.0764553496662
-0.0427162544825
0.0287224207135
-0.513459372169
-0.0683278806326
0.0287224207135
-0.00651816391332
0.0925852637074
0.134617247165
0.0698775784189
0.000523141932404
0.0287224207135
-0.0372769385377
-0.07920238922
0.118864472789
0.0766613713977
0.0465005979734
-0.0113900116667
-0.0185138777013
-0.150739993118
0.122786860486
0.048050632896
0.048050632896
-0.0608006501145
0.048050632896
-0.00519765696107
0.048050632896
0.257844551884
0.0168608085649
0.0805191369728
0.155068481891
-0.035931571117
0.0441424490289
-0.102614145219
-0.0288868939625
0.048050632896
0.416321843627
0.116537796659
-0.00102960899861
0.0483595514339
0.00412660864142
0.0444673236989
0.0482703861985
0.105600338177
0.0482769066934
0.166319497722
0.00732381472613
0.0658108484155
0.048050632896
0.142376790642
0.048050632896
-0.134457245497
-0.0279855653561
-0.140504673668
0.0198148114399
0.048050632896
0.0350658626624
-0.0507327413794
-0.0375037069971
0.048050632896
0.0748519480151
-0.157297888595
0.0289289216516
0.048050632896
-0.0315699879732
-0.00430774353187
0.241920643124
0.048050632896
0.0437186295916
0.048050632896
-0.0668932869628
0.0737947778756
0.048050632896
0.0430761833029
-0.254292425398
0.3728707893
-0.0330130825883
0.0328313100723
0.048050632896
0.0901250240146
0.0985164129884
0.0489290865591
0.075906231366
0.048050632896
-0.0183042664082
0.048050632896
0.079617766138
0.048050632896
0.129660115534
0.048050632896
0.0610426677128
-0.0105238968218
0.048050632896
0.048050632896
0.0452377187862
0.048050632896
0.0462122789931
0.048050632896
0.048050632896
0.048050632896
0.048050632896
0.096135355072
0.096135355072
0.0610426677128
0.0610426677128
-0.0943955768436
0.048050632896
-0.0226540359809
0.000272951669573
-0.0171403177636
0.0177304671161
0.0357936245731
0.0621049736587
-0.00565821777592
0.0975618777695
-0.0101373178922
0.00643909880026
0.0472373906465
0.0305368128648
0.165139216901
0.222105827169
0.101473444138
0.0305368128648
0.0305379542154
0.056056076275
0.0319539080892
0.0447017539492
-0.230514479318
-0.0181381613962
-0.00639105322415
0.053438204154
-0.0459629165194
0.0305368128648
-0.0591378881991
0.0414272794454
0.0363138798666
0.0383405500336
0.0668417232015
0.0305368128648
0.0305368128648
-0.0548406671762
0.0289805639827
-0.041303559283
-0.250276085506
0.174703797322
0.0369511159523
0.127996919853
-0.017141268329
-0.267041276879
0.0305368128648
0.187129369282
0.0989032015696
-0.346984502135
0.0305368128648
0.0531722206063
0.119926170801
0.0305368128648
0.0305368128648
0.0305368128648
0.0605049961549
0.29125007832
0.0441937352777
0.0936545861682
0.233830169171
0.0514666528994
0.0582306554601
-0.138253095659
-0.00635197741562
0.048176540051
0.0207630382496
0.0888530634332
-0.027004903208
-0.278584681346
0.101462151693
0.0238084642084
0.0305368128648
-0.00170819836245
0.0319359818692
-0.0985189738891
-0.0105257185614
0.0305412509581
0.0305368128648
0.0185959764298
0.0570154553087
0.0781102866278
0.0906607844179
0.0101007895812
-0.133490699497
0.0742177659585
-0.0239352129691
0.0742177659585
0.0100416585875
0.0742177659585
0.0278974347474
0.0716579509904
0.0255303698846
-0.0580329691274
-0.145920744277
0.0485140915912
-0.111625385224
-0.252777165504
0.179006145294
0.131976857713
0.231771150635
0.0742177659585
-0.0268967986935
0.0900799227832
0.0803751047486
0.063285136107
0.0297635038637
0.126452163871
0.102073123529
0.142562950696
0.18731369458
0.0772199827765
-0.0122544717379
-0.0645527796222
0.15288101019
0.0172278342192
0.389320048549
0.201854302213
0.0135626065854
0.0513253044841
0.0607748373015
-0.0176070691933
-0.101051516174
-0.185618682517
-0.0843509007658
-0.076500402247
0.0513253044841
-0.0778707573124
0.077767250025
-0.303396024237
0.157531030063
0.0513253044841
0.100431573369
-0.0170028961419
0.049566516385
0.460235403549
-0.144456441327
-0.0178843647985
0.0486617235587
0.0486614536623
0.0513253044841
0.107420850986
0.0724698682059
0.0513250345877
0.0293957366247
0.00123945996709
0.0240381006308
0.0501639592257
-0.146218760318
0.163933179782
0.0527980941802
0.0513253044841
0.00463383181553
0.0307503184912
0.0513253044841
-0.109849975141
-0.0416948998836
0.110802589768
0.041094160503
0.0513253044841
0.0513253044841
-0.212145029148
0.0521360194337
-0.66493465716
0.0552496291157
0.0513253044841
0.0808252119244
-0.00514800454808
-0.0803348481255
-0.0439007765795
0.20523517632
0.0513253044841
0.0513253044841
0.0299910111304
0.0781598223033
0.0381004334835
0.239670326913
0.0752290914155
0.0513253044841
-0.0335675684203
0.0552220331894
0.0513253044841
0.0513253044841
0.0470641872133
0.0305857480709
0.102774614968
0.180370576507
0.0513253044841
-0.0922954813254
0.0513253044841
0.0850523648491
0.0513253044841
0.15094173258
-0.37592676429
0.051634223022
0.0854475763439
0.0513253044841
0.0315028490716
0.134587568364
0.0649015598517
0.0486314644154
0.0110014282891
0.248414427588
0.0227407634871
-0.0306342374037
-0.0591918153179
0.0942444066422
-0.0196688440949
-0.0656118814809
0.0649015598517
0.0649015598517
0.018042907083
0.0649015598517
-0.283472915545
0.147977892379
0.0649015598517
0.0914215462114
0.00800682032755
0.058423018341
0.0211555317495
0.0649015598517
0.0648570206671
0.0496153756702
0.0850376111236
0.155384406733
0.0649015598517
-0.192909832457
0.0649015598517
0.0125174581706
0.0768965124821
-0.290045951358
-0.0536734564937
0.0170620103812
0.155035930445
0.101030492822
0.0649015598517
0.0649015598517
-0.126583098691
0.0962759916492
0.108204353326
0.0649015598517
-0.0153461401218
0.103601733906
0.00725500088446
0.017893465275
0.0368126119588
-0.295571553888
0.0496945548808
0.160416736045
0.0635343778932
0.102722054141
0.0374487188206
-0.0412635027537
-0.064151921702
0.0912131812943
0.0413136187669
0.0455551227165
-0.0566116327527
0.0647173837994
0.0649015598517
0.0942241629913
0.0158250556988
0.0405733709788
-0.0634105649614
0.0649015598517
0.00843937180214
-0.00175738188377
0.0649015598517
0.105304031128
0.0649015598517
-0.0315018867454
0.0380227745521
0.00272423366444
0.214403886061
-0.0412488800027
0.0996396780651
0.0110273456053
0.108932935839
0.00786025424642
-0.109957809639
0.0778935946685
-0.0759441419117
0.105863865064
0.0324178913467
-0.0488856951321
-0.0485002962085
-0.0656561968443
-0.0654548081677
-0.0930838910591
0.0324178913467
0.0108311261932
-0.1299668079
-0.129573271955
-0.102850105739
-0.067600286662
-0.134683366839
0.0324178913467
-0.194715713302
0.0324178913467
-0.11040751407
-0.260566571368
0.0324179619012
0.0324178913467
0.0324178913467
0.0324178913467
0.0324178913467
-0.000766526321377
-0.362541812648
0.0324178913467
0.0324178913467
-0.296963464321
0.0324178913467
0.0225476371687
0.0324178913467
0.104610597626
-0.0387300998042
0.0886324137991
-0.0772021608576
0.0330193458766
0.0761845441408
0.138440548836
0.0401957202148
0.183010226359
0.0324178913467
-0.15141111247
0.00725710452878
0.0396591849783
0.0396591849783
0.0324178913467
0.0324178913467
0.0324178913467
0.278432060469
0.154201611206
0.153835738438
0.0324178913467
0.0407342366618
-0.137695553861
0.0646120494837
0.11103350955
-0.290218465334
-0.0908149496192
0.102922408324
0.0324178913467
0.000395234397606
0.0324178913467
0.0105585914558
-0.0119841606236
0.0611848095769
0.141152097663
0.0324178913467
-0.103964220388
0.0452140153093
0.0171044605326
0.0379095529937
0.0771212546653
-0.0159809662373
-0.110144887327
-0.0376122723721
0.0324178913467
0.137172233578
0.10478473706
0.0324178913467
0.1402151883
0.0327448393411
0.104484632921
0.039499583867
0.194717459816
0.0904828931677
0.104730455979
-0.0042054519296
-0.00678118492064
0.0561275797201
-0.249370347112
0.0350922921313
0.00651581750454
0.0324178913467
0.0847303208221
0.0560634566945
-0.0454046744083
-0.0286587349301
0.0324178913467
0.0619946401428
0.0759470689883
0.00950161400995
0.0324178913467
0.0258408185361
0.0376293622942
0.179840624489
0.16859473131
0.0341491610043
0.0323510769123
0.0298345350645
0.03224024729
-0.0648920843931
0.0859969414688
0.0718627018403
0.0445365037842
0.0526067785168
0.143751836371
0.0242443063569
-0.209420363682
0.0408943680987
0.0990074439254
0.0594070380289
0.0324204504934
-0.0256465593266
-0.132227098833
0.120427057057
0.0943186967407
-0.00253353348239
0.0359219187681
0.0130412892415
0.0324178913467
0.088923963953
0.127357858253
0.0882475269341
0.00974739972596
0.0455126588903
0.133736557672
-0.262373592091
0.0860368154222
0.131736204192
-0.0649341878191
0.0958197485724
0.112578154114
0.0433096135635
0.102941954244
0.032280287416
0.0277555521498
0.107662417916
0.00165579179226
-0.0266319119095
0.156114850162
0.0324178913467
0.0702383856362
0.0593281475291
0.207019504406
-0.0783772705529
0.0167254902063
-0.061346905435
0.041365577437
0.0412665506157
0.0445218222441
-0.00752627885575
-0.0660480943607
0.0728591227866
0.0327980212351
0.0868673880859
-0.230055409279
-0.0395410772576
-0.213032299845
-0.0711935052129
0.030687504153
-0.167475265887
0.00460892971825
0.164097080497
-0.427464074772
0.0271417469828
0.169366156883
-0.0403007766543
-0.0291980375053
-0.0702396423935
0.0759338292226
-0.0520938656578
0.0219295365291
0.0226987495613
-0.0364091364041
0.0594032787024
-0.431619676626
-0.0763940741797
0.0444254601211
-0.0406633555142
0.0241653577174
0.032378782024
-0.0478568151867
0.0356822417349
-0.00592119819369
-0.00885911504742
0.0157290611546
0.021465848476
0.0874858501771
-0.0450266389455
-0.0609242814552
0.138035835468
0.0233512351291
-0.0332085611857
0.0219371478408
-0.0131527618791
-0.0270268713433
-0.223592772716
0.0223718015668
0.0491802993095
0.0219295365291
0.0219295365291
-0.0562000387313
0.0223629517476
0.00490068036972
0.0987713748191
0.0356659566617
0.0228167959174
-0.146684068141
0.0176412801093
-0.114986790413
0.0223718015668
0.139292528777
0.0219295365291
0.0297444403311
0.0219295365291
0.106071923757
0.032104730719
-0.0758146956617
-0.0256130151602
-0.0861477844782
-0.215520794282
0.0281705898849
0.00908632558415
0.00185461859831
0.145627393891
0.0154153210375
-0.0471519037827
0.086881273207
-0.234601242949
0.0219295365291
0.0494292121402
0.0343916439882
-0.230899012145
-0.136784759516
0.0219295365291
-0.0231244859118
0.0962957480046
0.0352573509533
-0.188182716181
0.0157345736849
0.0157345736849
0.0157345736849
0.0157345736849
0.260840001758
-0.0178163545078
-0.0297328313167
-0.276235039309
0.0157345736849
-0.062312829279
0.0157345736849
0.0157215396741
0.0572700167328
0.119685371681
0.0157345736849
-0.216256045453
0.00417815554168
0.0609004352229
-0.00927918912402
0.058765554357
0.0157739461725
0.0157345736849
-0.0151568222826
0.0157345736849
0.0540383143848
0.0157345736849
0.0157008670129
0.0107691043157
-0.0651156941878
0.0487807240328
0.0445928668711
0.049249760786
-0.015611453406
0.000886777340604
0.116814160512
0.0157345736849
0.0568850226461
0.0157345736849
0.0156652132587
0.0881055699249
0.166774896987
-0.262875460573
-0.0462360051161
0.0157345736849
0.111608223784
-0.0953523773621
0.0157345736849
0.0454437205448
0.0157442084755
0.0892557841532
-0.11304258062
0.0158851435028
0.0138466986855
-0.00100008952264
-0.0196877203575
0.0751014774566
0.0157345736849
0.0917722015948
0.0705382014694
-0.0538696994568
0.015736312894
0.0610882732848
0.0184540492016
0.279371170766
0.0233160511488
-0.00991679871926
0.0391746012406
0.0216911432207
0.0216911432207
0.0271728388846
-0.110347356689
