0.0
0.137084411875
0.0854605659022
-0.486852852387
0.170788766983
0.0341114257716
-0.165166580773
0.11000403087
0.026528703737
-0.0702863490292
0.371258441868
-0.0873752912036
-0.35654333182
-0.163329753693
0.00311560363068
-0.0822509469354
-0.0279565503508
0.00652461516068
0.186734287532
0.0103207666169
-0.0195878849296
0.0329471482663
0.0542635760363
0.0
-0.000917446037344
0.0230548231799
-0.00730184686513
0.0257007328574
-0.139024810107
-0.206004247833
0.117873834358
-0.0341569607095
0.137643066704
-0.161702115382
0.0534752904721
-0.127345490144
-0.0118658356812
-0.00853753509446
-0.00664251974435
-0.0280794645607
0.675176585069
-0.133677569583
0.220960336444
-0.258936164801
0.0741907801355
-0.188787743988
-0.0987960291042
-0.0372494534697
0.0676887112419
-0.151258407574
0.483320835083
0.0382341265617
0.109270724171
-0.238842289452
0.20526991321
-0.104312170016
-0.207438728622
-0.0389265949673
-0.0265539437704
0.0495927401873
0.0
-0.233887448047
-0.0633722346931
0.0
-0.39284322265
0.0848989260764
0.0
0.204004168249
-0.0905465791771
0.0
-0.237844580093
0.102687458246
0.0664424889852
-0.14983905773
-0.0110721063094
-0.170482441464
-0.0407334674261
-0.173662559437
-0.467013549128
-0.087358829241
0.103036643322
0.0262690599176
-0.280751022707
0.223653743969
-0.414930139951
-0.205208409397
-0.0430229008062
0.0279219161201
-0.0817156785008
-0.0159982815957
-0.0718489228999
-0.105635392914
-0.0104967109524
-0.0368616142866
-0.0597691463297
-0.561760623062
-0.00328480345193
-0.209799738512
-0.0592980125485
-0.349562353206
0.00557002409209
0.270094492594
0.260125404728
-0.0795733473832
-0.265842667771
0.123905158965
-0.361382991468
-0.293483847543
0.125833977762
-0.195858104822
0.165922982753
-0.372998678623
-0.365589889782
0.114157477341
0.0862967968757
-0.0280812544678
0.0688977486103
0.0899208901351
0.0855107660391
-0.12957809132
0.274604453153
0.082274288011
-0.0349655663287
-0.0372527687587
-0.120794868549
-0.439993152044
-0.184183531657
0.108235716338
0.0369361356525
0.336111370695
0.387704252307
-0.371581192705
0.0
-0.322960769179
-0.283162110142
-0.366675918719
0.117558793083
0.0587994511363
0.12048764331
0.0210083220868
0.0127486289729
-0.0523537264739
-0.292521794573
-0.0859357658482
0.0
-0.234436162463
0.135980892625
0.068956019851
0.154998670917
-0.10013243977
0.0830222907954
0.0
0.0
-0.0308296541797
0.0137560896547
-0.462316075718
-0.468813860545
-0.00808943712787
0.0
0.0288966672105
-0.0372290946333
0.0
0.0
-0.288420254557
0.0413881865571
0.0034157304692
0.0
0.206508932106
-0.00841870580888
-0.0549285387659
0.282170025381
-0.0150238957724
0.0
-0.0256851823503
-0.433466555919
0.188369450803
0.026132417139
0.0407652480812
-0.377765488917
0.0
0.00775306282387
0.0
0.0127625906793
0.0
0.106251226938
-0.161951370858
-0.0925258570201
0.111340155239
0.0
0.0
-0.163528392996
-0.166138119199
0.0021308576661
-0.115943152006
0.121787754628
-0.0154032615114
0.0
0.183286048318
-0.167871449583
-0.0430229008062
-0.434766838795
0.0
0.0336833392118
-0.0074357448797
0.0
0.0
0.155423454996
0.154464829396
0.00015849940295
0.29265142045
0.0310688010747
0.0857159416569
0.0475922186209
0.13742968078
0.00500754472454
0.00715029189708
-0.197606171087
0.0610046438612
0.0343186299136
-0.023007579226
-0.123563039513
-0.0682229607713
0.0387088872911
-0.302006022347
0.0401066879532
0.00600515436861
-0.0211069771531
-0.0503180130804
0.154813818868
-0.241934873818
-0.0779122132546
-0.0988886087334
0.0
0.139336236671
0.158692526277
-0.376669481351
-0.137045957655
0.0
-0.0596358330443
0.115660781065
-0.121804382132
-0.190280833763
0.224088628551
0.00954568701349
0.0613295694001
0.119776316046
0.0241622068357
0.0
-0.171627991711
-0.307760315409
0.0
-0.0248890519045
-0.0337701723778
-0.0192987313732
0.0
0.0280521169893
0.0
0.0
0.0388869430658
0.0
0.0
0.00243700864559
0.281419559142
0.134182746122
0.175609320253
0.128062965067
0.0716420639472
0.0233997910767
0.0361521713288
0.186784548698
0.156143607768
0.0253609912318
0.0556823702466
0.0
-0.0917786796636
-0.0641112594403
-0.0401479999666
0.183486093831
0.0230360267338
-0.0184134952471
0.418375117791
0.130020056853
0.0393722412901
-0.0723683656477
-0.118246199906
0.114157477341
-0.0736925150381
0.0357003078829
-0.116383490995
0.257786090337
0.0
0.0
-0.00709958987611
0.0331306297967
0.361052301153
0.0988129626023
0.0807365729221
0.00565877218662
0.0
0.0500332737289
0.0521096604401
0.0
-0.277090115968
0.041634430335
0.0
-0.552748347311
0.0737288684712
0.471772002226
0.18253617215
-0.0520430492061
-0.119362784399
0.00949986252269
0.0953747749926
0.0261231407408
0.22626252567
-0.480186454329
-0.290439038011
-0.555502154442
-0.137936308866
0.0181711392791
-0.0145365295698
-0.0395671806572
0.0287026155808
0.34539339174
0.0317559443769
-0.123388153198
-0.00515133080345
0.0102155810222
0.298113759984
-0.0436753671907
0.0089651870573
0.0419173976296
-0.217610129745
0.0
-0.08482609635
-0.00806390172154
0.0262756452908
-0.00256985163273
-0.0770124331898
0.0
0.222603528566
0.0
0.0445989513667
0.0
0.0
0.173325444459
0.0469818814927
-0.0241101773398
-0.1353966291
-0.237749299502
0.0237706043112
0.105543223169
0.0684475958542
0.0166234036317
-0.0449973737901
0.249123492239
0.0625930870908
0.0
0.0895612811102
0.0
0.239002777389
0.117779634055
-0.00959921595121
0.0
-0.237774767095
0.0736061506663
0.0723054918518
0.069517830229
0.0660053333099
0.0
0.00948165205279
-0.152401046753
0.0565946438289
-0.410448551038
0.268655908592
-0.00632801605504
0.071095900236
0.0209415781997
0.235835267279
-0.285361569953
0.0
-0.00536743057329
-0.0678171594255
-0.101713580632
0.0
0.00910668178957
-0.0655741674044
0.0
0.144909031913
-0.0280549363353
0.0
-0.0201276387777
0.0
-0.246379188063
0.192684721083
0.274766743989
-0.237175945766
0.00505949403676
0.0
0.0241570736772
0.11290029113
0.189623051894
0.301692605729
0.0569157131151
-0.0124279309388
-0.225022954648
0.0379514869681
-0.425652180307
0.118696645496
-0.800927176525
0.390128611562
-0.0262099507954
-0.059928894479
0.0
-0.131723340043
0.111229921806
-0.00259215673613
-0.00156071670706
0.122197424273
-0.234444846456
0.221984188032
-0.333535734995
0.285037702381
-0.0151072580634
-0.178315293378
0.0469563527871
-0.0716791400376
0.0
0.225923162077
0.220212446411
0.014363381184
0.0
0.00384374943961
0.0
0.0
0.309241511
-0.122037836954
-0.243198638383
-0.1625414202
-0.113272368951
0.0
0.0578573668909
0.0523484702232
-0.0040559722186
-0.0600217987236
0.069348670105
-0.472263263815
-0.0155576509263
-0.198036346919
-0.653761747884
0.0
0.110177367583
0.118884045774
-0.0651942296526
0.0
0.237969451528
0.0196409497319
0.0230360267338
0.0259734297426
0.142303693215
0.0
-0.0434499631394
0.21670826042
0.16986909796
-0.155865060764
0.112177918726
0.0380038392391
-0.0336098533212
0.0
0.0160217796233
0.0
0.0290345330135
-0.0916780591388
0.00565877218662
0.0
-0.132184785352
0.0198230111347
-0.00517638820055
-0.114457741095
0.0742014931818
-0.00951110706042
-0.0924768788067
-0.0922414919668
-0.149879992005
-0.231851619443
0.219789906069
0.112679744724
0.151626901589
0.198782527932
-0.0613833396255
-0.22693200114
0.250927546601
0.452385660787
0.0
0.0142869886862
-0.327007937483
0.00859755480024
0.00567019887836
0.0497828368426
0.113331953779
0.306943224469
-0.0993618112524
-0.119657897101
0.276748891142
0.290087454243
0.0
-0.077731820606
0.110259093513
-0.127893886496
-0.0754412531347
0.0206455095881
-0.0485281595215
0.0
0.152067498552
-0.260230151109
-0.0994982112094
-0.178250471057
0.0325723754263
0.0
0.160167557072
0.138891324258
-0.188713068357
-0.00786667524131
0.108967402082
-0.0885909331745
0.0232021752482
0.0
0.0518486303714
0.173384641573
-0.243440494822
0.207763408582
0.0642039888456
0.0993155205013
0.249112939723
-0.540211442843
0.00476241730216
-0.0410474050224
-0.0426748599149
-0.0139325615834
0.123373156031
0.0252642967039
-0.0222135311515
0.0
0.0
-0.0487180216105
-0.0814475486615
0.0697265635063
0.294348862445
0.0369469202022
0.024693043475
0.0
0.197365105458
0.086901203156
0.266825836852
0.0
0.0867002570404
-0.149817881215
-0.246936662118
-0.0812984905218
0.14686102236
0.188134588879
0.0816990029185
0.28445692486
0.0743003525064
0.138112848823
-0.101522768241
0.339702399145
0.00800967688081
0.369478407645
-0.102789308957
-0.0633046496721
0.0443022909095
0.190238847951
0.0373091307032
0.0528863533177
0.0234401331022
0.132886646716
0.6520840253
0.0399240712764
-0.0222338263003
0.0
0.0
-0.236894328208
0.0
-0.0298708111765
0.0
0.0
-0.064840487723
-0.298539842633
0.24046623938
0.00345445844485
-0.527450715128
0.369222624122
-0.00825852578403
0.0
0.12444561531
-0.125949526795
0.230410223423
0.0316746001048
0.44203158895
0.0
0.067091466144
-0.0230993713595
0.0
-0.494369893183
0.0642153589948
0.0336833392118
0.316839072407
0.485329915433
0.462473175373
0.0660998369537
-0.10339301594
-0.0487031934725
-0.225061129656
0.225925903272
0.144025273169
0.208096446481
-0.0896560850261
0.221636850435
0.00626533496894
-0.100119507909
-0.0311982821203
0.0
0.0272823338999
0.0
0.18356802822
-0.0296021252052
-0.496109988065
0.159286710716
0.368166604746
-0.126150141389
-0.0143023156531
0.384478521946
0.0125171410018
0.0
0.0406317064393
0.0132175345267
0.139962527996
0.123818659414
0.0
-0.0864656892997
-0.128958311808
-0.268975197487
-0.328692684646
0.0
0.0487392416964
0.344459877408
-0.0409596491597
-0.0211276750184
0.161676745404
-0.0153680127217
0.129014860458
-0.13922478026
-0.0174074984852
-0.00846839655895
-0.0420153091952
0.224898760775
0.201517359734
0.442033789919
0.385232982289
0.0382119556552
-0.214342000009
0.330299790539
0.253179974434
-0.268309061478
0.159787879737
0.0548025920018
0.0
-0.271532306733
-0.0501811680145
-0.0300269640676
0.193082592449
-0.112282910111
0.0476712619766
0.0
0.0972473022824
0.113603171681
0.030626178275
-0.396874843995
0.0257496298357
-0.149153424539
0.10577205585
0.0355330522186
-0.0597879388633
-0.0965426304367
-0.00332118414657
0.0523826527518
-0.0028610765753
0.127405347515
-0.0822906069407
0.0462530730728
-0.0152025380577
0.0
0.0390411587575
0.0158980946178
-0.313468598493
0.210396320859
0.044343632223
0.079985262948
-0.124356863889
-0.0995794668048
0.111041370295
0.0386486787758
0.182969398686
0.0
0.00870781635063
0.0
-0.0213640472138
-0.047235428836
-0.089157992571
-0.0653488033559
-0.146145020793
-0.0757776283237
-0.0430097393428
0.275551877885
-0.00881382592792
-0.125435221166
0.133194176489
0.30795737071
0.0893930882469
0.0460069533152
-0.20975865573
-0.311932632124
0.114940008445
0.00914302567777
0.060074962025
-0.0231456475065
-0.0411758341778
-0.0373863677949
0.0129684911768
-0.0124279309388
-0.114994049564
0.0647448015822
0.167464971205
0.0
0.053688518008
0.0
0.0
-0.000906592420208
0.312494282091
0.0973288821152
0.366472828279
0.482442038992
-0.0105285083582
-0.0199463796747
0.130949956582
0.106307666143
-0.195965795417
-0.0768318864097
0.25436437635
-0.18296045003
-0.0699008411991
-0.172098432745
0.00645593681586
0.170749173521
-0.0129335856821
0.471629267942
-0.0515122430037
-0.0367571895301
0.0781923557352
0.125649294817
-0.124468699804
-0.22941341883
0.000285513561438
0.100956028591
-0.0547226956582
-0.0518179469994
0.0
0.316165309424
0.224713357444
-0.414229965344
-0.0786656967603
-0.065720707277
-0.0462524263847
0.0539181155228
0.0392325740998
-0.0843952268196
0.296316343858
-0.0936853189326
0.0
-0.03700814121
0.129920713225
-0.157337608252
0.121598351749
0.133604300571
-0.0805513812976
-0.0688480327214
-0.0535352789655
0.117960394307
0.0911149040144
-0.0210603718172
0.0586142109176
0.126659310146
0.0
-0.252833067611
0.0423308643042
0.336473831142
0.0589539875959
0.327702719686
0.0
0.0360105839836
0.0
0.0
0.0201959255957
-0.00136248967593
-0.0722685817296
0.0166989181883
0.229269360024
0.0404125738657
0.1385205203
0.14308788275
0.0
-0.327850995818
-0.141882746557
0.0
-0.0181084232456
0.162783541979
0.294185040352
0.00949171771921
0.139278824868
-0.0114976748308
0.012104520213
0.260341631849
-0.237230559793
0.216776157246
-0.11939774747
-0.0257467138759
-0.424939897621
0.132800064134
0.0330541910543
-0.000777409469878
0.0
0.00900096879716
0.156225507022
0.0382060322716
0.0340300956117
-0.263491353953
0.00607998315973
0.205817655837
-0.301604360403
-0.0660309615128
0.116047391811
-0.0779918506984
-0.152007952186
-0.027119580162
-0.0455174782668
-0.106644236902
0.0159849489651
0.0357918094096
0.00258889106595
0.117578113254
0.229376088364
0.0490630815435
0.0
-0.0814028029589
0.13775546834
-0.0398343841776
-0.217359257559
-0.0854662745295
-0.0899561255644
-0.0854634979377
0.0
-0.00518318038181
0.0
0.125232492827
-0.232831704844
0.340054464569
0.383611741424
0.0140326643775
-0.116865558994
-0.0192158925555
0.0
-0.10689146281
0.0
0.206052300921
0.0762927816675
0.541633292536
0.0786992855013
0.211238287923
-0.0579637864023
0.0575780463731
0.0691305265962
0.581483311091
0.0
0.0744894071237
0.0353483946524
0.00282071298944
-0.0424262741893
0.00592747608001
-0.011480994051
0.00193402485577
0.0
0.0487392416964
-0.0918019797909
0.0196558818141
-0.0412017938548
0.0
0.0
0.116926904463
-0.0260479275557
0.0316049233831
-0.0730494337096
0.0
0.0284134966042
0.0
-0.0384960433901
0.11614241103
-0.0354213714537
-0.0215658503788
0.00226118462277
0.0584477486677
-0.0155002068316
0.0625429514753
0.0685295634848
-0.0720413721618
-0.149238955436
0.0272823338999
0.208438685134
0.0
0.0185571056138
0.0158091716943
0.24179044063
0.0
-0.0129396269681
0.0
0.358987456235
0.0
0.101587775777
-0.0375646582502
0.0
-0.0842967057683
0.0
-0.100092161642
0.00648108866434
0.350636104325
-0.0452346478143
-0.0591712418722
-0.0580237115027
-0.181567779108
0.136065889269
-0.0769851033466
0.059199210366
-0.0210367800036
0.142269352929
-0.32414605715
-0.135541137394
-0.00515133080345
-0.226675758287
0.0309890159457
0.249706208759
-0.147440624881
0.0
-0.0441167838431
0.277563338844
0.216076125582
0.0
0.0288454969235
0.0
0.0596479725753
0.0895737075398
0.13276616073
0.0329794355169
0.0260880683289
-0.0583545876842
0.146409121614
0.0984243782438
0.434560003141
0.0533489720821
0.097817376323
0.00562641017841
0.001531925177
-0.277675569506
0.0992385411159
-0.0274204390848
-0.0838039532538
0.000427535665767
-0.44206031367
0.0207709668751
-0.0385634873726
-0.0532968784379
0.0
0.180514766856
0.456482127539
-0.0737084727917
0.225379425178
0.122467786959
-0.088509579344
0.159570431227
0.0487706594972
-0.231851375221
0.00235828052633
-0.133298262723
-0.122698089343
-0.214294440184
-0.0375646582502
-0.404220643
0.0201837914317
-0.0270497206313
0.471151651243
-0.337585852299
-0.0535651706816
0.0
0.0411903387738
0.0218329289282
0.0671020968603
0.0983041767188
-0.0806898963614
-0.035241127202
0.0454619920146
-0.0289429144306
0.027529832459
-0.146665952978
0.122622869111
-0.0790613919167
-0.0163658157769
-0.114644181541
0.219826415604
0.0
-0.062946537938
-0.00838917341937
0.0308260052331
-0.00925473311262
0.355979325699
0.016884872331
0.00389748744299
0.0
0.0
0.0
-0.0254390708734
0.285344719912
0.166658660537
0.0670245631999
0.238505507145
-0.411346390636
-0.0826713607461
0.129113119757
0.0
-0.131782420889
-0.0322739899548
0.0
-0.0308296541797
0.0549130442533
0.0777903384681
0.048682608084
0.00557002409209
0.0866228031482
0.0487392416964
-0.133813223634
0.250433415817
0.0274996403768
0.0189600177236
0.0
0.212234217
0.0015204182114
0.0
-0.0417146992485
-0.0919909230281
0.0416921166091
-0.0890610901727
0.0122125069832
0.0
-0.0248845847957
-0.107949963044
-0.0105751593277
0.0104025697241
0.192446284518
0.117108449617
0.0
0.00407452032815
-0.109795095824
0.310290601057
0.0282007208203
0.0199249635143
0.171644180658
0.0152376803326
0.395804014881
0.0545167823933
0.138756642205
0.0
-0.036532882629
-0.00866553732148
0.012621181649
0.262506509348
0.111045396028
-0.141440550717
0.319256825068
-0.365193972734
-0.0264058200209
-0.0560116488276
-0.0184236616298
-0.110751487984
0.0
0.0736177586089
-0.0939566851923
0.0163973061554
0.036801629966
0.0717645603982
0.0728685895679
-0.0724785743556
0.110270326504
-0.123552706607
0.0671020968603
0.0
-0.00271713666591
0.0290118699675
-0.178695267876
-0.0317194402368
0.0927503167457
0.0901740723735
-0.195404159239
0.0
-0.0148973140463
0.0
-0.154050897479
0.00719277142805
0.0638478767626
-0.0430582284756
0.0
0.0245207773069
0.0169327475791
0.00559164779175
0.169378890786
0.12001080115
0.00558238688772
0.0819816057775
-0.0659308558339
0.242155240834
0.014567318995
0.0856591970081
-0.150781056424
0.0671020968603
0.066813082568
-0.0038105587205
0.0127384744945
0.0338496791804
0.0
0.079690422711
-0.0558300361665
-0.0862352834645
0.0
-0.00509942513357
0.0121347602729
0.380986302793
0.0
0.0
0.393352948979
-0.276247826695
-0.0178397562343
-0.12786552989
0.0405712023475
-0.0364766060579
-0.065720707277
0.0547718481521
0.0
0.00290792220166
0.0883161460602
0.0
-0.0903464842859
-0.0375239207512
-0.368545261913
0.0
0.0
0.0268132519673
0.0381937152327
0.0
0.0
-5.07999444094e-05
0.0479924312623
0.00899184248653
0.0127384744945
-0.0256851823503
0.0206455095881
0.0338045416711
0.00426681011156
0.0346044406934
-0.121796777662
0.0
0.023986316659
-0.0427617638242
-0.00407423885035
0.00757738240011
0.125497981874
-0.0742770065577
-0.0306492710468
-0.0211276750184
0.0241938615461
0.0
0.0739124069618
0.064695237178
-0.228975135974
0.0745653920349
0.0
-0.0285648508664
-0.0108918772328
0.0671020968603
-0.0255122081229
0.0
0.0481630806343
0.0388869430658
0.00962662086202
-0.0215554869335
0.000586801655093
0.0324237802134
0.118745509314
-0.038970572652
0.0844952549588
-0.00602355554889
-4.44218423408e-05
-0.0503569756561
0.0600794585615
0.0288454969235
-0.0339354991533
-0.138212316965
0.0
0.00416836463544
0.0121948110764
-0.241654139689
0.0195769882901
-0.120324573641
-0.0652003225837
0.0386177591411
0.115477476301
0.0
0.0
-0.16095283598
-0.0649192986332
0.0457383169186
0.0
0.268132596632
0.00041302968253
-0.114713415907
0.100686875972
0.557453634368
-0.190267810574
-0.176056716747
0.0212360664194
0.0670758121316
0.0685490869434
0.00951481797937
0.134870393556
0.0408503834801
0.00970298499863
-0.0887522261516
-0.0261468066169
0.0420384718586
-0.029234761642
-0.0361196271159
0.0
0.0628556997931
0.00719277142805
-0.0359614282453
-0.0538623710788
0.0
0.24320030647
0.232769289087
0.0817355941976
-0.174183135042
0.0473838746906
-0.065720707277
0.0
0.332107486443
0.0272823338999
0.0556913927902
-0.00285433473857
0.360746018952
0.0259734297426
-0.053680974365
-0.146953928191
0.0595753236393
0.0266280446667
-0.00176567552849
0.0
0.0
0.0
-0.238012319374
0.0
-0.0184134952471
-0.175031927633
-0.180458545362
-0.158453671896
0.0
0.0545167823933
0.0021928625025
-0.228944056005
-0.00331184499027
0.123436048562
-0.0346723826196
-0.350227632195
-0.239397715524
0.0882132383872
0.04307135554
-0.122412144148
0.416192555458
-0.094976788863
0.0212360664194
0.154906664044
-0.0720401548468
0.0
0.0117835935972
-0.126163382129
-0.00533353767479
0.0
0.074692154253
0.0287220247004
5.12328799096e-05
0.0
-0.104772986254
0.0
-0.00014017056456
0.0
0.0
0.00250181082522
0.0
0.0
-0.0262743964587
0.0
-0.0663059566465
-0.0336887947227
-0.0144504090158
0.13481332093
0.0
0.19838661413
-0.297684748767
0.0284430501997
0.0925310977375
0.0
0.0268675595365
0.0407681469881
-0.0162283387345
-0.0162283387345
0.0
-0.188408919224
-0.108714477989
0.0
-0.15469903694
0.0
-0.0440560837807
0.000748889453309
-0.00774404806154
-0.0616146408834
-0.390607639771
-0.204378926445
0.00769602322951
-0.0461838063462
0.0106286250914
0.130488236534
0.0241426286662
0.0
0.0
0.0
0.189000855773
0.070576671393
0.0
-0.180181830486
0.126569624859
0.0642647787704
0.0713797471953
0.358296392117
0.00292997287577
0.0
0.0777570726626
0.00529738154987
0.0
-0.0224794661945
0.134148580524
-0.0478102429776
0.186840991601
0.0240659842483
-0.0224879942026
0.0
0.0
0.0
0.0413717116212
0.062162782807
-0.0751043176288
0.047273566452
-0.073084893959
-0.0449973737901
0.0
0.0
0.0
0.0
0.0
0.0
0.0332874882685
-0.0231670614241
0.0383249377939
0.19294579554
0.0216650250358
-5.77232153238e-05
0.0
-0.133598369174
0.0
-0.0606849712717
-0.0556873015785
0.0031001373871
0.0612968648779
-0.00502077345693
0.0
0.0
0.135493596695
-0.0194896773799
0.0156059020234
0.14059942914
0.0
0.0148818651744
0.00180549658182
0.0
-0.00532063929028
0.0
0.00983875892247
0.0
0.0765975980009
0.0
0.121192808043
0.035989057403
0.217068351267
0.0597499745535
0.0
0.0293145930524
0.0619200762993
0.000489480432892
-0.0181666072624
0.0507166412508
0.144993830942
0.112794538026
0.0268675595365
-0.0830225865855
-0.0336887947227
0.0
-0.0422333739094
0.0545167823933
0.0
0.0777570726626
0.0
-0.0186249966758
0.0
0.0
-0.00511379901556
0.138270464022
0.0645977890562
0.0212360664194
-0.0249871930531
0.0
0.0
0.0
-0.109108395313
0.099875653359
0.0
0.0228173101502
0.0935821393078
-0.0224501830799
0.0399890051329
0.0252227602087
0.0
0.0398317113385
0.0
0.0743853441371
0.0194343113726
0.050114998433
0.0
0.0741022866791
0.0
0.0
0.0
0.0
0.0
-0.0407574033601
0.0316709928538
0.0152656852569
-0.0650940217004
0.0
0.0429601867356
0.176461739239
0.0861884664457
0.0450822889835
-0.0773192013768
0.0
-0.120125163141
0.000905116371153
-0.01382413013
-0.0139316995879
-0.0263168032339
0.0121507760273
0.0708186138199
0.404678947263
0.0603111070243
0.0522646149449
0.0
-0.283968102777
-0.0194838848007
-0.124654675938
0.00921318058894
0.00806585207843
-0.0335006068162
0.173021974741
0.00482842963771
0.00389748744299
0.00938391739049
0.249506351731
0.183634188083
-0.0433772199104
0.160333308232
-0.331192463058
-0.164305804972
0.0
0.11717159358
-0.0971105767655
0.0
-0.0687115025862
0.421298213841
0.0
0.0
0.032807367981
0.0
0.0
0.158339004418
-0.0945154939994
-0.0699554864335
0.0
0.0
0.0
-9.06176677448e-05
0.14683943474
-9.10254692678e-05
0.0
0.0031001373871
0.0995128682663
0.444874249729
0.0272823338999
0.0
0.0
0.0846281040232
-0.064680330257
-0.0445562280145
0.41699542675
0.113578312747
0.0283941943222
-0.0159323767239
-0.0842224152718
-0.0396871694107
0.0706079052215
0.0627689679215
0.00850967473908
0.0440577259259
0.0
-0.192291373384
0.0
0.0547037981331
0.0256906858209
-0.112061111526
-0.13677270816
0.0
0.0
0.144851180587
-0.00188196171695
-0.0554571885896
-0.137101260168
0.404047458633
0.0282310109005
0.0
0.633080893655
0.168684686819
0.00779763949346
0.249800594185
-0.0520133483191
-0.068282446629
0.0
-0.00134069130895
-0.0143566468696
0.0953379055428
0.153486579629
-0.0139705530403
0.143695994774
-0.0430229008062
0.0208526172207
0.0
0.0
-0.0192132443116
0.181112852113
0.0
0.0120289063938
0.0664684392652
-0.703798120575
0.0464884693246
0.0
0.0245425230831
-0.0895314357079
0.0928537349386
0.0
-0.00473409630377
0.029243139556
0.0355625328093
0.0
0.00380646197372
0.0
-0.0802000922237
-0.168038649359
-0.0316927164832
0.0
0.129463570653
-0.0875549071846
0.0940505461972
0.0319611508075
-0.019839541635
0.0430594398702
0.00152812565566
-0.119285435016
0.0
0.0163479833217
-0.0602925193874
-0.0453382948735
0.096697761992
-0.156737555798
0.0
-0.063003192561
0.0
-0.117351834633
-0.208897393532
-0.0418300880445
-0.0455446051691
0.0
-0.0681130849057
0.00203936020264
0.0362024850482
-0.145849714955
-0.00752161297582
0.0
0.0272823338999
0.0917429942014
0.00938391739049
0.0307699309776
0.0820699900023
0.0
-0.30137676851
-0.0275890186682
0.0
0.00261886783175
0.00600515436861
0.0025208904792
0.132038909372
0.0643716428973
0.0635248158792
0.082217778649
0.0872325270616
-0.0102620797856
0.170548215193
-0.184194910196
-0.140308966808
0.0136920797891
0.107234303863
-0.0635266735081
-0.00188642302778
-0.0248758671807
-0.177018226516
-0.135263421687
0.0176881974473
0.0915603619874
0.166629629199
0.0
0.0269279903735
0.0
0.0227576752488
0.0926865794507
0.036319525908
-0.457704358098
-0.198963607795
0.036319525908
-0.120968314529
0.0937074146815
-0.0865503003833
0.0335063549198
0.0313832143023
0.0
0.036319525908
0.106313745843
0.0575844652849
0.0219153778458
-0.105907956358
0.029473215083
0.036319525908
0.128636054144
0.0563344145026
-0.0107810802445
0.0
0.124536890203
0.0
-0.0391371081897
-0.0113218902103
0.0
-0.152022631604
-0.0825171714842
0.00235768206604
0.0
0.0572117403345
0.0732058174429
-0.0714237804329
0.148278680971
0.000833299628164
0.0
0.036319525908
-0.0464277584792
0.593996483348
0.0407681469881
-0.0966477724134
0.247175486809
-0.37382362047
0.0
0.0772982481058
0.0671020968603
0.237363013786
0.0329403377315
0.0109841007559
0.100596338513
0.0620504076372
-0.00257403317305
-0.0250750024299
0.0368536395609
0.0
-0.198927909125
-0.0306993668054
0.0109051214951
0.0
0.262257463374
0.133387177443
-0.0913342135737
-0.0496192516944
0.232291592877
0.0
-0.0936981463603
0.0771518255291
-0.0330535538232
0.0207709668751
-0.0908431950655
-0.191642582206
-0.00151283905575
-0.183534578316
0.0739693547215
-0.0760663610097
-0.00235032981911
0.0208312391532
0.036319525908
0.036319525908
-0.0394423919653
0.352357782579
0.0272189325111
0.159435089634
-0.0411227901691
0.0915241488182
-0.00955811924638
-0.0421473570397
0.03131935785
-0.0405625210694
0.0593587732034
-0.269513251497
-0.029940366204
-0.00163042907562
0.0
0.0
0.158616260264
0.0
0.0528840746899
0.150396954588
-0.00284954341721
0.197697968136
-0.017048194923
0.0312954908886
0.0333519655042
-0.314034045789
-0.00743777543897
0.268921855639
-0.0386263099564
-0.0255297698611
-0.103179355458
0.0
0.00545715398121
-0.573884777824
-0.308608163658
-0.034998365876
0.152016438571
-0.0391866197731
0.229463075013
0.00665692332153
0.0774792453992
0.0646504929965
-0.0218484781339
0.062379835748
0.27389284218
0.270856347592
-0.168510016234
0.0
0.118918277815
0.0121507760273
0.0
-0.316196508673
-0.1253842819
-0.238262161077
-0.108827877391
0.0179138931612
-0.0255758990454
0.493651166261
0.0485890666412
0.023715391493
0.0203546840418
0.0
-0.0228358291931
-0.015941682633
0.03686818282
0.0
0.00704213861395
0.118364083552
-0.104827420128
0.181691692609
-0.0541046305921
0.125909012048
-0.125598366317
-0.0152396826875
0.0
-0.105024293951
0.0331306297967
-0.000576504002185
0.0
0.348613728896
-0.0505009723184
0.0917003126789
0.0
0.0404106587258
-0.0262201294801
0.0977756281947
0.0
0.0794061969871
0.0572675056863
-0.510604323383
-0.0933023220209
0.157227779898
0.0
0.0
0.0360208789621
0.0
0.0395656452384
0.0447938265345
0.0775909117789
-0.268662309281
-0.0209731576462
0.00574011483373
0.0137911546949
0.0601265408739
0.00161190907172
0.076988667576
0.134248984606
0.0
0.00113792355528
0.0
-0.0262099507954
0.105089531271
0.000681484273281
0.0673388341392
0.0
0.0485741356106
-0.0149936552555
0.176079065771
0.0
-0.11700889794
-0.026980075204
0.299249386822
-0.441099019594
0.0487963792944
0.109092152091
0.0232610999502
-0.101548157528
0.0
0.0259734297426
0.0902373583101
0.134881942465
-0.135156409628
-0.156371975813
0.115573691455
0.0299802795
-0.0943251711463
0.445368074701
0.0
0.0316936474671
0.222860985749
0.0
-0.0478326726452
0.0
-0.064802282263
0.0
0.0
0.0
0.0
0.0
0.0810798992055
-0.0871931299582
0.0
0.127595883559
0.0
-0.0333203372489
0.0
0.0171896333737
0.0
-0.221780513332
0.115358563407
0.0
0.0828404214306
0.0692973112265
-0.171686496461
0.0792481621609
0.2587093523
0.0328551321614
0.165721471276
-0.0415754238781
0.0299802795
0.100473494951
0.0
-0.017048194923
0.0450779384887
0.0
0.0
-0.0493232061454
0.0142217814132
0.0051778163205
-0.0396871694107
0.0
0.00222966403344
0.0
0.0
0.134227813944
-0.0747717971658
-0.0268146109653
0.0257391803238
-0.129819960986
0.0
0.0443215650183
-0.0388612707506
-0.183949766529
-0.00721585841122
-0.00624899500106
-0.057692297028
0.0246977140233
0.150602981727
0.0487392416964
-0.0415520568422
0.0
-0.0769192554018
0.0
-0.0804638062845
-0.0108543220971
0.0
0.0
0.0511900059237
0.0
-0.0856739306766
-0.00740713898376
0.0331306297967
0.0
0.0
-0.141466256868
-0.03226364465
0.0562252663921
0.0849352179743
-0.140811109586
0.0135603611253
-0.0451591572141
0.176188705785
-0.268379058791
0.0
0.0
-0.0100558608902
0.0218286514299
0.0
-0.0817468494135
-0.199332194864
0.105613596759
0.100065958456
-0.0888222382056
0.0487392416964
0.0
0.0959119937934
-0.000841452013263
0.000466044976598
0.0244640773276
0.179642130168
-0.0134365307114
0.0688431799483
-0.0640409969071
0.0
0.0
0.0
-0.0107155483245
0.00557002409209
0.0
0.102039291517
0.160674907566
0.0
0.0
0.0
0.0
0.0
-0.0266339388561
0.0
0.0
0.0
-0.0706488331844
0.0
0.0
0.0
-0.0617379209945
-0.0719434103983
-0.0617036667348
0.0291484569378
0.0
0.0804832011597
0.0777570726626
-0.0373623041827
0.198586050102
0.0
-0.075856111663
0.0
-0.0420153091952
-0.178144461798
-0.0998397616383
0.0
-0.0580673095599
0.0
0.0420159629627
0.0
0.0780191673798
0.0938694813115
-0.0452236298889
-0.0695011538633
0.171845921612
0.0
0.05134787131
0.0
0.0
0.0
0.0339603868435
0.0
0.170963017886
-0.0456186182931
0.25001428261
0.0703058798629
-0.127430091039
-0.184214097488
0.0389784921558
-0.122771244157
0.0
0.0113706955337
-0.0184134952471
-0.0179097571249
-0.0361321472524
0.0
0.0
-0.0308296541797
0.00361906852338
0.0
0.396985306525
0.191278537883
0.0
0.0536103649195
-0.121834073003
-0.371043042789
0.0
-0.0215231773326
-0.065720707277
0.0
0.0
-0.349291520692
0.111973911261
-0.0336238753599
0.0
-0.0682783188404
-0.0242537739528
-0.065720707277
-0.0783721844788
0.0
0.0
0.0497854329643
-0.0256851823503
-0.0256851823503
0.131338222805
-0.0294735270773
0.185676642257
0.0
0.00626533496894
-0.00535253113211
-0.159112675499
-0.065720707277
-0.0322421250968
-0.0364354921836
0.211814497179
0.169505918081
-0.32945014845
-0.035501688915
0.0395676534211
0.0
-0.0101822536384
0.0
0.0317233612172
0.055350813691
0.106204782289
-0.0730470703993
-0.0448688632128
-0.190508972297
-0.00971476782441
-0.0553001454474
0.133399133835
0.0241426286662
-0.0102339544481
0.0386177591411
-0.438135941636
0.126965091803
-0.0553834253597
0.0583394602859
0.0246238652277
-0.153552282874
-0.0116521062468
0.0388869430658
-0.0302610272004
-0.0686604781928
-0.0280312185976
0.0
-0.0333203372489
-0.252513586749
0.0
-0.0591261512214
-0.0184134952471
0.0
-0.0036319473916
0.0856139493855
0.0996202357122
0.0229819760643
-0.075471631628
-0.0333331686842
0.0
0.20962074911
-0.34426853521
-0.0876000325458
0.00677592913282
-0.0840725190255
-0.061646023513
0.0
0.0
0.0
-0.0574990647667
0.0
0.106269237188
-0.0747614631679
0.0
0.0
-0.0431477785983
0.548771824813
0.0
-0.282607323241
0.0
0.0
0.0
0.0328081362986
0.0
0.0
0.0
-0.0521791707395
0.015777046085
0.251631565763
0.0500376101772
0.0307325561949
0.0660800492346
0.270901675596
0.136511469202
0.0
0.169780997923
-0.133882246837
0.0127384744945
-0.0551832559605
-0.0673035504111
-0.072721183639
0.00389748744299
0.0505989271153
0.0203882712297
-0.208184026089
0.0833948975555
0.1739502566
-0.0138337451331
0.0
-0.018164319774
-0.0647962437487
0.0
0.0
0.0
0.0
0.105580558145
0.194980698236
0.0
0.0285243738789
-0.259634349021
-0.027406460177
9.46826181881e-05
-0.054101689781
0.0216278236276
0.0
-0.0378885106802
-0.0300875622426
0.0
0.0177754910605
0.0330650326829
0.281039288404
0.177118713318
0.0622393449239
-0.0539717679657
0.064054676159
-0.160672901417
-0.212225616141
-0.0116553950355
-0.0911878594894
-0.0494217563821
0.0103207666169
0.0
0.0372640482449
-0.0780538543282
-0.0201276387777
-0.188204942462
0.0625524697458
0.0
-0.117099688687
-0.0138072414842
0.0
-0.00360582667338
0.0583394602859
0.0
0.0
0.0
0.0330056016403
-0.0879382423642
0.0958930208244
0.106674101069
0.0124374674256
0.0
-0.0706913974618
-0.0469664894535
0.0614926746759
-0.0259585400613
0.154229337006
0.0
0.0
0.00311560363068
-0.00646583175827
-0.013466020209
-0.0788021560455
0.0
0.146857890184
0.0536698570877
0.0518299855145
-0.00285991443079
0.0940947345584
0.0
0.0193902622433
0.00363502838639
-0.0432183698283
0.0196404719697
-0.0263325989701
0.0784099950961
-0.109979484789
0.0203421173035
0.101051029704
0.111195248563
-0.0691801939427
0.146500332306
-0.0411289017535
0.0
-0.0627653481518
0.0514237882721
-0.390373812894
-0.055752653987
0.418194254808
-0.199901150451
0.0
-0.190976541394
0.0
0.0
-0.0276591030096
0.0674321870218
-0.0433649981569
0.0
0.0631370122754
-0.00842913646477
-0.00842913646477
-0.0243104082812
0.145986509665
0.0170540086988
0.0
0.0
0.0
0.0
0.0492503555703
0.00311560363068
-0.0538141653342
0.0207709668751
0.0355104932898
0.0
0.0
-0.0291403853556
-0.243981648593
0.082788103078
-0.000613792805464
0.0
0.0423172297601
0.140214904579
-0.0155916616525
-0.035737016943
0.0324319872299
-0.0217883017372
0.00144582831826
-0.0308422585602
0.000402613042494
0.0299802795
0.0
-0.00213988399531
-0.0213640472138
0.0
-0.0212678042702
-0.10487990896
0.0
0.0
0.0
0.0882132383872
-0.083147534372
0.0
-0.338421644312
-0.0247766138786
0.0
0.0
0.167779327428
0.0
-0.148492971747
-0.0058092133805
0.0
0.0
-0.0637410776046
0.140833868337
-0.0336555365301
-0.109985048252
0.0
-0.085561218502
-0.0209936165463
0.0689371398661
0.0734623431382
0.0
0.0
-0.0651630550099
0.0103399279681
0.0795037708505
-0.00365777422988
0.119304776168
0.104706327573
0.0385964003659
-0.0419776317271
0.0622581918964
0.0291315864123
0.00389748744299
-0.00586880476065
0.0
0.0217863984424
0.0169454273367
0.0
0.0613481069374
0.0
0.0
-0.0133645536013
0.0265850073287
0.0696631713615
-0.3196782813
0.0
0.00298557769065
0.0
0.2517296167
-0.0375563803566
-6.82919654619e-05
0.0339406505201
0.00827388779251
0.0133279911506
-0.0866147383859
0.0
0.0
-0.0257707836995
0.00361448363388
0.0
0.0730619128078
0.0
-0.112219003576
0.0
0.0349612756732
0.256653197276
0.00681091266499
0.0494704065604
0.00693566778044
0.0367078504368
0.267068582481
0.0
0.0153057674287
0.0132435968403
-0.0100617290492
-0.000171144061578
-0.0398583134723
0.0218519444525
0.00916017984445
0.0
-0.015622490137
0.0471025376369
0.0
0.021866314561
0.128208861165
0.0
-0.0113223316724
-0.0845505859847
0.0
0.00311560363068
0.0901905776744
-0.266400442427
0.0367078504368
-0.0104765897028
0.0666119530393
-0.264528391551
-0.0661707552445
-0.0274798515658
-0.0233164273929
0.0
0.0
0.0
-0.158418239889
0.19747531447
0.0130029910189
0.0
0.0329201664897
-0.129508048787
-0.035168638749
0.0
0.0
0.0
-0.2135933058
-0.0308296541797
0.0847865926657
0.115762362945
0.0
0.0
-0.31020356609
0.0
-0.169014352921
0.00936499983582
-0.0305782307288
0.0742443132758
0.0450087351639
0.149028080534
0.181987627673
0.0132575661025
-0.022251933931
0.0
0.0
0.0937151022041
0.0120274283832
0.159491908596
0.148230691299
-0.0238167776077
-0.401828471183
-0.0762517761795
0.0
-0.067552098439
0.00557002409209
0.261039190644
0.0344952738765
0.114278188829
0.170609876256
0.177057823436
-0.0580357612675
0.0
-0.197425698752
-0.065645912718
0.0
0.00698464425137
-0.073067531491
0.0363715566369
0.194591975523
0.233458315156
0.0109051214951
-0.144259302827
-0.221276081502
-0.397766076056
-0.026980075204
-0.138434414919
0.0
-0.00226128678452
0.0917618883598
0.0659847671399
0.0834321300492
-0.0282062393049
0.0716673696946
-0.118092203762
-0.0352525773964
0.0
-0.0116521062468
0.0199155242075
-0.0473502314395
0.0134257538645
-0.0181385804833
-0.144854593954
0.0749139081797
-0.00460520097463
-0.0173764500066
0.0
-0.137713737053
0.0343715670852
-0.0282478602193
-0.0239552385608
-0.118514965792
0.0
0.0673296950576
0.0221843350478
-0.0256513381876
0.00599315802985
-0.000576504002185
0.0447088456471
0.0121702307494
0.0291344611659
-0.0546601413616
0.00311560363068
-0.173320462846
0.159037943995
0.162146509555
0.0234165693501
-0.0721632861618
0.0904658628532
0.117908565714
0.0
0.0
0.0
0.0855558677357
0.0
-0.0926235064215
-0.0290047598563
0.0956817191106
0.037501941879
0.294281775021
-0.00224179248158
0.0129268143811
0.0503698074062
-0.0302125169285
0.0
0.0
-0.0418244081017
0.169562254752
-0.070136859205
0.0
0.00290792220166
0.00379356547099
-0.0468382994641
-0.0545826147326
0.0
0.0
0.0
0.0732867474964
0.0558602923467
-0.0402306176256
0.0486662890697
-0.0290834246548
0.0865006828825
-0.00882997413475
-0.0590332151637
-0.00947927164707
0.0
-0.0782116373997
-0.00939471794774
-0.137666500863
-0.0563369598533
0.0858537212244
0.0
-0.0330320661797
0.0288454969235
0.256802717781
0.242375285253
0.0
0.0676157259874
-0.0449376884731
0.000614814958684
-0.0441853047925
0.341395766459
-0.00665597539858
0.100681293063
0.0
0.0517793503187
0.0710923976411
-0.186171114816
0.0565089645419
0.0
0.12538146806
0.0336753568482
-0.15244218028
-0.0201276387777
0.0
0.0999770538952
-0.0521358572498
0.0852929375868
0.0989078077471
0.030304233815
0.0
0.0334651911694
0.0
-0.0139705530403
0.0456053397768
0.0549460545276
0.039854833549
0.0236508416924
0.187648679426
-0.0305782307288
0.0530118984192
-0.0473250272482
0.0
0.0
-0.384051273099
-0.0594231653618
0.117702144565
-0.0348151434112
0.0680369302695
0.0936737083144
0.126000860867
0.0716112247791
-0.0468016950183
0.138358581594
0.0306874822524
0.123316166945
0.0
0.0306149628701
0.0233370824079
0.0
0.0
0.109338506107
0.0
0.0398317113385
-0.00689626379351
-0.0875271354562
0.0
0.416970546072
0.0
0.00948165205279
0.0
0.334132305174
0.0
0.0549631084229
0.0605877801348
-0.0181157546963
0.0
0.114643231677
0.0171521990968
-0.0535098462344
0.0690639612102
-0.00302102244819
-0.306970809404
0.0
0.0
0.0386503656148
0.00555971368522
0.282554539115
0.210400465975
-0.0171258571048
0.0
0.0816345865077
0.0
0.00954676555032
-0.0731503785316
0.0398366689454
0.0393722412901
0.0445714292957
0.278258374299
0.0301450395051
-0.0139247156661
0.0
0.304838753568
-0.123974366862
0.0388971685791
0.0251069511127
0.0864911486385
0.0
-0.0136794716959
0.0119355877067
0.324512570966
0.230851651776
0.152284601062
0.0
0.0403930574581
0.507230018004
-0.0128668522574
0.248351653449
-0.210812306662
-0.0124279309388
-0.0137325691566
-0.0129458038719
0.115586732242
0.00626533496894
0.0354020798707
-0.10032569705
0.0
0.0889818634773
-0.0101339147774
0.0
-0.0452236298889
-0.0181057736943
-0.000937574066312
0.0108289536596
0.0
0.0909035410348
0.0
0.000682557740889
0.0
0.0
0.00695808034875
0.0052715645406
0.017299071538
-0.132391434162
0.0
-0.0332949713301
-0.0840861009769
0.0670758121316
0.0991461450172
0.0991461450172
0.0
0.0342015659376
0.167905799322
0.0
-0.0323533101667
-0.0531663644003
0.0
-0.000171144061578
0.0
-0.10700626305
0.0
0.0916599629728
0.0812607463847
0.0670758121316
0.000471675332314
0.128500805567
0.0825220971328
0.0363646766483
0.0
-0.034515156485
0.0836888199651
0.0
0.227550495026
0.0250497132045
0.113172062354
0.0676626137867
0.213461426144
-0.0194616417897
0.0781595857261
-0.0324945457501
0.209287628177
-0.0333253540962
-0.0684443690997
-0.208717541547
0.0496721297849
0.0
0.0858537212244
0.086862086132
0.0687450080303
0.0147667226409
0.211145585215
0.0
0.0
0.0
-0.00153561049276
-0.0670927691168
0.0523913867461
-0.0103563161123
0.0327249672882
-0.201625564864
-0.039700139067
-0.0308296541797
0.0
0.147964788958
0.259309562148
0.319781003547
0.0
0.00600641035336
0.0
-0.0350616241675
-0.125625847345
0.0765263985374
0.018615205118
0.210000286932
-0.192905259254
-0.0507983260142
0.0031001373871
-0.0117062757237
-0.0329276465433
-0.0130650305587
0.0
0.0
0.0356518549469
0.394980110714
0.0162118340871
-0.0449973737901
0.065428270808
0.226560469398
0.0787640420778
-0.0462184798874
-0.306214372581
0.0147203902332
-0.013577157622
0.243253279943
0.0241426286662
0.0343860087073
-0.0151567465231
-0.152754491927
-0.0688336785652
0.0218409480085
-0.15699764512
0.00416836463544
-0.0506066960262
0.0
-0.169072082252
-0.189890107688
0.0
-0.0664720370399
0.00791171744634
0.0239838727768
-0.051924091242
-0.00487121937554
0.0155803305601
-0.00811159511821
0.0
0.0
0.0331047939397
-0.170659644374
-0.118754023233
-0.212893884395
-0.0974721229557
-0.0441106238735
0.09815459114
-0.0404552178834
-0.0785667744234
-0.0596765097458
0.0
0.0
0.0
0.0
0.0
0.0731299788925
0.0191961776335
0.0923199724922
0.0
-0.107239596349
0.0
0.250942767374
-0.0321706990141
-0.0715848889108
0.0865511524515
-0.00451283049827
0.0
-0.36056433697
-0.0655421190211
-0.0043514089114
0.0
-0.0190239440476
0.0688754052291
0.0137911546949
0.0534375545907
0.0
0.155618401942
-0.00986148673738
0.0322241183209
-0.00602691500697
0.032421666948
0.0
0.0
0.0242549792208
-0.0262743964587
0.0
0.0
-0.0166424144711
0.0
0.00551519109517
0.0210079493922
0.049032987262
-0.00900003758113
-0.00842913646477
-0.181355533524
0.0565980049671
-0.0100818733115
0.104877402071
0.181922551024
-0.00706875499659
-0.0982923809298
-0.0146429338493
0.171950754928
-0.212794524522
-0.103551425505
-0.092718751401
-0.427414845229
0.0
0.0
0.0740682242534
0.0633499329643
-0.0547191366002
0.0777570726626
-0.0296862246326
-0.011615828778
-0.302290398722
0.0
-0.131788658896
0.0
-0.036532882629
0.00191845567369
0.0772399155835
-0.129688486289
0.00462826304276
0.0647041143512
-0.0911650045652
0.0176523300764
0.231436125664
-0.0259520967237
0.0
0.128065524161
-0.0487876813713
-0.00100420406508
0.0484084218543
0.0230360267338
0.0412954706701
0.0464575984137
-0.0430229008062
-0.0289238993882
-0.0429963621712
0.0
-0.0584239593365
0.0259734297426
0.0359895717435
0.0
0.0101246432987
0.0
-0.00869463230789
-0.0105045817916
-0.0664113940346
-0.0213387442475
0.104305194471
0.127066671683
-0.0453706004682
-0.0336887947227
0.0
0.066120959572
-0.0273985350604
0.23770987171
-0.00358588224687
0.00177544742774
9.46826181881e-05
0.0535966890475
-0.00713607581171
0.0
0.0523479848141
0.241564833166
0.0393074343336
0.0400337906111
-0.176062316884
-0.0989025832787
-0.0284113412642
0.0381572518374
0.0
0.0485408344495
-0.0954552205227
0.121054657309
0.17142144899
0.0306874822524
-0.0240756196709
0.148506221004
0.0
0.0804319473544
-0.0633854180027
0.00152812565566
-0.00898497703876
-0.221846020983
-0.0233800064394
0.0
0.0103901973027
-0.0332596737995
-0.00680122009265
-0.0393563811102
0.0288661618049
0.0144733015101
0.0
-0.0439385618412
0.171205781217
0.0640549470234
0.0367078504368
0.0841454044638
0.066326248678
0.0
0.0
-0.024957598398
0.0137762505577
0.0154976378552
0.0911586400056
0.258449428389
0.0577446036231
-0.0762734165345
-0.0277091167767
0.000709497576872
0.0226811403252
0.0302158455853
-0.0890610901727
0.0414164764632
-0.0312579073404
0.0538310721937
0.0437661840026
-0.0133645834096
0.00685653319409
0.0598630401181
0.00621574101779
0.0882132383872
-0.168854550797
-0.0450815072873
-0.076196860501
0.00494092842429
0.213754307119
-0.0567038418227
-0.048633890789
0.0317941505764
0.0699743871825
0.0
-0.0633270668487
-0.013668473984
0.0471460873493
0.0209975683966
0.261628235452
-0.0105909150225
-0.0296021252052
0.03564543813
-0.0493887856245
0.0
0.0878429843284
-0.149360098646
0.0
-0.181965540948
0.0728320123697
0.0454619920146
0.0
0.0104260171005
0.0
0.0
-0.0205650362215
0.0588268458971
-0.0587978537146
0.0504222589759
-0.04473204295
-0.0122215178273
0.0
-0.0841258976263
-0.149796186652
0.0
0.104242658478
0.0686753731457
-0.0544448895032
0.0595942961975
0.0
0.0579640143261
0.0232610999502
-0.108500782018
0.17857532324
-0.0152121200816
0.403399453048
-0.0781782550637
-0.0107484077941
0.00834613179981
0.0
0.0
0.0
0.0
0.0067239582097
0.0
0.0
0.0
0.0
0.0578853053974
0.0
0.0547726566757
-0.0685610936676
0.0
-0.0307554258691
0.023100866099
0.0
-0.147382605211
-0.0433310890945
0.059974194569
-0.139767338151
0.0162951881909
0.0
0.157703205425
0.16297150472
0.0
0.00306376157428
-0.013668466131
-0.0867610519417
-0.0736150220521
0.00522063420098
0.0787487531295
-0.181088490384
-0.0796121636148
-0.215527647969
-0.0447977297817
0.01587819431
0.121799424482
-0.0782497484774
0.0329233766439
0.127170069752
0.140013728108
-0.0648316553432
-0.107225266832
0.0475367889989
0.0
0.090697762181
-0.0219214287507
0.00939794688637
0.0
0.0102725631404
0.0176881974473
0.0614085256947
0.251684470163
-0.108634173634
-0.0198811832142
-0.159815191033
0.0
-0.0396871694107
0.139482552509
0.0
0.0743196040793
-0.0104765897028
-0.0362912824977
-0.0489013132361
0.0395481489861
0.0
0.0
-0.0298479994587
0.0
0.0764367138119
0.00530366552057
-0.0539717679657
0.181104148356
0.0
-0.03899775994
0.0739049003326
0.183027171816
-0.0307248061521
0.0297071094133
0.0
0.0
0.0232610999502
0.0346926471788
0.0359004046118
-0.00736647834421
0.0170089886051
0.0728229535381
0.00530366552057
0.0
0.0255835873746
0.0203741584477
0.0764436576669
0.0
0.0411476483119
0.0
0.0
0.0843799838166
-0.0999866085311
-0.0110464169028
0.0637072627425
-0.180027138301
-0.00656775202289
-0.0263168032339
0.0671020968603
0.0386013089486
-0.0287695201971
-0.0697308353573
0.0
0.0
-0.0251931277517
0.051778237704
0.0
0.170033237292
0.0
-0.024247014426
0.0
-0.0480496530695
0.0402223283671
0.0
0.0454676198951
0.0411242786025
-0.0162237328631
0.145668779163
-0.0179584904278
-0.0242569040275
0.0745949918565
0.0
0.0203421173035
0.113486896473
0.158784699653
0.339702760996
0.0248859085784
-0.134967216785
0.0
-0.0210321344749
-0.0135169155232
0.0299732425427
0.0
-0.142788748918
0.00811701258361
-0.0459120815794
0.0140195407587
-0.00174878112896
0.0241426286662
0.0
-0.112479065573
-0.0438713459775
0.142567811378
0.0
0.0
0.0316358608856
0.0873668802009
0.00789565441507
0.0
0.0561464604177
0.00216006313071
0.0
0.0
-0.0232282292045
-0.0544304809668
0.106416146845
0.0
0.00724908180202
-0.0155596388636
0.00238362687569
0.186203376803
0.071251407697
0.191258096854
0.0416497215205
0.0416978689792
0.0
0.0375523659087
0.0481809910001
-0.101348234146
0.0127384744945
0.0437681189038
-0.0227649041586
0.0
0.0523367054005
-0.0431067655642
0.00600515436861
0.0181567714129
0.0428583020736
0.0312741346794
0.0432027221329
0.00626533496894
0.00626533496894
0.0
-0.110041258169
0.0809250034668
0.0
-0.225526759728
0.0
0.0
-0.0402354002908
0.0502753614446
0.0101768766126
0.0629660545441
-0.137619124644
-0.00251522554984
0.00838513484796
-0.036026171199
0.0761413362492
0.103926105376
-0.0510294678256
0.204130907055
-0.0136351670316
0.0933955313834
0.0
0.0
0.123806169711
0.0
0.136676208109
0.0665075019078
-0.0897956188215
0.0163047400461
-0.0573285579434
0.0582778252867
-0.117189293525
-0.0740765802837
-0.00825814275153
-0.195548507406
0.0417051385077
0.0109051214951
0.643028314404
0.0719983518772
-0.115120517596
0.00482341767548
-0.00882997413475
0.0459148659896
-0.019806914852
0.0631321203609
0.0
0.0161888811915
0.0
0.0550760539601
0.157702512438
0.0905053011728
0.0
0.0622567922234
-0.00431006859364
-0.0240752072754
0.0
0.133931204307
0.0
-0.0213387442475
-0.0485353099336
0.0150209450891
0.15575862476
0.000471675332314
0.00789565441507
-0.0404059176329
-0.0285444442206
-0.0466488047929
-0.00735973502462
0.256090595346
0.0138858373131
-0.197068312746
-0.0663361180376
-0.374883646643
0.0322628099657
0.0203820033421
0.143044002692
-0.226436434066
0.160034447985
0.107328921559
0.0388869430658
0.0409383209308
0.0307699309776
-0.0528433889735
0.00730912788897
-0.065720707277
0.0
0.0914819320596
0.0232610999502
0.0
-0.120138809693
-0.033958266825
0.0226628571049
0.0
0.0468761083264
0.0220058469929
0.0
0.0
0.0
0.0
-0.00296698933344
-0.098672019151
0.284132381363
-0.0104765897028
0.0
0.0
-0.0278855320039
0.0
0.0
0.0
-0.0562529018185
0.149903660134
-0.0655581205817
-0.000893286245724
-0.377981647954
-0.0727537232013
0.0
0.0
0.0896821106909
-0.0636077172494
0.0
0.0
0.0
-0.00823524385192
0.0241426286662
-0.0745314629915
0.0676894163753
0.0
-0.0673448087352
0.0
0.1814781365
0.11419280972
0.0
-0.0374420489158
0.269767238004
-0.0278855320039
0.0
0.0
-0.562636335616
0.107041967785
0.28986512485
0.0
0.267019972099
0.153588359685
-0.098731491469
-0.00332118414657
0.100041427108
0.102976138773
0.0210079493922
0.0253446300836
-0.0541046305921
0.0
-0.00308442781878
0.0
0.0
0.0
0.0957394492192
0.0
0.131964928739
0.125724750539
0.0
0.0
-0.0290552072349
-0.299291583223
0.0366057256696
0.140343780193
0.0
-0.026980075204
-0.026980075204
0.0120854791921
-0.000598801109391
0.0
0.00478514594352
-0.0214844759917
0.0
0.0
0.0
0.0
-0.0247188905812
0.0684384345061
0.0131216697076
0.024174806978
0.054889925297
0.00834613179981
0.0239589172287
0.0
0.0
-0.0100586873045
-0.0165041567636
-0.0824812880436
0.016884872331
0.0
-0.172150942561
0.0120854791921
0.0
-0.0515531826468
0.0241426286662
0.156992507739
0.0797230094986
0.164632459854
0.0
0.0101686228618
0.0127384744945
-0.0126153597594
-0.278221458067
-0.127275279319
0.0
0.0208837353897
0.0141035372277
0.0767872798345
0.0563293847533
-0.114923907418
-0.017048194923
-0.0435577149476
-0.145183238173
0.0
-0.0786527919127
-0.0573466067471
-0.0128744720745
0.035402838786
0.0
0.0
0.0358094451169
0.000609320048291
0.0
0.114512156405
-0.0174946304401
0.0
-0.0905538334858
0.0923960119573
0.0906574086085
0.0
0.0545167823933
0.0
0.0357417634674
-0.0578172422488
-0.0732854898315
-0.0389265949673
0.0132575661025
0.0
-0.156281357676
0.0667390452095
-0.144699269423
-0.000383449198749
-0.00933997430115
-0.118081064816
0.0
0.0
0.0106193171119
0.098628615111
0.0
0.0
-0.0139247156661
0.0
0.0
0.047730492436
0.0542139818157
0.0
0.0
0.0
-0.232002463478
-0.0433859327051
0.0
0.0
-0.0724848315697
0.0
0.0472043285403
-0.0375646582502
-0.00809110258347
-0.0471510654714
-0.0213243247767
0.207573794717
0.0
0.0
0.0
0.0421454101075
0.0763559841286
0.195130742487
0.0
0.0410492414435
0.0
-0.0808303658098
-0.0692866801561
-0.0277455830863
0.0810624251796
-0.0240756196709
-0.0672624663428
0.0
-0.0980095362503
0.0210079493922
0.0
0.0127289918246
0.0137043174233
0.110660190037
-0.0311982821203
0.0522677181369
-0.0814486903467
0.156549449349
-0.0626690722385
0.0
-0.01491829586
-0.0499348704928
0.00565877218662
0.0
0.0
0.0998299089825
0.0110420051883
-0.0546787020887
-0.0845040658234
0.0877916521669
0.0
-0.0548089966254
-0.0131959536871
0.214201541645
0.0814000283623
-0.0176860613983
0.0907524516324
0.041535429361
-0.00351587655549
0.0
0.0
-0.288020798091
-0.124486880316
0.0
0.209893964768
0.0882132383872
0.0358533977727
0.0504321235049
-0.0243104082812
0.0
0.0249720404037
0.0
-0.0185844776638
-0.0425725805995
-0.0120680935707
0.0379863195921
0.0550238683108
0.0138423875748
0.0
0.036319525908
0.0642610923426
-0.0136084036096
0.0115318738933
-0.07377404057
0.0929458506658
0.0195775144326
-0.0784435365174
-0.0721988100477
0.0137464888352
0.0
0.20186541301
0.000471675332314
-0.0317469995559
0.263271556665
-0.149565195814
-0.790304142425
0.330190508708
0.0178010426387
-0.145820070657
-0.250595279676
0.134267782567
-0.217555111416
-0.127032973266
0.13018501657
-0.0430229008062
-0.00696423299953
-0.0139247156661
-0.031359134134
-0.0568301422904
-0.0147856055203
0.0
-0.0430229008062
-0.0430229008062
-0.0807193405006
-0.227599251645
0.00284721665872
0.0
-0.0120411428924
-0.0430229008062
0.0
0.066823305493
-0.0616362634413
-0.0430229008062
0.237329694467
-0.0899014499408
0.0038454276989
-0.0313835605322
-0.0430229008062
0.0922355521207
-0.0395403525935
-0.0971275313982
0.0597866471629
-0.0396871694107
0.00152812565566
-0.192151350832
-0.00542563152583
0.0
0.0
0.161817575077
0.0648250886007
-0.00179141068839
0.041248400483
-0.0430229008062
0.0
-0.0335314274504
0.0
0.0
0.046249164716
-0.0257364879558
-0.0416056347494
-0.12751608967
-0.00633648408282
-0.178980339766
-0.0579373684504
-0.326554493419
-0.224923995816
0.0616910443412
0.12705256918
-0.0626235385684
-0.00986363965038
0.0478065901509
0.0209548624055
0.242952811151
0.0207709668751
-0.0453505884584
-0.215039561343
0.0
0.0
0.221709613248
-0.00174320831543
-0.0122555130246
0.0534854535229
-0.0533198005696
-0.0331208092295
0.0
0.0252231694662
-0.0364988620076
0.0112316399971
-0.0219963647874
-0.0240756196709
0.0
0.0
0.00938391739049
0.0340063166982
-0.00809110258347
0.115685602997
0.00443871527734
-0.0564153945564
-0.0235623911704
-0.0429705150966
0.0316396997945
0.163704493208
0.0
0.0825107938989
-0.0494090169878
-0.0997484548539
-0.0648507363545
-0.038251521279
0.0
0.0529360541711
-0.0404731801305
0.0
0.0
0.0250214371367
0.00290792220166
0.0627342650341
-0.000171144061578
0.378457319965
0.0
-0.120686739999
0.0447897860284
0.0479364335182
0.0333015711366
-0.0488128535755
-0.0597691463297
0.0
0.0
0.0487392416964
0.0569360803623
-0.0361166708163
0.0602680387972
-0.0184236616298
0.0
-0.0502965025968
0.0293437387603
-0.0593076897444
-0.0069555169199
-0.00595055737369
-0.0222834613567
-0.000909956739941
-0.0288866548666
-0.0237613073707
-0.0449973737901
-0.0388026859568
0.0
0.105664908371
0.168125343598
0.0299802795
-0.252199046845
-0.146801671642
-0.043884736611
-0.00456416859362
-0.0951363490499
0.0941867313228
-0.11227624382
0.0742448688769
0.0
-0.0128194420341
-0.073997366893
0.0333880883667
0.0769522272264
0.150695825794
-0.0550135855802
0.0421791153927
0.179615967023
-0.0140958597277
0.0378872170006
0.0541702200248
-0.0753713718001
-0.0452236298889
-0.0355537883069
0.0781121205023
0.0491848834926
-0.218103322348
0.0
0.00897788005398
-0.000171144061578
0.24631503241
0.103302791849
-0.271122825874
0.0357745012283
0.0310574366795
0.0598875629471
0.113657072615
0.0230360267338
0.0698868474686
0.0875006439738
-0.0349052242666
-0.0309124011588
-0.0268017111001
0.0
-0.00311369057627
0.0210079493922
0.0529360541711
0.0
0.0
-0.0185255759941
-0.122548727801
0.173496635169
0.222425785744
0.0457509960177
0.0
0.0277236761315
-0.15496537064
0.0975009962093
-0.0212814246232
0.0135636881845
-0.41217896282
0.0
0.0
-0.00130020284797
0.0490335390667
0.0
0.0
0.128132205973
-0.0988918215138
0.00169728248629
0.0230360267338
0.0230360267338
-0.0019861463059
-0.0640464438847
0.0
0.126296326193
0.149480426356
-0.00228962037636
0.0189319687497
0.0499201386399
-0.141003972838
0.0
-0.0848097692976
-0.0174946304401
0.0
-0.0354322644111
0.196099127641
0.0
-0.00473409630377
0.0780455581631
-0.00341962020458
0.0
0.0
0.0462850195461
0.0849284349352
0.0101981076715
0.0491290820875
0.0
0.118788721085
0.151455843794
0.00637569998385
0.0768243240221
0.104666318431
0.0893296683749
0.155732924139
-0.120188929855
-0.373221989404
-0.0188413607712
-0.0424403642833
0.00855845855527
0.0
0.267926223877
0.0230360267338
0.0788477701276
0.0
0.0
-0.0267749832446
0.057662641008
-0.0203693790696
0.0
0.0550364274249
0.0538059577114
-0.0224314297611
-0.263312117875
0.0375523659087
0.0
-0.112449759033
0.0428083447247
0.129167462807
0.0407681469881
0.0144725497315
0.0952827581939
-0.0344636709992
0.062316766132
0.0179138931612
-0.0335563382249
-0.0259196509764
-0.0566943380765
0.0
0.0262266089551
0.0
0.00615009878729
-0.0923144730352
0.0321223657751
0.0214724125787
-0.142712072376
0.209086789631
0.15247087737
-0.00330835038206
-0.0202877535032
0.274629205985
0.17212353107
0.0
0.0
0.0
0.055475980568
0.00826751524716
0.333172671006
-0.0194838848007
-0.0858425189922
0.0051778163205
0.0715713867018
0.0
0.0
0.0
-0.0967066059987
-0.0104765897028
-0.060291730056
0.0763446704911
0.0
-0.0938049246895
0.032818269605
0.0307325561949
0.0379271081272
-0.0965905446072
-0.0688192114624
0.00751917972483
0.0
0.0204904708519
-0.0012512715243
0.0601473200133
0.0
-0.00805843837021
0.143542150233
0.0232610999502
0.0514048323455
-0.129911016268
0.0246028497487
-0.0447662342234
0.0
-0.0164021077885
0.0524097071926
-0.0209023208369
0.0528497803659
0.034561342569
-0.0613036746259
-0.0880440920377
-0.146290061085
-0.145312261307
0.166938581457
0.0
0.0120698125064
0.162740647254
0.0
-0.00739911271061
0.0857013218826
0.0
0.0
-0.00262611119664
-0.0972136107273
0.00641039961795
0.0373062519603
0.0373062519603
0.0
0.0
0.0
0.0
0.0
0.0
0.0
0.000427535665767
0.0
-0.00562420101861
-0.0425570905271
-0.039451546557
0.0151136879481
0.0737713225888
0.0
-0.053785424111
-0.00260706905931
-0.00593541191144
0.0833215461586
0.031222453657
0.0
0.0
-0.0497434675825
0.0
-0.0967092457096
0.0232610999502
0.0
-0.0189360346204
-0.0135558411838
0.0
0.125981961459
0.0
0.0596945987138
-0.0411059571435
0.0
0.0
0.0
-0.0698546656646
-0.0526670015562
0.00674238124252
0.0823929636599
-0.0745661558923
0.0
-0.00808943712787
-0.0623001461228
0.0
-0.099639004124
0.0295772572604
-0.130335778174
-0.217788162039
0.0809000821746
0.0277223699558
-0.115324606088
0.0
0.0230360267338
-0.0292720512455
0.0
0.0362147309919
0.0
-0.157711112726
0.0
-0.0942350002669
-0.00981454623359
0.000522218283955
0.0
0.0679930875336
0.0
0.00537834307116
0.0376344221912
0.021866314561
-0.10326581503
-0.0174946304401
0.0448489401638
0.0046346854951
0.051778237704
0.0858699759283
0.0134456599295
0.0578085278009
-0.0381357619534
-0.0302872147072
0.0
0.101459340834
0.0765872516021
0.120804207879
-0.0685610936676
-0.039443166111
0.0
0.0537498897744
0.0
-0.00822524249579
0.0162667873246
-0.0409596491597
0.0
-0.121812591803
0.0685490869434
0.0
0.0
0.120964770232
0.0707523417962
0.086721968308
0.0143845698523
0.0290069655154
0.0207709668751
0.0
0.0
-0.134850076149
0.050917214023
0.0669456340561
-0.0886158703784
-0.0641233008069
0.0
0.0
-0.0667260252352
0.00530366552057
-0.0898946701663
-0.0876106862791
0.0
-0.0519390479858
0.016884872331
0.0
0.0
-0.0938192727803
0.0
-0.210189117417
-0.0043514089114
0.0660707900651
0.0866310265733
0.164683767911
0.0
-0.0386514956872
0.127077727678
-0.00540962147488
0.0
0.0
0.0
-0.0365964178052
0.0
0.036832938487
0.0382679475137
0.0
0.0
0.0
0.000594064042141
0.0
0.000213193445691
0.0
0.0695225034995
0.0
0.00475088419037
0.0
0.0
0.0
-0.0400288158739
0.0
0.0115416800312
0.0380177678331
0.0415520233246
-0.225766260813
-0.0385586994763
-0.198100888164
0.0331306297967
0.0
-0.0469961098535
-0.0469961098535
0.0
-0.0138072414842
-0.0138072414842
-0.0263168032339
0.080206401377
-0.0635035359888
-0.129872336267
0.0
0.0
0.0
-0.0539717679657
0.0798267764332
0.0
0.0163909698337
0.0379793361656
0.0427362052095
0.0349496048859
-0.714072595625
-0.000183737441097
0.00920017994939
0.0336833392118
0.0777570726626
-0.00343144246639
0.0
0.0975585302203
-0.0168950050372
0.1793987447
0.0
0.0
-0.00882997413475
0.0
0.0800327732164
-0.0169815272093
0.0
0.0
-0.0441984988813
0.0159784722189
-0.000183737441097
-0.0338725321637
0.0248147703853
0.0945852309324
0.0587879627353
-0.000679027805613
-0.0220258628307
0.0307007717425
0.00583606086986
-0.0845092156032
-0.0487321881104
0.0563555756655
-0.183569902422
-0.0430229008062
-0.0998397616383
0.0834302734983
-0.0630159693587
0.0210153371171
-0.0502892987021
-0.0326115166303
-0.0594736953025
0.0
0.0
0.0
0.0594895221751
-0.0275890186682
0.00378931027843
-0.267404194383
-0.03737347694
0.00751917972483
0.0
-0.0509729167062
0.230743003377
-0.0361166708163
0.032844206974
0.0
0.0
-0.00967068847198
0.0
0.0
0.0
-0.0389265949673
0.0
0.0
0.0129698553293
-0.0565357372213
-0.0452743461889
-0.0423315611622
-0.220845110412
0.0
0.0
0.0
0.0
0.00991841386727
-0.0137437327012
0.0
0.0
0.0
0.0
0.0157140126983
-0.0394815299737
0.0228463555862
0.0223692993845
-0.00527137237736
0.0
0.00808433066489
-0.0043514089114
-0.017048194923
-0.00262611119664
0.0466798065954
-0.0361166708163
-0.00808943712787
0.0
0.0456584264984
0.0
0.00537834307116
-0.0178070473427
-0.199367184665
0.0
0.0
0.0
0.0
0.00557002409209
0.0
0.0
0.0
0.0
0.0
-0.0410767979988
-0.0712023476138
-0.0692184490132
-0.0595441852864
0.00290792220166
0.0
0.0
-0.0932931403257
-0.0793406044946
0.00252363338492
0.136849969746
0.00136843714074
0.0
0.0653801294312
0.0554080081322
0.0059206345222
0.0
0.0241194598729
-0.0691591575723
0.0206455095881
0.0024916007292
0.0884581206358
0.0
-0.0317005951342
0.0
0.0
0.0
-0.00213480350199
0.0534362653461
-0.256988099391
0.218756097277
-0.0026007143215
0.0
0.0828717605886
-0.00388784163129
0.12623758318
0.0262747646269
0.0
-0.0308296541797
-0.0686789530619
-0.0471314959029
0.0
0.0916205819115
-0.0551181928482
0.0929683484847
0.0501369505824
0.0
0.0699175240842
0.0
0.0364523309176
0.0
-0.00144571296924
-0.0143540022391
-0.0225249296458
-0.0377464568739
0.0838699036081
-0.105879565082
0.0442707911837
0.070769794136
0.0
0.0
-0.189070019354
0.0
0.0
0.0
-0.000743714810961
0.10168754623
0.0402488602554
-0.00678493736569
-0.0336887947227
0.0135644247958
0.0
-0.0483928980336
-0.0169194112626
0.0051778163205
0.0617242171957
0.0411476483119
0.0
0.0373716949173
0.0777570726626
0.166544648547
0.0
-0.000383449198749
0.0404306067628
0.0506586039452
0.0
0.0
0.0
-0.0632659663749
0.154607229781
-0.0796339698592
-0.0172769565071
0.0
0.00719277142805
0.0
-0.0286993452739
0.0
-0.0637834550877
0.0
0.0357374625275
0.0015204182114
-0.0848724656708
0.0
-0.00527090494288
0.0130989533881
0.0220626886515
-0.0718292697659
0.0
0.0
0.0
0.000263120174495
-0.0398046885578
-0.0483915674033
-0.0843406782628
0.0
0.0
0.00304712171484
0.0
0.0407681469881
0.0
0.116266546401
0.0339739917129
0.0920368848326
-0.110628059825
0.0
0.0881076475156
-0.0955703729409
0.0109051214951
0.0438669412859
0.0128517967392
0.0706428921
0.0272823338999
0.0189689710154
-0.0417996800074
0.0
0.0
-0.0377621490567
0.0
0.0
0.0185781888524
0.0308741437337
-0.0565524301184
-0.00743777543897
-0.00743777543897
0.084882131218
0.148738684029
0.273877236223
0.0
0.000452829668596
0.0259734297426
-0.026980075204
0.0
0.00600515436861
0.150781418583
0.0163047400461
-0.0756518984111
-0.0192987313732
0.0
0.000240949925661
0.0436277055898
0.0195162582878
0.0014452961605
0.00135430467685
-0.0470465272661
-0.0630886014808
-0.00891071149315
-0.019742906527
0.00318711086217
0.203453995551
0.132773114525
0.0
0.0957849743974
-0.106564781724
-0.0714737552793
0.0161277386121
0.0812775436176
0.0347621177337
-0.084267892395
0.0399614071402
0.0129268143811
-0.0660657185353
0.0
0.0
0.0
-0.0264760878019
0.0163047400461
0.013916470073
0.00245867512428
0.0167268421639
0.0296952624159
0.0158380180694
0.0367078504368
0.0014452961605
0.0
-0.0685026836993
0.0969532502961
0.0406025293382
0.0
0.084711158712
0.052966863729
-0.211489628739
0.144659165088
0.0955366630312
0.0634146350398
-0.022201225044
0.11916637913
0.0242927717331
0.0865870579088
0.0965132002339
0.0168962033393
0.0221479708278
0.0
-0.144623270713
0.00138277363316
-0.000937574066312
0.0
-0.000802776928095
0.00700691029251
0.043759254888
0.0457734415885
0.0427676957956
0.0487357067962
-0.0226892796646
-0.0239961618161
0.0
0.068712767007
-0.116584260442
0.0
-0.0201592109123
-0.000613792805464
-0.00464928488849
-0.063091401914
0.0272711999318
0.0
0.0
0.0461062948518
0.0765734818161
-0.201713141641
0.0012638918703
0.0134576716328
-0.10407731958
-0.201518436729
0.116620148053
-0.0432807014583
-0.0380591510455
0.0
0.0275194950156
-0.387159341351
0.0
0.0519191898025
0.0
0.0
0.0
0.0602894071954
0.0272823338999
0.0520885977542
0.0380968553514
0.0687391523343
0.0
0.0
-0.0449326870744
0.0
0.0
-0.0284289412071
-0.0160668834178
-0.0710667941228
0.0
0.0819728544945
0.0143320385637
-0.0799656381409
-0.0419171153438
-0.0150814205359
-0.000886341186402
0.0
0.00178876041835
-0.00588907942263
0.0631804872545
0.0989373795483
0.146499055181
0.0
0.158419074655
0.0178027524035
0.0
0.0575412792361
0.0997808067205
0.0
-0.00996489317162
-0.0124102105704
0.0
-0.0194494656443
0.0
0.0771471182156
0.0
0.0
0.0507078982723
-0.00492703673347
0.0
-0.0960862193167
-0.0368689276561
0.0115509240616
-0.0143622084544
0.0
-0.0580112205428
0.0136132552407
-0.00428297515415
0.173850229001
-0.00808943712787
0.0
-0.0993174569641
-0.00808943712787
0.1307590478
0.0987091794402
0.0
0.0136874980885
0.0
0.0
-0.0631230086885
0.421279391304
-0.0857648748154
-0.0434930789297
-0.00808943712787
-0.0916846646244
0.0506900992802
-0.0888087776285
0.0
0.0
0.0
0.0530019751376
0.0748608753039
-0.149782085424
-0.00664414096738
-0.20747556776
-0.0378262874146
0.0766370199881
0.0
0.0
0.0
0.0102237134872
0.0
0.0884643976259
0.0
0.0
-0.0134188408334
0.0184528253236
-0.023343330617
-0.0147839091734
-0.193248652754
0.0534874752593
0.0388869430658
0.0
-0.0171451042142
0.00233204134333
0.0201194132405
-0.0813071451204
-0.0375473812061
0.0809936266926
-0.046903746079
0.0
0.0
0.0
0.0
0.214263726588
0.0698406137767
0.0
0.0
-0.0141026412807
-0.095990654444
0.0
0.0
0.0
0.00152812565566
0.120894105952
0.216301981316
0.00744116424393
0.0
-0.0938805596471
0.0602674100415
-0.0134794010283
-0.0711337429234
-0.0840535232421
0.0314347633152
0.115397494889
0.0518128918232
0.0732385176894
0.042691832817
-0.00495309501168
0.0217665524897
-0.0765705599038
0.0882132383872
0.0
0.13566501418
0.0329030072461
-0.00262611119664
0.129980102671
0.0
0.0392973067449
0.0228200596481
-0.0818897081439
0.0946675193588
-0.121039352879
-0.200994317948
0.104026443473
-0.121200570613
-0.0276292537009
0.0
0.240793700767
-0.019709724776
-0.005588348803
0.0
0.0
-0.0389265949673
0.413896338278
0.0597117665105
0.0233413566069
-0.014866430192
-0.0447980497536
0.153360567759
0.0
-0.00393624983354
0.0
-0.287551869109
0.0
0.0
0.0124867972722
0.0
0.0
-0.0212440616293
0.0035385342659
0.0
-0.0919722853409
0.0
0.0
0.0334310086291
-7.64614433903e-05
-0.102474680126
0.0212360664194
0.0584735739903
-0.128577234936
0.176467317009
0.0
0.0
0.0
0.0944950570198
-0.0206749776696
0.0387060396691
0.0
0.0932873860159
-0.23836039128
-0.043459763637
0.0345868571617
0.0598702049787
0.0133650066154
-0.0519305912318
0.0279942466623
-0.157711377207
-0.290458109591
0.0218286514299
0.0298248027249
-0.0969029133603
0.055729975629
0.0545167823933
-0.111412004068
0.097945373264
-0.129825536638
0.0748230439382
0.104475157866
0.0218286514299
0.0444322208744
0.0109051214951
-0.0407009537582
0.0831648659825
0.05909681672
-0.0780878311663
0.189435038997
0.0218286514299
0.0375523659087
-0.0400288158739
0.0583394602859
0.0639416354159
-0.026980075204
0.0
0.0973802152936
0.0
0.0
-0.0564305112363
-0.242661528834
0.0218286514299
-0.0649700051462
-0.0393115341357
0.0203421173035
-0.120554547305
0.105085107285
-0.10694587598
0.121820400295
-0.134443436165
0.193026347016
0.083186025639
0.0
0.0707580947002
-0.0711005554839
0.0104328229646
-0.0804076919345
0.0
0.0
0.0429203243993
-0.0325924360142
-0.00262611119664
-0.0318521147334
0.0
-0.147802666175
0.129350692255
0.0
0.0
0.0697323353067
0.0
0.0480211771032
0.0
0.0299950464956
0.0
-0.169408036231
0.00290792220166
0.122518319848
0.044971374638
-0.00707388647579
0.125814778088
0.0
0.105961285638
0.0
0.0
-0.0306833619546
-0.133834343128
0.0260346791965
-0.0584618229841
-0.0603055676223
-0.000613792805464
0.023986316659
0.0
-0.0563710994118
0.0478070668423
-0.0636347206488
0.137073898826
-0.0541046305921
0.0902787180922
0.142969764105
0.0
-0.0264760878019
0.0538411794333
0.0
0.157550745639
-0.056868698665
0.00537834307116
0.000924227808241
-0.0289901897369
0.0892126777538
0.0
-0.0140958597277
0.0
0.116374776543
-0.0139247156661
0.0
0.0
0.0
0.052570185833
0.0
-0.0555544691752
-0.00964702619139
0.0
-0.017048194923
0.0306818650384
0.0499201386399
0.120681448888
-0.00278887323796
0.0911511534028
0.0
0.0
0.0383577785881
-0.0650268141124
0.140377209533
-0.109173782228
0.0
0.00950334754205
0.0401150141494
0.0
0.0671020968603
-0.00865398041405
-0.00501000670623
0.0
-0.0787409938441
-0.0160668834178
-0.0857915570381
0.0
-0.0685610936676
0.0
-0.0473099629074
0.0376158235689
-0.121571920004
0.0724879011295
0.00885804021039
0.0
-0.0441167838431
0.0
0.0326142145105
0.0916205819115
0.0614682736136
0.0
0.00870781635063
0.00870781635063
0.0
0.0
0.0463371503744
0.0794473319857
0.0
0.0
-0.0272319115121
0.0
0.0
0.0
0.0
-0.00115488440086
0.0438501023804
0.084510511374
0.116317540472
0.0
-0.00473409630377
-0.0430229008062
0.000489480432892
0.0
-0.0480584539832
-0.18922459222
0.0
0.0562423976939
-0.0589623213121
-0.0263168032339
-0.0160668834178
0.0467139366732
0.0
-0.104738176604
-0.0174946304401
-0.00143412083585
-0.0377464568739
0.0
0.134351232253
0.0
0.0
0.0133140854487
0.0594792866886
0.0230360267338
-0.000679027805613
0.0
-0.0758708075564
0.0
-0.0985320889935
0.0
0.0
-0.0719617018752
0.0232162456983
-0.0391723013417
0.00152812565566
0.084561865637
0.0
0.13260189015
-0.0243104082812
-0.0387526354535
0.0
0.0
0.0301105831967
0.0
-0.0139069276595
0.111263016608
0.016884872331
0.0
0.0
0.0
-0.026980075204
-0.0414616136961
0.0143099950432
-0.0656912917313
-0.0665426270832
-0.00475705447471
0.0254198655147
-0.264130804524
0.0
-0.00562656706093
0.0
-0.0634883736591
-0.0326013605705
-0.0321099293172
0.0
0.0
0.0534056552829
-0.0521537242696
0.0
-0.018149789888
0.0108571100436
0.0
0.0
0.0
0.0
-0.0243104082812
-0.0693077820714
0.0192522648977
-0.242090729029
0.121178926177
0.231593555428
0.0
0.0273381146585
0.0
-0.158206922435
0.0
0.0
0.0
0.0276651012439
0.067924988589
0.0
0.0
0.0
0.0907031358742
0.0
0.0
0.0
0.0
0.037216022382
0.0103996920484
0.0
0.0589967340551
-0.401809416824
0.0
0.0268675595365
-0.0837956626314
0.0735655485173
0.0106286250914
-0.0233164273929
-0.0622185196352
0.0284019401871
-0.0161331492242
0.0
-0.120283939397
0.0545167823933
-0.236658939458
0.213825124546
0.09861842049
-0.00743777543897
0.029928855598
0.0112177324903
0.0386177591411
-0.0561782361362
0.0
0.0
0.00510103483181
0.109545837066
-0.00603112434531
0.0
0.0407219674226
-0.00262611119664
0.0
0.00820091424345
0.0451707477971
0.0719605624295
0.00302312987812
0.128468866672
0.0
-0.0165535432044
-0.0296185737631
-0.0388711604153
0.0
0.0
0.0293437387603
0.0
0.0124441598139
0.0
0.0
0.0293437387603
0.0394314170995
0.0
-0.185873526863
0.0
0.147580139748
0.247673640354
0.0
0.0263696578673
-0.0169904259001
0.0
0.0
0.0
0.0611967422558
0.0
0.016298336414
0.0150254746791
0.0
0.0361090686353
0.0579538702094
-0.00564027149592
0.00565877218662
0.0195162582878
-0.0114389128011
0.0
0.0535792274687
0.0293437387603
0.0111544474438
-0.0414009233677
0.0
0.0
0.0
0.033103448854
0.0
0.0
0.0
0.0153797273676
0.0377545394787
-0.0255421478715
0.0
0.0177104088848
0.0338496791804
0.0
-0.240134964535
0.046740095824
0.0
0.00411068088868
0.0599831393873
0.0
0.0
-0.000476664614308
0.0
0.0
0.000614814958684
0.0293437387603
0.0
0.0831708710279
0.0492099291268
-0.0342023974298
-0.0188168346149
0.0458783722974
-0.128768966239
0.0293437387603
0.0
-0.0207104600228
0.0298713552643
-0.0447382042894
0.0
0.0671020968603
0.0293437387603
0.0293437387603
0.0
-0.0904465155784
-0.146357690901
0.0156001271054
-0.0315116443911
0.0
0.0
0.0312656219149
0.0
0.0
-0.155780844189
0.0700527546761
-0.0597376886926
0.0437372977464
0.100748992173
0.0357701495676
0.0428596219346
-0.0479155528996
-0.0060900399916
0.0
-0.0721786078812
-0.191230637298
0.0
-0.0285347441362
-0.0124279309388
-0.288547153162
0.0
0.0
-0.241289865762
-0.229520582442
0.0293437387603
-0.209950146172
-0.028594849307
0.112841961373
0.157754728531
-0.0681688544912
0.0218286514299
0.0218286514299
0.0218286514299
-0.0134365307114
-0.039587973272
0.00563708691728
0.0
0.0235427648013
0.0
0.0
-0.144287048647
0.0
0.0
0.0
-0.207698187269
0.076859024401
-0.139211516852
0.0
0.0293437387603
0.00535824415891
0.0
-0.0278855320039
0.0960371511778
0.0
0.00753535755817
0.00938391739049
0.0
-0.04713401551
0.0
-0.0074127064826
0.0
0.0193298586609
0.0
-0.081682222091
0.0246776818848
0.0
0.0
0.0353177311578
-0.0812781227734
0.0465935202039
0.0
0.0
0.0
0.00530366552057
-0.0763161372943
-0.113440179405
-0.0190786138616
0.0
-0.0832591679474
0.0
0.0
0.104592430604
0.0
-0.0697013836567
0.0109051214951
0.0
-0.00517305801274
-0.0331019930676
0.0911234292731
0.115971921249
0.0121702307494
0.0
-0.0913361486268
0.0
0.0
0.00789565441507
-0.0340926258399
0.0
0.0
0.0697209318825
0.0954745659595
-0.0393413155239
-0.021572356103
0.0320703328856
0.0
-0.0314886921885
0.0
-0.115121750846
0.0
0.085699980076
0.0393837201768
0.0383220765589
-0.0174946304401
0.0721493855156
0.0756046444715
0.0
0.0
0.0223098944147
0.0
-0.0551267406778
-0.0219152482496
-0.0923176669201
0.120283571273
0.0
-0.0179584904278
0.300660665229
0.00938391739049
-0.0110539044465
0.110774468794
0.00380646197372
0.0
0.0
0.258303859923
0.0655411331606
-0.0691013492699
-0.0474091650256
-0.0393115341357
-0.0303665252178
0.101068480861
0.0
0.0
-0.0341074111991
0.0292795988012
-0.0513724376467
0.0233667669771
0.00471099249332
0.107708034234
0.041622601952
-0.0256146937726
-0.0101786938322
-0.00441071374598
-0.0136351670316
-0.0640202350178
-0.00332118414657
-0.0275890186682
0.0147318063221
0.0128516361345
0.0
5.12328799096e-05
0.0
0.0
0.0
-0.0541046305921
-0.0174946304401
0.0871625313956
0.295921578172
0.360239663741
0.0251036729942
0.0524893555769
-0.155621842706
-0.0520959423525
-0.0151499594442
-0.123084679939
-0.0193440504651
0.121491477495
0.0
-0.0311297974717
0.00938391739049
-0.0541781517026
0.0940947345584
0.0
-0.077026050872
0.0313315959987
0.0606465082569
0.00719277142805
0.175009623151
0.0
0.0
0.00533018330197
0.0330396043274
-0.00306543154525
0.0
0.0
0.0
0.0193298586609
0.0916205819115
0.0
-0.0409802887744
-0.0179584904278
0.0
0.0
0.0892133801093
-0.0206339556144
0.068003371957
0.0
-0.110628059825
0.078307774011
0.0274996403768
0.0
0.0
0.0
0.0
-0.0396871694107
0.0262210338771
0.0590524282423
0.0
0.0
-0.0756585053754
0.0
-0.000687118583234
0.0661049664158
-0.0970108579636
0.0
0.192182421197
-0.00809110258347
0.0798428242097
0.0
0.154273221595
-0.0243104082812
-0.0082856989079
0.0
0.0
0.184339714621
0.215774477937
-0.00389870960158
0.0322537999658
0.0
0.00112715463916
0.0
-0.0334175059011
0.0685490869434
0.0
0.0433408431228
-0.0126003537318
-0.119253766564
-0.0466519049403
0.0
0.0222385917032
0.0
0.0337151912058
-0.141557305089
0.192307373473
0.0
0.0142909372682
0.0
0.0
0.00956514421787
0.107838265191
-0.00256985163273
0.00311560363068
0.0248899983891
0.0
-0.0215055674842
0.0871888192519
0.0
-0.0709580597285
0.0133725222154
0.0
-0.0134365307114
0.0
0.152265267618
0.037216022382
-0.151954157004
0.0
0.0
-0.0174946304401
0.0
0.0368770709735
-0.0304964560075
0.0696424012592
0.0
0.0347543031076
-0.0172006143031
-0.214786609644
0.0613236412834
0.0314347633152
0.0480187995814
0.0
-0.0492161335918
0.180672053974
-0.135762969789
-0.0669028127046
0.0070547688017
0.0145039796008
0.0
0.0
0.0685490869434
-0.110628059825
-0.000613792805464
0.0
0.0
0.076478276021
0.0127384744945
0.067271945034
0.0664391186376
0.0
-0.034008704222
-0.0139247156661
0.0665664588193
0.0
0.0
-0.0382543853207
0.030304233815
-0.0180993287322
-0.00178784001454
-0.0192987313732
0.0294047599528
0.0716167829718
0.00722797071589
9.46826181881e-05
-0.0287841683498
0.0
0.0123732735408
0.187305549247
-0.205176859195
0.00930703202812
0.0651500435007
0.0
0.0
0.0270372011169
0.0
-0.0160668834178
0.191966836368
0.00592136905204
-0.0184134952471
0.0712934957639
0.0369619010199
0.175265639547
-0.0269257735367
0.232163448857
0.0
0.0
0.0165911369303
0.13402634171
-0.0734336734891
-0.0389265949673
-0.0124279309388
0.0
0.0457036076864
0.0
-0.110867645293
0.0143466638149
0.0690826848939
0.0796082230233
0.0164898276985
0.0
0.0
0.0346926471788
0.0238848984162
0.0143099950432
-0.0337545786729
0.0
-0.107227246849
0.0
-0.0511131166681
0.0777570726626
0.0329426781433
0.0516604237812
0.0
0.0232930391472
-0.08944006959
0.0
0.0
0.0
0.00536131998322
-0.13287306477
-0.058676845486
0.0
0.064442049291
-0.00274070713563
0.000213193445691
0.00226118462277
0.0
0.101790015683
-0.0816105697452
0.0
0.0826468340545
0.0156509356253
-0.0421233571992
-0.0263838605598
0.0
0.0126106770824
0.0015204182114
0.0015204182114
0.0102900943395
0.0148555534048
-0.0776405623375
0.173369504357
-0.0247572536823
-0.0341364007987
0.0070547688017
0.0225316509725
0.0262193857269
0.0230688706216
0.15464457758
0.0283168225387
-0.0593815149615
0.139296186526
0.36958367856
0.0563848351568
0.0
-0.0138189044727
-0.017791909734
-0.0480431950883
-0.0616171390611
0.0506609327518
0.0512549967939
-0.144843277294
-0.124891577527
0.0
0.0
0.0
0.0285702041635
0.0
0.183816137181
0.0
-0.0104765897028
-0.0225552014595
-0.0771336813541
0.0
0.0234023793428
-0.0285942611244
0.0
0.10514912897
-0.0719434103983
-0.0300326169977
0.140268952265
0.0
0.0
-0.0305782307288
0.0236933518159
0.149927780756
0.0015204182114
-0.0043081191792
-0.034252517072
0.0
-0.00325995004266
0.0272823338999
0.0
0.0
-0.0036306408533
-0.0740940172336
-0.194284480846
0.0
-0.131379217887
0.0
0.0
0.0135096585262
-0.109131649816
0.149590779914
0.0
0.0
-0.0379176009355
0.0
-0.0199443630953
-0.0218065551202
0.0
0.0199963291249
-0.0596449129453
0.0
0.0
0.0
-0.0534265102549
0.0340074622378
-0.0136070740637
0.0460350156853
0.0375409204617
0.0
0.0
-0.0274794413184
0.0882132383872
0.0
0.00843436108093
-0.0316453080322
0.0
0.0
0.0
0.0248946013589
0.00612925323282
-0.0989196423021
0.0
0.00242336985431
-0.0311982821203
-0.0371078178488
0.0
0.0129268143811
0.0
-0.00301517977146
0.0
0.0493946098954
0.0671020968603
0.0
0.01691705219
-0.0980037251239
0.0203741584477
0.0
0.0
-0.0464044738
-0.0362850077974
0.0
0.274997034536
-0.00532063929028
-0.177824678172
0.0121720882755
0.0
0.00777099603768
0.0322628099657
-0.0303223719157
0.0
0.0952868351394
0.0
0.0302129173702
0.0
0.108808431165
0.0
-0.22117805304
-0.0882107905463
0.0
0.029306487661
-0.0363545255852
0.107040828582
0.0
0.104722763961
-0.0390088551282
0.11156074242
-0.0853193612561
0.128619860577
-0.177691797561
0.0041413528245
0.0
-0.00986177474409
0.0249211094527
0.114157477341
0.0
0.0
0.000213193445691
0.0
-0.0131548727336
0.0
0.010001591029
0.0454702984583
0.0
-0.00834959721421
-0.137573533681
-0.0556007816943
-0.0637781039569
0.0
0.0
-0.13753489606
0.0582144057113
0.0945148615751
0.0
0.0461007516405
0.104606166663
0.0
0.0
0.0
-7.38821004394e-05
-0.0325995108717
0.0
0.0
-0.000183737441097
0.0
-0.0993756569239
0.0740057410041
0.0132210156128
0.0
0.0
0.0
0.0409976871666
0.117228529185
0.0
-0.0116322213192
0.0140944165154
0.0332878289806
0.0
-0.15067470884
0.0
0.0928613692538
0.0
0.0637523180112
0.0
0.0236977606935
0.0545167823933
0.0
0.00416836463544
0.082035528971
0.0726020110452
0.0336833392118
0.0
0.0
0.0
0.108466645362
0.0
0.0241426286662
0.0
0.00660605160085
0.0
0.0
0.0
0.0
0.0
0.0
0.0815742363407
0.0
0.0
0.00416836463544
0.0
0.0
0.0
0.0
0.0
0.0
0.114157477341
0.114157477341
0.0
0.0
-0.0308296541797
0.0
0.0444880336892
0.0070547688017
0.0
-0.0171311027594
0.0259734297426
-0.037966194563
-9.10254692678e-05
-0.0262743964587
-0.00882997413475
0.0
-0.0174946304401
0.0
0.0191244194064
0.0185520541849
0.0260625122254
0.0
0.0
0.0
0.0320703328856
-0.108783147195
-0.06206845597
0.0
0.016884872331
0.0308424377499
-0.0665020925988
0.0563848351568
0.0144780382343
0.0268675595365
0.111933217903
0.0
0.0276759904607
0.0
0.0
0.0
0.0
0.012117977929
-0.0601380919411
-0.0452236298889
0.0
-0.0651339056219
0.0
0.059388809228
0.0
0.00164536268596
-0.0472160995059
-0.173930805443
0.0
0.0
-0.116107977696
0.0
0.0
0.0
-0.0226064750544
0.0432934762458
0.0
0.000586801655093
-0.151222938575
0.0
-0.00702492571148
0.0329657695269
0.00397473353581
-0.0323411537704
0.0
0.0
-0.00386192847851
0.102312127879
0.063362784766
0.0
0.0
0.0
0.0
0.232770813972
0.0
0.0
0.0
0.086763099096
0.084436952146
0.0
0.0203741584477
0.0031001373871
-0.211291383219
0.0
-0.0570611691526
-0.026980075204
0.0
0.0
0.0775276605872
-0.00328480345193
0.0127384744945
0.0744003061408
0.00451835820197
-0.114072987725
-0.143165097561
0.0545719383698
0.1222873284
0.0
0.247204400395
0.0
0.0732362828498
0.0
8.1586396277e-05
0.0188504726698
0.00328259069439
0.189064616514
-0.0311982821203
-0.110083420794
-0.010963503279
0.0916205819115
-0.0596350930381
-0.0823635141807
0.0
0.0
0.100622193486
0.173958909561
0.123834363442
0.0
-0.056996035183
0.189571286901
0.0813973971424
-0.0695581591084
0.0607554646776
0.0745621148524
0.0
0.0
-0.0396871694107
-0.149811311473
0.0
0.0
0.0
-0.0326115166303
0.0299802795
-0.157893862568
-0.000937574066312
0.0
0.0
0.0
0.0
0.0774792453992
0.0208837353897
0.0663236021351
-0.0422743210029
0.0137911546949
0.0549593693876
-0.0107810802445
0.0284944983342
0.0
0.0
0.0
0.0703949767033
0.00751917972483
0.0
0.0
0.0493946098954
-0.0896622558873
0.0565865048136
0.0
0.0
-0.175881410925
0.0
-0.0108691039605
0.0163047400461
0.0
0.0727329254444
-0.015866967875
-0.0305768373781
-0.0645201198531
0.0
0.0
0.0
0.0
0.0220058469929
0.0671020968603
0.109706168914
-0.0596449129453
0.0
0.0
0.000471675332314
0.0
0.0
0.0
0.0418432716842
0.0661546276267
0.13031196161
0.0
0.00851478118087
0.0
0.0937241075564
0.0
-0.0607207772864
-0.198169299008
-0.0165041567636
-0.0211276750184
0.0
0.0
-0.00109267231229
0.0
-0.057020019999
0.0388869430658
-0.0713110024469
0.0
0.0
0.0801125897447
0.0415302373333
0.0746682212685
0.037788307678
0.0
0.0314347633152
-0.0136351670316
0.0
-0.0980274343085
-0.0161485353259
0.0
-0.012205947678
0.0
0.0147348365783
-0.0254683691854
0.0
0.0212360664194
-0.0130650305587
0.0
0.0
0.0
0.271422078658
-0.0596449129453
0.0
0.0612788010845
-0.227102648118
-0.052183781599
-0.0275891315773
-0.100125781815
0.0
0.0
0.0
0.0396998156471
-0.0410767979988
0.0
0.0
-0.0556114936581
-0.0684000866447
0.0364142085262
-0.233927382024
-0.0541460815725
0.177203106181
0.0274940402911
-0.0563169224683
0.0
0.0
0.000805320997755
0.0436174315573
0.0787310464955
0.0333561168395
0.0206455095881
0.0
0.0628881005051
0.0
0.0
0.00557002409209
0.0108571100436
0.0
0.0828612875567
0.0
-0.027109172105
0.114296027303
0.0
0.0413806596779
0.0
0.00661994591988
-0.0459204637838
0.00311560363068
0.0187612867777
-0.156968782828
0.00600544539884
-0.0298479994587
0.0675751189203
0.0288546546767
-0.00487966317844
0.0
0.0634934991677
0.0121702307494
0.0
0.010874301295
0.0141591047469
0.0
0.102594205808
0.0448184992561
0.0230616998741
0.0
-0.0521537242696
-0.0521537242696
0.0267297548683
0.0
0.00290792220166
0.0
0.00870781635063
0.0
-0.00246400567192
0.0292862911414
0.0116444359706
0.0
0.0
0.0
0.0
-0.0810295349392
0.0256764018092
0.0
0.0
0.011313485624
0.0
0.0474381744079
0.0
0.0
-0.083514736083
0.0315428117974
-0.195061133091
0.0
-0.052356823628
-0.00300818408296
0.0463333009404
-0.00362586919598
0.0
0.0126665720588
-0.017841244169
0.0
0.0
0.00938391739049
0.0
0.0
-0.145028170271
0.0282094032458
0.0474002842071
0.0
0.0
0.0244464338356
0.0
0.0106286250914
-0.0532738233251
-0.071473461592
0.0
0.0
0.0393582549102
0.0
-0.0256282580282
0.0
0.107389337306
-0.0806891356421
0.0
0.0
0.0660901982873
0.040504153598
-0.00325995004266
0.0236064911147
0.0308512151981
0.0
-0.0239399016433
0.0
0.212427453418
0.0678756273779
0.0
0.0800475449637
0.0
0.0103996920484
-0.00819436705136
-0.0139480575359
0.00934176937153
0.0103102577091
-0.0263325989701
-9.10254692678e-05
0.0
0.0445010419705
0.0398317113385
0.0
-0.0403234752072
0.0896657965765
0.111584818681
0.0014452961605
0.0298282082124
0.0
0.0207709668751
0.0
0.0051778163205
0.0272711999318
0.0
-0.0198489158716
0.0373073950341
-0.00641787009777
0.0
0.0
0.0142217814132
0.0
-0.0526861466675
-0.0319224444859
0.0
0.0
0.109003732343
0.0186031962182
0.00290792220166
-0.0824415587121
0.0
0.132033410566
0.00467361251222
0.0
-0.0505517074727
-0.010880956694
-0.00532063929028
0.0
0.0
0.115123051698
-0.07261538969
-0.0305797186635
0.0
0.0725376591621
0.011240421533
0.0
0.0165179334918
0.0221008189737
0.157094372966
-0.0593138264047
-0.0118628243982
0.0223508302217
0.0
0.0
0.0522557229695
0.0
0.0
0.0
0.0
0.00136843714074
0.0
-0.067012846184
0.0
0.0
-0.0528538508253
0.129858100445
0.049988079258
0.000594064042141
-0.114302952301
0.0
-0.0159288448789
0.0
-0.0200070506555
0.0218286514299
0.0386795205479
0.0
-0.0819056218014
0.0272816092364
-0.193285631776
-0.168530785427
0.0
0.00693566778044
-0.115468399517
0.057914941974
0.0241426286662
0.0164564223344
0.00132671998404
0.00795497897542
0.00525495060619
0.0890745027868
0.0272411481747
-0.24991659332
0.0195162582878
0.0
0.0314347633152
0.0989822507791
0.000471675332314
0.0984507193063
0.00724739483608
0.0270955685938
-0.0205408733633
0.0314347633152
0.0198901884449
0.0
-0.102789308957
-0.00736791068824
-0.0381469456606
0.0314824588912
0.0
0.166832882853
-0.00629680204949
0.0531793848285
0.0671383255723
0.0753256095779
-0.0141209150527
0.0268675595365
0.0350220422782
0.0594625632256
0.109081567812
0.000471675332314
-0.0695499310159
0.00191697149281
0.0
-0.00900688316522
0.0
-0.0146429338493
-0.00914848335568
0.00112715463916
0.0363600650904
0.143492364164
0.0624276060325
-0.0679675304043
0.0
0.0415545492225
0.0268132519673
0.0508182050419
0.0
0.0258912076478
0.0
-0.00253616432724
0.00731936080371
0.104408905504
0.224571833131
0.0641036183845
-0.0684796863841
0.0499201386399
0.0214000498474
-0.19760074796
0.051778237704
0.0750583550651
0.0237547332461
0.0
-0.0606560999471
-0.0277628138483
-0.0955435351957
-0.0718986719332
0.0
0.000512797896064
0.163579145502
0.0
-0.102186800334
0.0
0.0
0.0
0.0
0.0183301141799
0.00216006313071
0.00626533496894
-0.021576120583
0.0142217814132
0.0
0.0
0.0
-0.0055426500621
0.273181057298
0.0
-0.0888078516778
0.0590346815582
0.0206642518108
0.037216022382
0.0545167823933
0.0
0.0
0.135019272757
0.0
-0.0991654682948
0.0
0.023986316659
-0.00360439612768
0.100129778271
0.103013877206
-0.102661089424
0.0
0.0160515260827
0.0524151545065
0.00582392335971
0.0
0.0290118699675
0.0
0.00626533496894
0.0
0.00365855641008
0.0
-0.0477050198366
0.0
-0.0082014125788
-0.0116677660578
0.0
0.104592430604
0.0
-0.192993984489
0.0127384744945
0.0
-0.0563277756067
0.0656232804783
-0.000687118583234
0.0810772430166
0.0
0.0
0.0
0.0
0.0
0.0486638014031
0.00287845194657
0.0429019651349
-0.00891071149315
0.0
0.0014980757804
0.0
0.0
0.0
0.0606961320882
0.0
0.0
0.0
-0.00564010634587
-0.0419250077668
-0.0146429338493
0.0
-0.0553807162802
0.037216022382
0.112928763831
0.0252904289999
0.000329883859403
0.0110395666337
0.00181854997486
-0.103400494372
-0.196293242584
0.0173928282287
-0.0163304824044
-0.103486618895
0.00290792220166
0.0
0.0
0.162106884076
0.0
0.00648906793802
0.0
0.00416836463544
-0.0126658255022
-0.00641331187179
-0.0378045737297
0.0782257298197
0.0
0.0
0.0
0.0
-0.0647166242675
0.0
-0.000206636084959
0.0
0.106040548886
-0.0805061470549
-0.030315214905
-0.11832821095
-0.0653927078142
0.0
0.171353463747
0.0
0.0
0.0405556539469
0.114099433779
0.0
-0.141855070834
-0.0157579628134
0.0232519740236
0.0
-0.00491203993367
0.0
-0.0462747116228
0.0418063763304
-0.000183737441097
0.0
-0.0395481132827
0.0
0.0
0.0
-0.0075487185689
0.097838428673
0.0
-0.000687118583234
0.0989973536432
0.00651374362243
0.0232649966997
-0.0430229008062
-0.0240756196709
0.0
0.0
0.0
0.0
-0.000183737441097
0.0
-0.0536847267768
0.0
-0.0657543048553
0.0
0.0
-0.00100685278391
0.0
0.143587537713
-0.000687118583234
0.0
0.00152812565566
0.0894821284507
0.0
0.0
0.030769272947
-0.133240728062
0.0275901918553
-0.11867212821
-0.0226545923093
0.0
0.0
0.0
0.011402011637
0.0
0.0
0.0
0.0544536025273
0.0
0.116303447541
0.0
0.036319525908
0.0209946078031
0.010701607369
0.0
0.108122890747
0.101051029704
-0.032868206144
0.30188415617
-0.00986584806855
0.0
0.157413038858
0.0162100651866
0.0
0.0
0.0
-0.0420153091952
0.0
0.0
-0.000300966716143
-0.0324051030572
0.0
0.0
0.0
0.0216220208312
0.0
0.0
0.0
-0.0222512393925
0.0
0.0180382307078
0.140880052384
0.0319109389873
0.0375523659087
0.0307325561949
-0.0350354240842
-0.127359294822
-0.127359294822
0.0
-0.0370065113632
0.0275659148578
0.0
0.00652581690416
0.0782405084829
0.0495017491983
0.0
-0.08897992169
0.00232348158193
0.0
0.0
0.0
0.0691715785645
0.00290792220166
0.0
0.0
0.0566625955583
-0.0208593010863
0.0
-0.102789308957
0.0
0.0
-0.0555829734157
0.0383381346108
0.0
0.0940947345584
0.0
0.0
0.0112213030622
0.0
-0.1303039763
0.0
-0.00852768081421
0.0
0.0
0.0
0.0
0.0420928959612
0.0
0.0
0.0949776130915
0.0795811502331
0.0
0.0
-0.0249674181374
0.0805851714607
0.104592430604
0.0143099950432
0.0603759079146
0.0272823338999
0.119179176392
0.0
0.00557002409209
-0.0555714834091
-0.0848157087556
0.217534286917
0.0
0.0
0.125038505949
0.0
0.000971649842714
-0.0201276387777
-0.0201276387777
0.0
0.0
0.0
-0.159087804284
0.0
-0.0375646582502
0.000227012267712
0.0
0.00218161972715
0.0
0.152388934924
-0.158149117913
0.0
0.00152812565566
-0.10387070986
-0.186520971354
0.0
0.0296625022526
0.0193298586609
-0.0998397616383
0.0352271316709
0.0
0.00416836463544
0.0
-0.0400288158739
0.0
0.0127384744945
0.0
-0.118328857063
0.0
0.109248074466
0.0353027289021
0.0913863014353
0.0
0.0501372423233
0.0
-0.00709964539391
0.0
0.0299133893544
0.098707481722
0.012183267699
0.0331306297967
0.0
0.0
-0.0396871694107
0.0834183302414
0.0
0.0
0.00416836463544
0.079360541024
0.0
0.0
-0.0635417631952
-0.104838697142
0.00938391739049
-0.0279345951015
-0.0198489158716
-0.00973129149073
0.0
0.0290336103385
-0.0720235359681
0.0818698714931
-0.0929558978432
-0.0540902458777
0.0152638873183
0.0
0.0583253729009
-0.00489507116832
0.133872029405
0.0
0.0
0.147073215457
0.0
0.0218509110249
-0.137853748784
0.0
0.0480060322652
0.10644192263
0.0763238785508
0.0
0.0259734297426
-0.00729769843313
-0.000390897369854
-0.0573147402871
-0.0450583846814
0.0752177338015
0.000489480432892
0.192442251757
0.0193298586609
0.0
0.0
-0.0398814705224
0.0
-0.0266178300732
0.00537834307116
0.140482405087
0.0
-0.110554158429
0.0
0.0
-0.000613792805464
0.0
-0.229650241601
0.0
0.130106133405
0.000586801655093
0.0
0.0
-0.0397075084265
0.0
0.032844206974
0.0127384744945
0.134711491445
0.105179232259
0.194629477697
-0.0209170620356
-0.0262099507954
0.0
0.0
-0.0263325989701
0.0
0.0
0.021032615095
0.0109051214951
-0.000306684768382
0.0272823338999
0.0
0.0892210853656
0.0272864434728
0.212898999021
0.0
0.0
0.0463710770604
0.0234582041927
0.0278281047135
-0.0278855320039
-0.177356819562
-0.0311982821203
0.0
0.0
0.0
-0.0697189534546
-0.0337157418326
-0.165575041241
0.0119852335715
-0.117087719626
0.0
0.0
0.0
-0.119042048482
-0.0139247156661
0.0
-0.204241179738
-0.0998397616383
0.0
-0.146464599212
-0.0602058263616
0.0
-0.0151567465231
0.200273648883
0.0292987158014
-0.0603239407509
0.0
0.0373091307032
0.0
0.0
0.148637832265
0.0686492712645
0.0
0.0
0.0373091307032
0.0
0.0
-0.0256851823503
-0.0109797364468
-0.114273380162
0.0
0.0362549503255
0.0
0.0
0.0
-0.0351622876469
0.0
0.0
0.0
0.0438299234162
-0.158260724064
0.000586801655093
0.0
0.00389748744299
-0.0615960784158
0.0393459276106
0.0290394560979
0.0
0.0
0.0
-0.0317005951342
0.0643555413158
0.240003225889
0.0505979400968
0.0740136575684
0.00532084003589
0.0187206607291
0.0
0.0399263939567
-0.054752672212
0.0
0.036319525908
0.112517761451
0.0
0.0
0.00416836463544
-0.0998397616383
-0.0803329963888
0.0
0.0272823338999
0.0
0.0662795216823
0.0
0.0
-0.0130650305587
0.0
0.0167231893025
0.0230360267338
0.0
0.0
0.0
0.0671020968603
0.0
0.0
0.0
0.0
0.00358961782
0.0249874502748
0.0
0.108315783694
0.0
0.0608034422176
0.0
0.0946419449936
-0.0539717679657
0.0
0.0
-0.0765370660533
-0.0846462345937
0.00234873314156
0.0810734077317
0.0
0.0268791118139
0.0
0.0108690921433
-0.0105433321257
0.0190921479599
0.0
0.0
0.0
-0.0570761120479
-0.0599314682727
0.0
0.0031001373871
0.0484680091969
-0.10217111441
-0.13728965752
0.0667489351517
0.0
-0.00469654626321
-0.165626366814
0.0
0.137335919075
-0.0469664894535
-0.0219648933059
0.0286026415873
0.0
-0.101835628109
-0.0389265949673
-0.047379062541
0.0
0.0
0.0
0.0
-0.00100685278391
-0.0136794716959
0.0
0.0
0.0
-0.0051994887581
0.0
0.0
0.0
0.0
0.0
0.0
0.0
-0.17513257174
0.108933446205
0.0
-0.0336555365301
0.0
0.0289854108332
-0.0578097293836
0.0288454969235
0.0157444488192
0.0428132078525
0.000614814958684
0.0
0.0
0.0
0.0
0.0
0.000258884151902
0.0
0.0
0.0378478309897
0.0
0.0
0.0
0.0138042248577
0.0
0.0
0.0
0.0
0.0
0.0
0.0
-0.0582952310593
0.0
0.0
0.0
0.0
0.0329794355169
0.0
-0.00879544240898
0.0
0.0
0.0
-0.058028498909
0.0452635799099
0.0
0.0
-0.00358576069135
0.027294209458
0.0
0.0
0.0
-0.0336555365301
0.0
0.0
0.0
-0.0714524556428
-0.0326115166303
0.0
0.0
0.0
0.0
0.0
0.0
0.024936372438
0.0
-0.0412553137961
0.0109051214951
-0.0263372679407
-0.0570293882738
0.0
0.0
0.0
0.0469090753766
0.0
-0.0328153507715
0.0443902395155
-0.0313960650419
-0.0531528644239
-0.250984536365
-0.0261901908489
0.0
-0.021795732494
-0.021509888309
0.0
0.0246721976506
0.0
0.0
0.0386177591411
0.0
0.0
-0.056660196319
0.0858537212244
0.0
-0.0624285211099
-0.00597212581174
-0.00754045194649
0.0
0.0
-0.0474189502879
0.0
0.0
0.0656335433274
0.0
0.0
0.0
0.0056320421888
0.0319064386475
0.0852948334025
0.0
0.000471675332314
-0.262970488804
0.0
0.0
0.0
0.000471675332314
0.00672941203978
0.0685490869434
-0.028594849307
0.0
0.0
0.0
0.0456544730066
0.0
-0.041794412616
0.01060754697
0.0
-0.0386598191143
-0.0605103758118
-0.0249871930531
-0.0028217235175
0.0
-0.0321137963703
0.0
0.0272823338999
0.0
0.0
0.0
0.0
0.0103007190572
-0.18823896207
0.0
0.0
-0.00246077660165
0.0
0.0223618261851
0.0
0.0
0.0637584956224
0.0259734297426
0.0
0.0
-0.00328480345193
0.0335679786
0.097872027838
-0.0120927379406
-0.00951709271798
0.0
-0.0113754502109
-0.00481781751616
-0.0811027896993
0.0664160588992
0.0421413040408
0.0
-0.111128194512
0.0
-0.0302437247588
0.00925226668157
0.0
0.0
0.00189705273635
-0.309121232439
0.0927944656619
-0.0328249004002
-0.0152893891831
0.00647852841463
0.0
-0.0670637377361
-0.0263168032339
0.0324469291787
-0.000857163411945
0.066120959572
-0.0394273356645
0.0
0.0
0.102477691955
-0.000917446037344
-0.00256985163273
0.0788952553373
0.0
-0.00770524907391
0.0670758121316
0.0195991004686
0.0
0.0
0.0
0.0
0.0
0.0
0.0
-0.0179842675643
-0.0415600711762
0.0
0.0
0.0
0.0
0.041076699685
-0.0184134952471
-0.0469664894535
0.0
0.0
0.0
0.0
0.0
0.0
-0.0430229008062
0.0
0.0
0.0
0.0
0.0
0.0994971322439
0.0
0.0
0.00152812565566
-0.0396871694107
0.096187296959
0.00398743058104
0.0
0.0
0.0
0.0
0.0
0.0212360664194
-0.0248792454935
0.0
0.0070547688017
0.0
0.0
0.0271833709696
0.0
0.0
0.0
0.0245603097471
0.00216006313071
-0.00134675019465
0.0
-0.0528846679826
-0.12671459574
0.0254446525906
-0.0384533536446
0.0573216501917
-0.0194838848007
9.46826181881e-05
-0.0593425273245
0.0469850500293
0.00216256332079
-0.171609408119
0.0
-0.105387801213
0.0
0.00578038725422
0.182808229539
0.0
0.0334306696477
0.0
0.115157424559
0.0
0.0
0.0106286250914
0.000594064042141
0.0322628099657
0.0
0.0444289982241
0.0
-9.10254692678e-05
5.12328799096e-05
0.0
0.000427535665767
0.0
0.0217591664924
0.217175917503
0.00102932015231
0.0
-0.000171144061578
0.0
0.0
0.135795024508
-0.016363812053
-0.0171588806744
0.0
-0.00600278929149
-0.00716796881527
0.0
0.0540398755945
0.0
0.0
-0.0500357038294
0.0
0.0474144642436
0.0
0.143349426389
0.0
0.0
0.0
0.0
0.0
-0.0313650211286
0.0
-0.0196865057187
0.0228312581221
-0.110628059825
0.0997926701871
0.0
0.161000473728
0.0
0.0
0.000489480432892
0.0474991959979
0.0
-0.0210853125192
0.0555817943605
0.0142217814132
-0.0335283875674
0.0
0.0
0.00978770345976
0.0
-0.0350523906845
-0.105387801213
0.0307699309776
-0.00549226315837
0.0468297967743
0.0
0.0386177591411
0.0114700068246
0.00600515436861
0.0
0.0
0.0916205819115
0.00108548249622
0.0989409537262
-0.0095224560658
0.0
0.0
0.121177225639
0.0
0.0687963529481
0.0
-0.153398012313
0.0
-0.0449973737901
0.0347425388684
0.0
-0.114255574478
0.0440067708746
-0.147346820726
0.0
0.0
-0.0588868936474
0.0
0.0
-0.042264840388
-0.0874124832939
0.0743415158251
-0.000743714810961
0.0
0.0
0.031573442348
0.0783227246424
0.0
-0.0848414842841
0.0
0.0
0.055188545076
0.000427535665767
0.0520019420879
0.0
0.0162376991792
-0.0430229008062
0.0813754870197
0.0389242638667
0.0538880088679
-0.118944767063
0.0564071588947
-0.116567555796
0.0
0.00174996006442
0.0
-0.0756583305083
-0.0455354907423
-0.0258820237597
-0.0278855320039
0.0
-0.279826341765
-0.196207656813
-0.0539717679657
0.0145773189778
0.237734892459
0.0
0.0103996920484
0.0
0.0
0.0305552064586
0.0
0.0280124650878
-0.00395460347237
-0.000769547356764
-0.0263168032339
0.0
-0.0539717679657
0.0
0.0
-0.0301055161596
-0.0539717679657
0.0
-0.0179551271072
0.000489480432892
0.163322823261
0.0
0.0
-0.0358982501512
0.0
-0.0144688665911
0.0
0.0486514337083
-0.0433013411609
0.0
0.0
0.0
-0.0428977876774
0.0300303595576
-0.0225679241714
-0.0231701000181
0.0
-0.348207910487
0.021866314561
-0.171947086239
0.0
0.0
-0.0429937707116
0.0218254248818
0.0
0.19839227673
0.0
0.0376898705601
-0.0634423265658
0.144772783026
0.0
0.0
0.00372540814636
0.0366340120895
0.0499201386399
-0.0377464568739
0.00590188691513
0.0
0.0
0.0
9.46826181881e-05
0.0
0.0
-0.0463747419144
-0.0240756196709
0.036319525908
-0.0557387526989
-0.0250821837387
0.0321051807691
0.021866314561
0.0
-0.023280454472
0.0
0.0
0.0422134431486
-0.0119677961977
0.0701894461712
-0.076767733116
0.0203421173035
0.0
0.0
-0.0240756196709
0.0545167823933
0.0
-0.0258721695155
0.0
0.0
0.0
-0.019972544136
0.0
0.0
0.000213193445691
0.0
0.0
0.00693566778044
0.0583068277944
-0.119138493012
0.00789565441507
-0.0249249778522
0.0
-0.0160668834178
-0.0288565894101
0.00499308644683
0.0
0.0241426286662
-0.0268943606735
0.131586765549
0.045089650493
0.0
-0.151175336909
0.0261165014739
0.0
0.0199860683143
0.0
-0.0375646582502
0.0478804489568
0.0292795988012
0.00152812565566
-0.0358925090246
-0.0002639933901
0.0
0.0619679351319
0.0
0.0
0.0
0.0
0.0
-0.0532083603336
-0.00332118414657
0.0
-0.0263168032339
0.0
0.0
0.0388869430658
0.0373197009106
0.0539366474466
0.0
-0.0785458008166
0.0
-0.156677753007
0.0
0.132699712023
0.0
-0.0521537242696
-0.0002639933901
0.1900826968
0.0241426286662
0.163434375477
0.0493092070139
0.0
-0.0446338775509
0.0
0.0
0.0
0.0575754337467
0.0209229774952
0.0
0.0
0.0
0.0
0.19338829304
0.0
0.0
-0.0286993452739
0.00282188107838
0.0
0.0
0.0
0.0
0.0
0.0
0.0208837353897
0.0
0.0
0.051778237704
0.0191565367139
-0.0186249966758
0.0
0.0237199520651
0.0
0.0
0.0
0.0
0.0
0.0
0.0637072627425
0.0
0.0
-0.0569554397089
0.0121702307494
-0.00875086568455
0.0
-0.113104492519
0.0
-0.0448731119235
0.0
0.0
0.0
0.0121702307494
0.0
-0.0123922626464
0.0
0.0365056163429
0.0090550101258
0.0
0.0
-0.0218065551202
0.104592430604
-0.010318185366
0.0
0.0
0.0
0.0208819546946
0.00500659218851
0.0
0.0
-0.0198335502549
0.0
0.0
0.0
-0.11018419524
0.0
0.0
0.196409688698
0.153785458739
0.113279491953
0.0183495177126
-0.00332118414657
0.0125399312145
0.0105841804982
0.0
0.0
0.0
0.120850679258
0.015777046085
-0.101439190221
0.0192090399424
-0.05398620592
0.0504990051317
0.0411476483119
0.0
0.0
-0.0802544089662
-0.0759453902445
-0.0111051764222
0.123741933202
0.0
0.0
0.0
0.00693566778044
0.0180634945757
0.0
0.0
0.0
-0.0163727751331
0.0
0.110798450256
-0.00938266721722
0.0
0.0586617689183
0.0259734297426
0.0
0.0
0.0031001373871
0.00226118462277
-0.0172257573359
0.0583229289738
0.104592430604
0.00072598353756
0.0
0.028006736617
0.0259734297426
0.0969761944271
0.0349264709731
-0.0143879282981
0.0
-0.0142825642184
0.00500659218851
-0.0902680876701
-0.0347200297754
0.0
0.0
0.0440067708746
0.0239152173609
0.0
0.0912959128345
0.0193298586609
0.0
0.0545167823933
0.0
0.0290750213006
0.0836181448556
0.0
0.0143099950432
0.0582658906609
0.162589256537
0.03716891671
0.0
0.0
0.0
0.0321411879145
0.0335887260045
0.106576962979
0.0411364007902
0.0638350073216
0.0
0.00789565441507
0.0
-0.0151567465231
-0.00664414096738
-0.0425031193715
-0.00943744123962
0.0430646128297
0.0
0.0
0.0
-0.0881347092527
0.0
0.169902996812
0.0
0.0
0.0265850073287
-0.0227105068304
-0.0675318829427
0.0
0.0
-0.157762381251
0.0
0.0
0.0121702307494
0.104592430604
0.0
0.0
0.0912797728393
0.00949046334366
0.0287137760514
-0.02043803655
-0.0477563869462
-0.0289710611904
0.0
0.0
-0.089414985537
0.0
0.204645137832
0.0
-0.155040187895
-0.272059403055
0.0
0.00136843714074
0.0
-0.0280774223051
0.000309824053345
-0.0565297824071
0.0103207666169
0.00152812565566
-0.0599688355899
-0.0633528072372
-0.0531752524956
0.0368119216499
0.0
0.0
-0.141059709812
0.0
0.00710406834712
-0.0298479994587
0.02676571245
0.0
-0.0822947852257
0.0
-0.0139247156661
0.0
-0.0139247156661
0.0143099950432
-0.0122437731091
-0.00175056759487
0.0
0.0
-0.0560977097475
0.0
0.0926974964749
0.00551670593768
-0.0207663619089
0.00938093859962
0.0
0.1278352194
0.0
0.0
0.0
0.0
0.0208837353897
-0.0344738355631
-0.00905188301497
0.0
0.0
0.0
0.0
0.0
0.0
-0.00332118414657
0.0172802499918
0.0
0.0
0.0
0.0
0.0635063571108
0.0319573969424
0.0
0.104592430604
-0.0297547840139
0.0
0.00816484087342
0.0
0.0237373742841
0.0
0.0176881974473
0.0284918772378
0.0670758121316
-0.0469961098535
0.0
-0.0291403853556
0.0226363345928
0.0
0.0338112923647
0.0
0.0487392416964
-0.0138072414842
-0.0661817584005
-0.0678602489132
-0.0911650045652
0.0
0.00870781635063
-0.0401786401522
0.0958753674356
0.0
-0.0181864370978
-0.0594160828001
0.0
0.0
0.0129268143811
-0.1017571609
0.0
-0.480111765395
0.0818769030251
-0.0352433104633
-0.00826058118945
0.0
0.108401599794
0.0206455095881
-0.0296021252052
-0.00403323562214
-0.0266472318634
-0.0680725800111
0.0
0.0216414896835
-0.0324071277304
-0.0743085339166
0.0248198538101
0.0158627280664
-0.0730807416162
0.0
0.152767670929
0.0
-0.0409406027759
0.0
0.0351593837671
0.0719723785153
-0.0713695943134
0.141431603809
0.0916205819115
0.0135557004341
0.0290159455569
0.00247475904941
0.0733385555882
0.0
0.0
0.0
0.091928256986
0.0
0.0
0.225730134688
-0.0548140019067
0.0
0.0330847558064
-0.118688892235
0.0
0.0293437387603
-0.0331648821009
-0.0305688944746
0.0
0.0
0.0
0.0
0.013602862204
0.283144969006
-0.0186249966758
0.016884872331
0.0515528580861
0.0
0.0
-0.0348116912093
0.0
0.0
0.0293437387603
0.159462076759
-0.0139631922059
-0.0605346361399
0.00693566778044
0.0
0.00751917972483
0.0
0.0898766737326
0.00626533496894
0.0
0.0
0.00145384383487
-0.0139247156661
0.0
0.0
